%YAML:1.0
opencv_ml_svm:
   format: 3
   svmType: C_SVC
   kernel:
      type: RBF
      gamma: 2.9999999999999999e-01
   C: 100.
   term_criteria: { epsilon:1.1920928955078125e-07, iterations:1000 }
   var_count: 648
   class_count: 29
   class_labels: !!opencv-matrix
      rows: 29
      cols: 1
      dt: i
      data: [ 1, 2, 3, 4, 5, 6, 7, 8, 9, 10, 11, 12, 13, 14, 15, 16, 17,
          18, 19, 20, 21, 22, 23, 24, 25, 26, 27, 28, 29 ]
   sv_total: 107
   support_vectors:
      - [ 4.29482684e-02, 7.12731406e-02, 3.51397097e-02, 4.50535975e-02,
          6.91520274e-02, 4.10797745e-02, 1.40411463e-02, 1.87837947e-02,
          4.33066674e-02, 1.10241331e-01, 1.04759991e-01, 4.72975932e-02,
          2.95181796e-02, 2.87038982e-02, 2.14090273e-02, 8.86255410e-03,
          5.23006245e-02, 2.16680616e-01, 1.92778617e-01, 3.36180806e-01,
          3.36180806e-01, 1.28454864e-01, 1.55220687e-01, 3.47878002e-02,
          7.27527589e-03, 2.25234237e-02, 1.11760423e-01, 3.36180806e-01,
          3.36180806e-01, 3.36180806e-01, 3.71442027e-02, 3.21855098e-02,
          3.12147047e-02, 1.17229939e-01, 3.36180806e-01, 3.36180806e-01,
          8.22128505e-02, 1.02214761e-01, 2.76126806e-02, 3.17163281e-02,
          2.66122613e-02, 1.42207695e-02, 1.00978147e-02, 6.57123327e-02,
          1.63261101e-01, 8.30598250e-02, 1.02362901e-01, 3.66354883e-02,
          7.30861798e-02, 5.96131757e-02, 2.38283463e-02, 2.01818738e-02,
          3.39909755e-02, 6.52662292e-02, 3.97885591e-01, 1.55117169e-01,
          3.93061936e-02, 7.47433072e-03, 3.00908461e-03, 3.36770676e-02,
          1.44130498e-01, 3.97885591e-01, 3.97885591e-01, 3.97885591e-01,
          2.12029919e-01, 4.06651199e-02, 2.99034957e-02, 1.06332060e-02,
          2.22724918e-02, 2.77491100e-02, 1.51766255e-01, 3.97885591e-01,
          8.77223089e-02, 7.70487934e-02, 2.85967160e-02, 2.55326517e-02,
          3.05772927e-02, 1.34245213e-02, 1.34216147e-02, 2.74009574e-02,
          5.33366092e-02, 1.02599397e-01, 7.71729350e-02, 2.16481071e-02,
          9.43790656e-03, 5.29314056e-02, 4.32337783e-02, 6.92880377e-02,
          9.07497555e-02, 5.25126755e-02, 3.28991532e-01, 3.28991532e-01,
          1.02200694e-01, 4.20582294e-02, 7.95714278e-03, 9.22897365e-03,
          2.27060094e-02, 9.88207087e-02, 2.42031738e-01, 3.28991532e-01,
          3.28991532e-01, 1.09072983e-01, 4.23162431e-02, 5.90704642e-02,
          2.94865876e-01, 3.28991532e-01, 3.28991532e-01, 3.23198766e-01,
          6.99931160e-02, 2.28190452e-01, 1.44445807e-01, 5.92880361e-02,
          6.10945635e-02, 1.09054809e-02, 2.44303071e-03, 7.95965362e-03,
          3.73558216e-02, 2.08270594e-01, 2.55848467e-01, 1.43205479e-01,
          2.35231239e-02, 1.54296979e-02, 2.06167437e-02, 5.08279540e-02,
          1.93875283e-01, 2.55848467e-01, 1.37725338e-01, 2.55848467e-01,
          2.55848467e-01, 2.55848467e-01, 2.19037965e-01, 3.09145208e-02,
          3.20510380e-03, 9.48483683e-03, 5.04150242e-02, 2.55848467e-01,
          2.55848467e-01, 2.55848467e-01, 1.70554474e-01, 9.38689411e-02,
          1.41303927e-01, 1.50035009e-01, 2.55848467e-01, 2.55848467e-01,
          1.46899670e-01, 3.92015390e-02, 1.13907196e-02, 2.35252245e-03,
          1.51796092e-03, 1.69438757e-02, 4.75915819e-02, 1.88920885e-01,
          3.22988272e-01, 3.14108431e-01, 5.62898405e-02, 1.15041994e-02,
          6.86560525e-03, 2.01995042e-03, 5.60705131e-03, 7.46879168e-03,
          4.19959687e-02, 2.57982612e-01, 3.65921825e-01, 3.73353846e-02,
          2.47473158e-02, 1.22029968e-02, 2.15730965e-02, 1.03602841e-01,
          1.35037452e-01, 2.91707695e-01, 3.65921825e-01, 3.65921825e-01,
          6.68196157e-02, 1.81691069e-02, 1.82392530e-03, 0.,
          5.28359553e-03, 1.17810145e-02, 5.34858853e-02, 3.65921825e-01,
          2.72845119e-01, 1.98467165e-01, 4.62454893e-02, 2.28273477e-02,
          3.13645322e-03, 3.88486893e-03, 7.50882225e-03, 3.32877301e-02,
          9.37702879e-02, 2.55527109e-01, 1.96362793e-01, 4.76219505e-02,
          2.67632902e-02, 3.39462869e-02, 1.23982005e-01, 1.14198126e-01,
          1.80808470e-01, 1.17734380e-01, 2.72845119e-01, 2.72845119e-01,
          1.86053008e-01, 1.18542686e-01, 3.79548445e-02, 1.78091191e-02,
          6.07932732e-03, 2.00953782e-02, 2.72845119e-01, 2.72845119e-01,
          2.49751449e-01, 1.87729076e-01, 1.76240236e-01, 2.72845119e-01,
          2.72845119e-01, 9.76041928e-02, 1.42811522e-01, 1.78070784e-01,
          1.00613952e-01, 2.52999008e-01, 2.52999008e-01, 2.12237567e-01,
          1.66737378e-01, 3.32708545e-02, 8.62807781e-03, 1.01976357e-02,
          4.14942801e-02, 2.38275647e-01, 2.52999008e-01, 2.52999008e-01,
          1.15303680e-01, 6.55064732e-02, 9.73175988e-02, 1.04768917e-01,
          1.89559966e-01, 2.22583711e-01, 2.41915807e-01, 1.62844405e-01,
          8.88103172e-02, 1.24888130e-01, 2.38129526e-01, 2.08794996e-01,
          1.75975919e-01, 1.20324887e-01, 1.96138188e-01, 2.52999008e-01,
          1.12145156e-01, 6.47172481e-02, 5.36439084e-02, 5.23987897e-02,
          7.96469972e-02, 8.12986121e-02, 1.38112724e-01, 2.52999008e-01,
          3.03335935e-01, 2.31284015e-02, 1.50496764e-02, 7.20888609e-03,
          1.30970208e-02, 6.20932281e-02, 8.21714029e-02, 1.68992043e-01,
          3.49247426e-01, 3.49247426e-01, 3.98834608e-02, 1.06360903e-02,
          1.01221632e-03, 0., 3.17311403e-03, 7.03026867e-03,
          3.04037016e-02, 3.49247426e-01, 3.49247426e-01, 1.66487973e-02,
          3.26095941e-03, 3.14844656e-03, 6.91877771e-03, 1.78206377e-02,
          2.01216415e-02, 5.62284291e-02, 3.49247426e-01, 3.49247426e-01,
          3.99201550e-02, 2.92432797e-03, 1.92852836e-04, 0.,
          1.35088677e-03, 8.41280166e-03, 4.40147109e-02, 3.49247426e-01,
          3.04394215e-01, 2.06162289e-01, 1.40385002e-01, 8.85717571e-02,
          3.18326019e-02, 1.38533562e-02, 4.65782406e-03, 1.44067146e-02,
          3.04394215e-01, 2.27565184e-01, 1.78811759e-01, 1.42783388e-01,
          1.36358336e-01, 3.04394215e-01, 2.76825309e-01, 6.93908557e-02,
          9.82194170e-02, 1.38029695e-01, 3.04394215e-01, 7.62686059e-02,
          4.21900377e-02, 3.46655846e-02, 5.75053878e-02, 3.59573960e-02,
          8.62584785e-02, 1.57993138e-01, 3.04394215e-01, 1.00219741e-01,
          2.91130953e-02, 4.82100397e-02, 1.65734112e-01, 3.04394215e-01,
          1.27502531e-01, 1.01698972e-01, 1.00768022e-01, 1.15793154e-01,
          2.45036691e-01, 1.37572899e-01, 6.39678836e-02, 1.08356513e-01,
          2.36111358e-01, 2.24977911e-01, 1.85903683e-01, 1.29486844e-01,
          2.21393272e-01, 3.15000623e-01, 9.50348750e-02, 4.10366654e-02,
          4.34011593e-02, 4.82236296e-02, 7.59728700e-02, 7.72856325e-02,
          1.36127144e-01, 3.15000623e-01, 1.58278391e-01, 4.50447714e-03,
          1.23621884e-03, 7.39301927e-03, 5.78850098e-02, 1.77706197e-01,
          1.70117334e-01, 1.85683861e-01, 3.15000623e-01, 3.15000623e-01,
          3.33700422e-03, 7.91995088e-04, 1.71564810e-03, 7.89579470e-03,
          4.11865413e-02, 6.51984662e-02, 1.56575173e-01, 3.15000623e-01,
          3.48776281e-01, 1.53470198e-02, 1.82726188e-03, 2.31126626e-03,
          5.16373990e-03, 1.16824023e-02, 1.33771440e-02, 4.51140814e-02,
          3.48776281e-01, 3.48776281e-01, 3.60496938e-02, 1.93100970e-03,
          1.03314815e-04, 0., 1.21747551e-03, 1.02191819e-02,
          4.68225144e-02, 3.48776281e-01, 3.48776281e-01, 9.14844684e-04,
          2.45820760e-04, 1.54556625e-03, 2.09753471e-03, 1.48947304e-03,
          5.48296748e-03, 2.37673633e-02, 3.48776281e-01, 3.48776281e-01,
          1.68663226e-02, 1.98046165e-03, 6.74842251e-03, 1.00711491e-02,
          1.31150559e-02, 5.08806668e-02, 1.15464352e-01, 3.48776281e-01,
          2.73781061e-01, 5.51409498e-02, 2.57350374e-02, 2.34863963e-02,
          4.85328734e-02, 3.63363065e-02, 9.80244502e-02, 1.60989106e-01,
          2.73781061e-01, 8.57325569e-02, 1.77188236e-02, 4.12480570e-02,
          1.49369419e-01, 2.73781061e-01, 9.94043276e-02, 1.08698241e-01,
          1.04304262e-01, 9.62693393e-02, 2.20882818e-01, 2.99042463e-02,
          1.61856227e-02, 1.49086080e-02, 2.51491573e-02, 7.28762671e-02,
          2.73781061e-01, 2.73781061e-01, 2.73781061e-01, 1.76455274e-01,
          6.06833287e-02, 1.50957048e-01, 2.73781061e-01, 2.73781061e-01,
          8.13384131e-02, 2.70018816e-01, 2.66153812e-01, 1.28672674e-01,
          2.12028056e-01, 9.60188732e-03, 2.38155131e-03, 1.37072355e-02,
          6.82817325e-02, 2.51195431e-01, 2.40453944e-01, 2.69419044e-01,
          3.68054658e-01, 3.68054658e-01, 6.05791807e-03, 1.67656818e-03,
          4.28890670e-03, 1.00691365e-02, 5.86182810e-02, 9.54609290e-02,
          2.31391340e-01, 3.68054658e-01, 6.63728565e-02, 3.93558778e-02,
          2.60107685e-02, 4.92615700e-02, 1.24736115e-01, 3.91895212e-02,
          3.05612460e-02, 1.02727458e-01, 1.90008476e-01, 2.25031808e-01,
          4.34232280e-02, 2.36523580e-02, 2.59247217e-02, 3.60906906e-02,
          1.99652370e-02, 2.73505319e-02, 1.21900506e-01, 3.68054658e-01,
          3.95158917e-01, 2.58771761e-04, 2.64425436e-03, 7.01770466e-03,
          5.92588540e-03, 4.45897318e-03, 1.11163389e-02, 4.22254279e-02,
          3.95158917e-01, 3.95158917e-01, 2.38837246e-02, 9.40675475e-03,
          1.93473324e-02, 2.32035462e-02, 2.76483372e-02, 9.56526324e-02,
          1.99460536e-01, 3.95158917e-01, 2.65390754e-01, 8.73447508e-02,
          5.49658164e-02, 5.66365458e-02, 2.82121599e-02, 2.16357447e-02,
          2.29480416e-02, 4.64780629e-02, 3.05021822e-01, 1.23323731e-01,
          1.34683847e-01, 1.14990219e-01, 9.69040617e-02, 6.82496428e-02,
          5.79627194e-02, 7.84876123e-02, 1.17411360e-01, 2.30125204e-01,
          2.62067705e-01, 3.59222889e-02, 2.32458413e-02, 2.30631996e-02,
          3.17566507e-02, 1.01795420e-01, 2.64647722e-01, 2.64647722e-01,
          2.64647722e-01, 2.28533372e-01, 8.20608884e-02, 2.00359032e-01,
          2.64647722e-01, 2.64647722e-01, 1.07055180e-01, 2.64647722e-01,
          2.64647722e-01, 1.71718940e-01, 5.77397086e-02, 5.13254516e-02,
          5.44955991e-02, 6.77004233e-02, 4.31082100e-02, 6.51657060e-02,
          1.27933934e-01, 1.64764911e-01, 1.41209796e-01, 1.33573860e-01,
          6.29666224e-02, 1.29966944e-01, 2.64647722e-01, 2.16401190e-01,
          4.03992273e-02, 8.62090290e-02, 1.36851981e-01, 1.34835169e-01,
          1.24785230e-01, 7.08510280e-02, 5.62887862e-02, 9.37621966e-02,
          2.34121531e-01, 6.44579753e-02, 4.74251099e-02, 1.57948077e-01,
          3.00094426e-01, 3.07068557e-01, 8.26931223e-02, 5.17905951e-02,
          4.91059944e-02, 6.80013299e-02, 3.47472578e-02, 4.71333489e-02,
          2.05330521e-01, 3.07068557e-01, 1.96970001e-01, 3.82385664e-02,
          7.43922517e-02, 7.03792199e-02, 2.35510662e-01, 1.24393165e-01,
          1.35292068e-01, 1.58913463e-01, 3.07068557e-01, 3.07068557e-01,
          7.58042261e-02, 9.44650099e-02, 4.89573069e-02, 8.00647140e-02,
          3.59792449e-02, 6.72437996e-02, 2.44993836e-01, 3.07068557e-01,
          2.90737212e-01, 1.43765315e-01, 8.53426978e-02, 8.52736086e-02,
          4.24504168e-02, 3.17080021e-02, 3.68451588e-02, 7.42876530e-02,
          2.90737212e-01, 1.90768555e-01, 2.22521782e-01, 1.72900513e-01,
          1.46474794e-01, 1.04089603e-01, 8.79379883e-02, 1.06111400e-01,
          1.53035313e-01, 2.58832008e-01, 2.90737212e-01, 1.78070545e-01,
          8.57375115e-02, 6.47344440e-02, 3.02582961e-02, 8.44574347e-03,
          3.82078961e-02, 1.61690488e-01, 2.90737212e-01, 2.90737212e-01,
          2.90737212e-01, 1.09123692e-01, 8.38115886e-02, 5.39122373e-02,
          3.58294882e-02, 1.89625490e-02, 8.75680447e-02, 2.90737212e-01,
          9.69422758e-02, 9.24645513e-02, 9.25094858e-02, 1.20207861e-01,
          7.59947449e-02, 1.01442017e-01, 1.63412943e-01, 2.33723834e-01,
          1.99143529e-01, 1.93881124e-01, 9.31200758e-02, 1.91750988e-01,
          2.60986507e-01, 2.60986507e-01, 6.22081757e-02, 1.00310065e-01,
          1.92348555e-01, 1.96667850e-01, 2.60986507e-01, 1.71452537e-01,
          8.55036825e-02, 9.93916392e-02, 6.14736564e-02, 2.91013233e-02,
          1.51790241e-02, 8.90910625e-02, 2.60986507e-01, 2.60986507e-01,
          1.21588051e-01, 1.69123352e-01, 2.60986507e-01, 2.60986507e-01,
          3.91898304e-02, 1.17695527e-02, 3.39819603e-02, 2.53676534e-01 ]
      - [ 3.73815671e-02, 8.07435066e-02, 3.41317393e-02, 3.71508300e-02,
          7.32214525e-02, 5.41070700e-02, 2.20394433e-02, 1.02349399e-02,
          3.94304320e-02, 1.01052724e-01, 1.17667764e-01, 4.32831235e-02,
          1.39335720e-02, 3.37072983e-02, 1.54792257e-02, 1.29457340e-02,
          5.81915416e-02, 2.05956995e-01, 2.24508807e-01, 3.51816177e-01,
          2.93368846e-01, 1.30850449e-01, 1.73688471e-01, 3.93021889e-02,
          8.31904635e-03, 1.69246569e-02, 1.24020830e-01, 3.51816177e-01,
          3.51816177e-01, 2.48086452e-01, 4.19147126e-02, 3.55795361e-02,
          2.87097525e-02, 1.29646972e-01, 3.51816177e-01, 3.51816177e-01,
          8.02062377e-02, 8.16236287e-02, 4.49571759e-02, 1.74863432e-02,
          2.50351541e-02, 3.48647311e-03, 2.07821690e-02, 7.70919845e-02,
          1.42896056e-01, 9.07265320e-02, 8.37733150e-02, 5.27805537e-02,
          3.22691724e-02, 4.37506475e-02, 1.34204524e-02, 2.97889374e-02,
          3.07912808e-02, 6.35952502e-02, 3.98845434e-01, 1.42857179e-01,
          3.59110571e-02, 7.45937880e-03, 6.58130692e-03, 2.77961921e-02,
          1.63118497e-01, 3.98845434e-01, 3.98845434e-01, 3.98845434e-01,
          2.15804592e-01, 3.92508544e-02, 2.67898981e-02, 1.26027931e-02,
          1.34458495e-02, 4.35278341e-02, 1.74584180e-01, 3.98845434e-01,
          9.83897597e-02, 8.71628895e-02, 1.95529386e-02, 8.30428395e-03,
          2.50534229e-02, 1.04454057e-02, 1.33653274e-02, 2.66746450e-02,
          4.94752601e-02, 1.14629745e-01, 7.32430145e-02, 1.53263416e-02,
          4.67353081e-03, 4.98544686e-02, 3.93241532e-02, 6.33540750e-02,
          9.37528908e-02, 5.05775623e-02, 3.30022573e-01, 3.30022573e-01,
          1.11942098e-01, 2.28826571e-02, 4.57560644e-03, 6.66590827e-03,
          2.79833861e-02, 8.76191482e-02, 2.53612638e-01, 3.30022573e-01,
          3.30022573e-01, 1.23879790e-01, 1.95247922e-02, 5.51438481e-02,
          2.81355232e-01, 3.15318704e-01, 3.30022573e-01, 3.30022573e-01,
          7.86443278e-02, 2.47397542e-01, 1.20675348e-01, 5.99050745e-02,
          6.71004280e-02, 1.13740172e-02, 2.45196442e-03, 6.08428521e-03,
          4.13680598e-02, 2.04927683e-01, 2.53891587e-01, 1.01048924e-01,
          2.66294926e-02, 1.63311251e-02, 1.96049903e-02, 5.27274981e-02,
          1.87007934e-01, 2.53891587e-01, 1.56241804e-01, 2.53891587e-01,
          2.53891587e-01, 2.53891587e-01, 2.31407121e-01, 3.63672450e-02,
          9.69927665e-03, 9.48827714e-03, 6.14827424e-02, 2.53891587e-01,
          2.53891587e-01, 2.53891587e-01, 1.85801849e-01, 8.83813053e-02,
          1.47291481e-01, 1.49435520e-01, 2.53891587e-01, 2.53891587e-01,
          1.42916247e-01, 3.61252539e-02, 8.98573175e-03, 2.42077303e-03,
          2.15345668e-03, 1.55000789e-02, 5.10434881e-02, 2.03047588e-01,
          3.10466528e-01, 3.36714864e-01, 5.75974397e-02, 1.04979686e-02,
          6.68303017e-03, 2.59444257e-03, 3.56808165e-03, 1.11097880e-02,
          4.77548093e-02, 2.25617006e-01, 3.59580278e-01, 3.83808464e-02,
          1.28578404e-02, 1.27647175e-02, 1.78447403e-02, 1.06614508e-01,
          1.31850794e-01, 3.20786893e-01, 3.59580278e-01, 3.59580278e-01,
          8.99134129e-02, 1.81987677e-02, 4.63230629e-03, 5.60914923e-05,
          5.92215359e-03, 1.18997283e-02, 6.60752580e-02, 3.59580278e-01,
          2.71232188e-01, 2.03683093e-01, 5.13255149e-02, 1.62677728e-02,
          1.62893138e-03, 3.19266738e-03, 9.43838898e-03, 3.01979128e-02,
          9.94504318e-02, 2.58001268e-01, 1.84546024e-01, 5.40364087e-02,
          1.73740387e-02, 3.26136015e-02, 1.20529197e-01, 1.11652717e-01,
          1.87111661e-01, 1.42211109e-01, 2.71232188e-01, 2.71232188e-01,
          1.94486201e-01, 1.08993709e-01, 3.06408834e-02, 1.79339740e-02,
          6.89287670e-03, 2.00570691e-02, 2.71232188e-01, 2.71232188e-01,
          2.50914544e-01, 1.90051883e-01, 1.51767373e-01, 2.71232188e-01,
          2.71232188e-01, 9.97122973e-02, 1.47868261e-01, 1.85908541e-01,
          1.16406634e-01, 2.54890889e-01, 2.54890889e-01, 2.00635388e-01,
          1.75235048e-01, 3.46462764e-02, 1.60620417e-02, 1.18029937e-02,
          5.06914556e-02, 2.34317571e-01, 2.54890889e-01, 2.10734323e-01,
          1.25567809e-01, 6.12440407e-02, 1.01370960e-01, 1.05764762e-01,
          1.93171203e-01, 2.54890889e-01, 2.54890889e-01, 1.55316204e-01,
          1.05863094e-01, 9.32354629e-02, 2.33405352e-01, 1.70359462e-01,
          1.87437847e-01, 1.54912621e-01, 2.08697304e-01, 2.54890889e-01,
          9.64579359e-02, 5.63078448e-02, 4.87652197e-02, 4.12786864e-02,
          6.99913427e-02, 7.93627873e-02, 1.35704830e-01, 2.54890889e-01,
          2.89479852e-01, 2.43914798e-02, 7.95439444e-03, 7.61593971e-03,
          1.09134614e-02, 6.48155138e-02, 8.15684646e-02, 1.87633425e-01,
          3.48861903e-01, 3.48861903e-01, 5.53536564e-02, 1.08471615e-02,
          2.73392652e-03, 0., 3.80689162e-03, 7.57898344e-03,
          3.79425175e-02, 3.48861903e-01, 3.48861903e-01, 1.70772132e-02,
          1.83846662e-03, 3.28283384e-03, 5.87784639e-03, 2.15500295e-02,
          2.51381621e-02, 5.77328615e-02, 3.48861903e-01, 3.48861903e-01,
          5.12720011e-02, 2.99192476e-03, 4.81281080e-04, 0.,
          3.87066952e-03, 1.65199973e-02, 3.86150032e-02, 3.48861903e-01,
          3.04786652e-01, 2.43947357e-01, 1.48648784e-01, 8.20896998e-02,
          2.68691611e-02, 1.39726000e-02, 5.18059684e-03, 1.50084831e-02,
          3.04786652e-01, 2.28217706e-01, 1.82924718e-01, 1.46084502e-01,
          1.19034663e-01, 3.04786652e-01, 2.61412293e-01, 7.16254562e-02,
          1.03369989e-01, 1.42727748e-01, 3.04786652e-01, 9.88105014e-02,
          4.03283425e-02, 3.26221623e-02, 5.93335666e-02, 3.03581525e-02,
          1.10388443e-01, 1.35411993e-01, 3.04786652e-01, 8.37987140e-02,
          4.10746783e-02, 4.48479280e-02, 1.55538112e-01, 3.04786652e-01,
          1.02223307e-01, 1.05593473e-01, 9.04706493e-02, 1.11251399e-01,
          2.67110676e-01, 1.28488272e-01, 8.45765397e-02, 7.69882277e-02,
          2.32214570e-01, 1.88170329e-01, 1.97066188e-01, 1.64831519e-01,
          2.35776067e-01, 3.18900853e-01, 7.91325644e-02, 3.86589020e-02,
          3.76585685e-02, 3.74023020e-02, 6.60128668e-02, 7.61789605e-02,
          1.33201540e-01, 3.18900853e-01, 1.51037633e-01, 6.47771172e-04,
          7.33629428e-03, 8.82096216e-03, 7.22565278e-02, 1.52755708e-01,
          1.53019950e-01, 1.93164885e-01, 3.18900853e-01, 3.18900853e-01,
          9.85912629e-04, 3.58450483e-03, 3.08119436e-03, 9.55723505e-03,
          3.39443721e-02, 5.57766072e-02, 1.46211565e-01, 3.18900853e-01,
          3.47782314e-01, 1.56062599e-02, 1.04330399e-03, 2.39822059e-03,
          4.37766826e-03, 1.49675440e-02, 1.86050888e-02, 4.46576327e-02,
          3.47782314e-01, 3.47782314e-01, 4.59602587e-02, 1.96989952e-03,
          2.27095094e-04, 0., 3.74318240e-03, 1.90595239e-02,
          4.18368429e-02, 3.47782314e-01, 3.47782314e-01, 8.81030399e-04,
          8.55586914e-05, 3.40156304e-03, 1.68159092e-03, 2.32394808e-03,
          5.00214426e-03, 2.28078496e-02, 3.47782314e-01, 3.47782314e-01,
          1.52759170e-02, 6.61035825e-04, 1.50082540e-02, 3.17028305e-03,
          1.23913428e-02, 7.22884387e-02, 1.24149568e-01, 3.47782314e-01,
          2.78285116e-01, 7.19635934e-02, 2.39843074e-02, 2.22714879e-02,
          5.11593893e-02, 3.04670110e-02, 1.23135962e-01, 1.40424848e-01,
          2.78285116e-01, 6.87561035e-02, 3.04058250e-02, 3.87935527e-02,
          1.40559986e-01, 2.78285116e-01, 7.70437345e-02, 1.13013163e-01,
          9.46017280e-02, 9.41536278e-02, 2.02135131e-01, 3.82437930e-02,
          1.47274649e-02, 1.98791120e-02, 2.42175739e-02, 5.48637733e-02,
          2.78285116e-01, 2.78285116e-01, 2.78285116e-01, 1.38584569e-01,
          9.82281566e-02, 1.44865006e-01, 2.78285116e-01, 2.78285116e-01,
          5.97411543e-02, 2.77373314e-01, 2.67786294e-01, 1.44846484e-01,
          2.01669484e-01, 1.37196237e-03, 1.44987637e-02, 1.62104648e-02,
          9.58476961e-02, 2.18016803e-01, 2.13829890e-01, 2.77455002e-01,
          3.71760100e-01, 3.71760100e-01, 9.61644750e-04, 7.86267873e-03,
          6.49988092e-03, 1.36318924e-02, 4.88442034e-02, 8.15616250e-02,
          2.16345534e-01, 3.71760100e-01, 8.96829367e-02, 2.32330244e-02,
          3.14578563e-02, 4.30036746e-02, 1.35964751e-01, 4.03108411e-02,
          4.13966142e-02, 9.82253775e-02, 2.02285841e-01, 2.54173279e-01,
          3.94788422e-02, 2.71147769e-02, 2.80286837e-02, 2.61934474e-02,
          8.80536903e-03, 3.11559960e-02, 1.16314456e-01, 3.71760100e-01,
          3.92343611e-01, 1.75031147e-03, 5.16655343e-03, 8.11629836e-03,
          4.12046909e-03, 5.16842864e-03, 8.51481501e-03, 3.97959687e-02,
          3.92343611e-01, 3.92343611e-01, 2.20161583e-02, 1.04150064e-02,
          3.42259742e-02, 7.20852939e-03, 2.53632721e-02, 1.32041842e-01,
          2.12867647e-01, 3.92343611e-01, 2.41499752e-01, 1.34212136e-01,
          8.43697190e-02, 3.49106602e-02, 1.63228232e-02, 1.21553158e-02,
          1.33774914e-02, 3.94247510e-02, 2.86304981e-01, 1.00445054e-01,
          1.60313770e-01, 1.52798280e-01, 1.12093620e-01, 3.33292224e-02,
          4.56912629e-02, 9.40656215e-02, 1.25213400e-01, 2.12428957e-01,
          2.34366000e-01, 4.54980507e-02, 2.13014055e-02, 3.13203558e-02,
          2.77339090e-02, 7.57362917e-02, 2.70322770e-01, 2.70322770e-01,
          2.70322770e-01, 1.78107277e-01, 1.27985567e-01, 1.87448740e-01,
          2.70322770e-01, 2.70322770e-01, 7.83831999e-02, 2.70322770e-01,
          2.70322770e-01, 1.89009234e-01, 5.97301349e-02, 4.30874713e-02,
          6.45884797e-02, 8.83568823e-02, 2.36831345e-02, 5.56671470e-02,
          1.38460681e-01, 1.79690570e-01, 1.45494476e-01, 1.27879500e-01,
          7.75888115e-02, 1.23141624e-01, 2.70322770e-01, 2.04875082e-01,
          4.00593691e-02, 7.86658451e-02, 1.45086646e-01, 1.43571317e-01,
          1.68362051e-01, 4.32900153e-02, 5.86675368e-02, 8.27319622e-02,
          2.56211966e-01, 6.86154366e-02, 7.80865476e-02, 1.53903842e-01,
          3.08205694e-01, 3.08205694e-01, 7.89324343e-02, 5.20340353e-02,
          5.62019646e-02, 5.10778651e-02, 1.61367562e-02, 5.88553175e-02,
          2.00522810e-01, 3.08205694e-01, 1.50517985e-01, 3.09208836e-02,
          1.79613736e-02, 4.74423170e-02, 1.95272818e-01, 1.22776456e-01,
          2.13864401e-01, 1.36304170e-01, 3.08205694e-01, 3.08205694e-01,
          9.02517587e-02, 3.82191911e-02, 5.40485196e-02, 6.29001483e-02,
          2.81607322e-02, 9.53179598e-02, 2.40050137e-01, 3.08205694e-01,
          2.68166512e-01, 2.17019454e-01, 1.24671564e-01, 5.61586805e-02,
          2.52056513e-02, 1.81127694e-02, 2.16071978e-02, 6.44826293e-02,
          2.68166512e-01, 1.46916091e-01, 2.57416189e-01, 2.25440398e-01,
          1.74538478e-01, 5.32106869e-02, 6.84204996e-02, 1.21402256e-01,
          1.61442056e-01, 2.29831129e-01, 2.68166512e-01, 2.41574630e-01,
          8.87467861e-02, 5.90558276e-02, 2.22672187e-02, 2.96549825e-03,
          3.04916985e-02, 1.74731150e-01, 2.68166512e-01, 2.68166512e-01,
          2.68166512e-01, 1.49823442e-01, 1.08189955e-01, 4.66849692e-02,
          3.05064525e-02, 1.57473944e-02, 1.14348195e-01, 2.68166512e-01,
          1.03110388e-01, 6.94106221e-02, 1.07655644e-01, 1.52039409e-01,
          4.17008549e-02, 8.47472847e-02, 1.70243353e-01, 2.49379680e-01,
          1.98966488e-01, 1.91087425e-01, 1.03492178e-01, 1.80669248e-01,
          2.67518967e-01, 2.67518967e-01, 6.04097694e-02, 8.68009701e-02,
          1.96562365e-01, 2.03620270e-01, 2.67518967e-01, 9.34664905e-02,
          1.18325815e-01, 1.20622396e-01, 4.45139967e-02, 2.73017287e-02,
          1.43105751e-02, 9.84974131e-02, 2.67518967e-01, 2.67518967e-01,
          9.99045298e-02, 1.87573552e-01, 2.67518967e-01, 2.60155588e-01,
          2.67211720e-02, 1.09270401e-02, 3.02063171e-02, 2.05988690e-01 ]
      - [ 4.68084961e-02, 6.66885078e-02, 4.15203907e-02, 3.78718413e-02,
          9.28585455e-02, 3.05020977e-02, 2.04305016e-02, 1.03863291e-02,
          4.13039848e-02, 1.06426693e-01, 1.08218424e-01, 4.43433449e-02,
          1.56123117e-02, 3.40273306e-02, 1.04013942e-02, 1.23075340e-02,
          6.65948093e-02, 1.98912919e-01, 2.58699268e-01, 3.44358772e-01,
          2.92559326e-01, 1.28651023e-01, 2.10024610e-01, 2.30699480e-02,
          9.07709170e-03, 2.17638109e-02, 1.23102538e-01, 3.44358772e-01,
          3.44358772e-01, 2.53371030e-01, 4.85436991e-02, 3.68908159e-02,
          2.04603169e-02, 1.16806619e-01, 3.44358772e-01, 3.44358772e-01,
          1.05785802e-01, 7.44000450e-02, 3.21807936e-02, 8.57872423e-03,
          1.98227726e-02, 2.52956897e-03, 1.49526969e-02, 6.02810234e-02,
          1.49180815e-01, 1.16871722e-01, 7.28193745e-02, 3.76125723e-02,
          3.07104960e-02, 3.15262377e-02, 1.35453558e-02, 4.22317423e-02,
          2.86860354e-02, 8.09598863e-02, 3.99526358e-01, 1.36052862e-01,
          3.11858878e-02, 6.87306607e-03, 5.25038689e-03, 1.96815152e-02,
          1.48075834e-01, 3.99526358e-01, 3.99526358e-01, 3.99526358e-01,
          2.08608896e-01, 2.76334863e-02, 2.75730770e-02, 7.40303937e-03,
          4.41123499e-03, 5.24803959e-02, 1.79321021e-01, 3.99526358e-01,
          9.66020450e-02, 9.36487839e-02, 1.85572319e-02, 1.58246737e-02,
          2.07425375e-02, 1.07309297e-02, 2.72045098e-02, 2.44722031e-02,
          6.55138344e-02, 1.09876685e-01, 8.76303166e-02, 1.64418574e-02,
          4.69629141e-03, 1.44301793e-02, 2.88501568e-02, 7.33347833e-02,
          7.74664581e-02, 9.63157341e-02, 3.25425476e-01, 3.25425476e-01,
          1.33602992e-01, 7.98927713e-03, 1.76129374e-03, 5.43766050e-03,
          3.68776023e-02, 8.72809514e-02, 2.46725038e-01, 3.25425476e-01,
          3.25425476e-01, 1.42104194e-01, 4.06578695e-03, 4.97467853e-02,
          2.79892653e-01, 3.25425476e-01, 3.25425476e-01, 3.25425476e-01,
          9.03805047e-02, 2.28827611e-01, 1.21510789e-01, 5.82242981e-02,
          7.84122050e-02, 7.13723758e-03, 2.59664049e-03, 7.72295659e-03,
          4.11669686e-02, 2.07171336e-01, 2.56118029e-01, 1.04247235e-01,
          2.67101768e-02, 1.68583132e-02, 1.78268775e-02, 4.70229946e-02,
          2.09551394e-01, 2.56118029e-01, 1.49081886e-01, 2.56118029e-01,
          2.56118029e-01, 2.56118029e-01, 2.44988307e-01, 2.55766530e-02,
          1.03656249e-02, 2.30825059e-02, 4.89835367e-02, 2.56118029e-01,
          2.56118029e-01, 2.56118029e-01, 1.49202406e-01, 9.57730860e-02,
          1.44203544e-01, 1.24246217e-01, 2.56118029e-01, 2.56118029e-01,
          1.44172385e-01, 3.49337049e-02, 8.18378199e-03, 2.22711009e-03,
          1.95167598e-03, 1.42648490e-02, 4.62801121e-02, 2.08671719e-01,
          3.07627261e-01, 3.33241820e-01, 5.60633093e-02, 8.15320387e-03,
          6.77052885e-03, 1.68120104e-03, 1.42310595e-03, 1.33041758e-02,
          4.91295792e-02, 2.30759889e-01, 3.56477588e-01, 3.34909149e-02,
          1.50095830e-02, 8.18092097e-03, 2.07929276e-02, 1.10738635e-01,
          1.15272753e-01, 3.40458125e-01, 3.56477588e-01, 3.56477588e-01,
          8.12307000e-02, 2.07178593e-02, 2.00109114e-03, 1.00758829e-04,
          5.84297627e-03, 1.11519108e-02, 6.98396489e-02, 3.56477588e-01,
          2.71226078e-01, 2.09352612e-01, 6.16004243e-02, 8.23723804e-03,
          2.07327912e-03, 2.80379062e-03, 1.24372328e-02, 3.08617279e-02,
          9.83070508e-02, 2.61247426e-01, 1.86736226e-01, 6.29210696e-02,
          9.17677209e-03, 3.38116810e-02, 1.22476548e-01, 1.19139232e-01,
          1.76449895e-01, 1.44568667e-01, 2.71226078e-01, 2.71226078e-01,
          2.14292124e-01, 8.04301500e-02, 3.83572839e-02, 1.74090061e-02,
          5.76188648e-03, 2.07677223e-02, 2.71226078e-01, 2.71226078e-01,
          2.46017203e-01, 2.06620052e-01, 1.24821201e-01, 2.71226078e-01,
          2.71226078e-01, 1.00843236e-01, 1.43076435e-01, 1.73975691e-01,
          1.07945293e-01, 2.54648328e-01, 2.54648328e-01, 1.87675431e-01,
          1.84556648e-01, 2.49993633e-02, 1.69790648e-02, 2.36117840e-02,
          3.97517532e-02, 2.26477981e-01, 2.54648328e-01, 2.18710497e-01,
          1.00474693e-01, 6.59915581e-02, 9.69239846e-02, 8.79830644e-02,
          2.19854280e-01, 2.40755916e-01, 2.54648328e-01, 1.70238778e-01,
          1.05500132e-01, 8.92746672e-02, 2.49260560e-01, 1.51832446e-01,
          2.04605147e-01, 1.61293700e-01, 1.89500421e-01, 2.54648328e-01,
          1.00522362e-01, 6.32639825e-02, 3.74486409e-02, 4.57685851e-02,
          6.03563599e-02, 7.32594132e-02, 1.53993905e-01, 2.54648328e-01,
          3.11484516e-01, 2.00473182e-02, 9.17422771e-03, 4.81582060e-03,
          1.27343740e-02, 6.63371459e-02, 7.08205402e-02, 2.00610727e-01,
          3.45390886e-01, 3.45390886e-01, 4.86372784e-02, 1.25644878e-02,
          1.05165853e-03, 3.70616908e-05, 3.52163729e-03, 6.66728849e-03,
          4.03204970e-02, 3.45390886e-01, 3.45390886e-01, 6.54039392e-03,
          2.77268840e-03, 1.91337825e-03, 7.08277104e-03, 2.07075272e-02,
          1.23631721e-02, 7.46888295e-02, 3.45390886e-01, 3.45390886e-01,
          4.40103225e-02, 2.81058252e-03, 3.50552844e-04, 1.11185065e-04,
          1.66822539e-03, 1.32719632e-02, 3.91765051e-02, 3.45390886e-01,
          3.03073645e-01, 2.39998236e-01, 1.64615571e-01, 6.06022403e-02,
          3.21616158e-02, 1.39454873e-02, 4.16371645e-03, 1.62553508e-02,
          3.03073645e-01, 2.35515311e-01, 1.80123791e-01, 1.59378096e-01,
          9.98158157e-02, 3.03073645e-01, 2.68754005e-01, 7.20244423e-02,
          1.01595879e-01, 1.33028939e-01, 3.03073645e-01, 1.02717973e-01,
          3.87250036e-02, 3.35489251e-02, 5.78872375e-02, 3.29436027e-02,
          1.23006828e-01, 1.22085266e-01, 3.03073645e-01, 8.66845176e-02,
          4.41318937e-02, 4.40560170e-02, 1.61204398e-01, 3.03073645e-01,
          1.11630246e-01, 1.17524296e-01, 8.21276978e-02, 9.59291160e-02,
          2.62442589e-01, 1.41021326e-01, 8.39221328e-02, 7.39183649e-02,
          2.46876985e-01, 1.68189108e-01, 2.12845817e-01, 1.68760017e-01,
          2.17390969e-01, 3.18983346e-01, 8.10945556e-02, 4.46357019e-02,
          2.88180485e-02, 4.11732420e-02, 5.59326671e-02, 7.00736120e-02,
          1.48614228e-01, 3.18983346e-01, 1.63560644e-01, 2.14947271e-03,
          5.61162410e-03, 2.83396407e-03, 6.91173375e-02, 1.52847260e-01,
          1.53188169e-01, 1.82843536e-01, 3.18983346e-01, 3.18983346e-01,
          1.53401506e-03, 3.42715345e-03, 7.80564384e-04, 1.00241322e-02,
          3.28373834e-02, 5.31499423e-02, 1.39430985e-01, 3.18983346e-01,
          3.47722262e-01, 5.70431491e-03, 1.83775823e-03, 1.39947748e-03,
          5.33851422e-03, 1.41880400e-02, 6.38344325e-03, 6.10865802e-02,
          3.47722262e-01, 3.47722262e-01, 4.01173942e-02, 1.64346839e-03,
          2.51144287e-04, 1.11127352e-04, 1.46818091e-03, 1.61236376e-02,
          4.17541265e-02, 3.47722262e-01, 3.47722262e-01, 2.63661845e-03,
          1.28902175e-04, 3.16033512e-03, 1.82470481e-03, 2.30515981e-03,
          4.13955655e-03, 2.97414772e-02, 3.47722262e-01, 3.47722262e-01,
          2.04590242e-02, 8.75801896e-04, 1.34065235e-02, 3.75462114e-03,
          9.65195429e-03, 7.78222680e-02, 1.17864162e-01, 3.47722262e-01,
          2.78570503e-01, 7.63641074e-02, 2.13317983e-02, 2.42866352e-02,
          5.00245504e-02, 3.21020707e-02, 1.36685953e-01, 1.26778632e-01,
          2.78570503e-01, 7.30024129e-02, 3.25080194e-02, 3.69995683e-02,
          1.46186337e-01, 2.78570503e-01, 8.40964243e-02, 1.25989079e-01,
          8.65258127e-02, 8.20251554e-02, 1.97299734e-01, 3.58659774e-02,
          1.50946463e-02, 1.81606673e-02, 2.45131087e-02, 4.46178690e-02,
          2.78570503e-01, 2.78570503e-01, 2.78570503e-01, 1.65302873e-01,
          7.99427703e-02, 1.46530807e-01, 2.78570503e-01, 2.78570503e-01,
          5.11907078e-02, 2.78570503e-01, 2.57780820e-01, 1.40463352e-01,
          2.19636858e-01, 3.93560110e-03, 1.20486738e-02, 6.64280448e-03,
          8.78078640e-02, 2.19580695e-01, 2.08802462e-01, 2.64745176e-01,
          3.74746352e-01, 3.74746352e-01, 2.74164882e-03, 7.94743747e-03,
          1.73383695e-03, 1.38540482e-02, 4.80815023e-02, 7.60632902e-02,
          2.06777513e-01, 3.74746352e-01, 1.00305796e-01, 4.49774712e-02,
          3.67631577e-02, 5.82427718e-02, 7.63933659e-02, 5.19302301e-02,
          3.23718116e-02, 9.17003676e-02, 2.08789602e-01, 2.62915224e-01,
          5.26186116e-02, 3.25048752e-02, 1.52489925e-02, 1.40955532e-02,
          1.31350663e-02, 2.32380554e-02, 1.13283366e-01, 3.74746352e-01,
          3.90150309e-01, 5.93350222e-03, 5.35500515e-03, 7.40482612e-03,
          4.18725749e-03, 5.13482373e-03, 8.76199361e-03, 4.89147939e-02,
          3.90150309e-01, 3.90150309e-01, 3.18011083e-02, 1.10791931e-02,
          3.04993764e-02, 8.38497002e-03, 1.99231673e-02, 1.42220438e-01,
          2.01230556e-01, 3.90150309e-01, 2.53854811e-01, 1.32720813e-01,
          7.36875758e-02, 3.09735294e-02, 1.28604798e-02, 1.13367476e-02,
          1.54264932e-02, 3.86730023e-02, 2.94679075e-01, 1.01452939e-01,
          1.74246997e-01, 1.43217951e-01, 9.62852463e-02, 4.05030660e-02,
          2.68659797e-02, 1.04299158e-01, 1.26124978e-01, 2.10843340e-01,
          2.25621209e-01, 4.20643985e-02, 2.20059492e-02, 2.82350574e-02,
          2.87914425e-02, 5.97728491e-02, 2.70342380e-01, 2.70342380e-01,
          2.70342380e-01, 2.09915400e-01, 1.04756825e-01, 1.88659593e-01,
          2.70342380e-01, 2.70342380e-01, 6.53418452e-02, 2.70342380e-01,
          2.70342380e-01, 1.84373155e-01, 5.13776727e-02, 5.40411249e-02,
          6.49300069e-02, 7.50233978e-02, 3.93275917e-02, 4.17466275e-02,
          1.39084727e-01, 1.78097188e-01, 1.41487941e-01, 1.31203175e-01,
          7.47548714e-02, 1.20055757e-01, 2.70342380e-01, 2.34822556e-01,
          3.79457437e-02, 6.81039095e-02, 1.35140851e-01, 1.37449309e-01,
          1.92661613e-01, 8.99566412e-02, 6.83856308e-02, 1.10670768e-01,
          1.43983260e-01, 9.48145464e-02, 5.96253686e-02, 1.41308203e-01,
          3.11766714e-01, 3.11766714e-01, 1.06744796e-01, 6.23832718e-02,
          3.21097896e-02, 2.67524924e-02, 2.57079042e-02, 4.30076681e-02,
          1.94886640e-01, 3.11766714e-01, 2.08908960e-01, 8.90494883e-02,
          2.14624945e-02, 6.94907308e-02, 1.18142091e-01, 1.81513816e-01,
          1.60572618e-01, 1.48332700e-01, 3.11766714e-01, 3.11766714e-01,
          1.27828822e-01, 4.35268395e-02, 4.96954247e-02, 2.60721557e-02,
          4.77548130e-02, 5.72550520e-02, 2.49587819e-01, 3.11766714e-01,
          2.76289016e-01, 2.11435437e-01, 1.08702749e-01, 4.98526171e-02,
          1.94819868e-02, 1.66277606e-02, 2.35256031e-02, 6.41178712e-02,
          2.76289016e-01, 1.51320323e-01, 2.76289016e-01, 2.11467311e-01,
          1.47890791e-01, 6.60535693e-02, 3.70576084e-02, 1.35859594e-01,
          1.64564252e-01, 2.25205004e-01, 2.76289016e-01, 2.27679417e-01,
          7.93937743e-02, 5.09644449e-02, 9.71165579e-03, 1.06117141e-03,
          1.85851119e-02, 1.70911714e-01, 2.76289016e-01, 2.76289016e-01,
          2.76289016e-01, 1.45224974e-01, 5.96517399e-02, 6.12011142e-02,
          1.69570663e-03, 2.28179693e-02, 1.06949754e-01, 2.76289016e-01,
          8.57376456e-02, 9.46751088e-02, 1.10841356e-01, 1.29859626e-01,
          7.03171939e-02, 6.32677749e-02, 1.71599701e-01, 2.53850043e-01,
          1.95740998e-01, 1.92055896e-01, 1.10006578e-01, 1.77374393e-01,
          2.66150922e-01, 2.66150922e-01, 5.95950224e-02, 6.89924732e-02,
          1.83572441e-01, 1.96664497e-01, 2.66150922e-01, 1.42536655e-01,
          1.28702536e-01, 7.92015642e-02, 6.31786212e-02, 1.44079188e-02,
          1.39588546e-02, 9.75223929e-02, 2.66150922e-01, 2.66150922e-01,
          1.41527370e-01, 1.85699418e-01, 2.66150922e-01, 2.66150922e-01,
          2.75045112e-02, 5.71058784e-03, 2.77658198e-02, 2.01508343e-01 ]
      - [ 6.37285784e-02, 6.07208386e-02, 3.98342274e-02, 4.81908359e-02,
          7.09922165e-02, 3.25751118e-02, 1.98622011e-02, 1.36986608e-02,
          4.86289673e-02, 1.47973135e-01, 8.52878317e-02, 2.61248369e-02,
          1.30156092e-02, 3.20743024e-02, 1.17582828e-02, 7.63776572e-03,
          5.23848012e-02, 2.37004906e-01, 2.06659675e-01, 3.25830221e-01,
          3.25830221e-01, 1.68314725e-01, 9.29689407e-02, 2.13794038e-02,
          8.81169550e-03, 2.11619399e-02, 1.34462833e-01, 3.25830221e-01,
          3.25830221e-01, 3.25830221e-01, 3.92226949e-02, 1.68099534e-02,
          3.14694494e-02, 2.02887639e-01, 3.25830221e-01, 3.25830221e-01,
          1.44304171e-01, 7.31800199e-02, 1.64822824e-02, 5.49827842e-03,
          1.58677790e-02, 0., 9.13305953e-03, 7.18369111e-02,
          1.94435209e-01, 1.71911389e-01, 7.02699572e-02, 2.46092118e-02,
          1.81292631e-02, 2.37120278e-02, 1.34423794e-03, 1.36878183e-02,
          4.78363149e-02, 1.08328469e-01, 3.74063969e-01, 1.50738657e-01,
          3.33092362e-02, 4.01037186e-03, 2.72506219e-03, 3.05207483e-02,
          2.58972794e-01, 3.74063969e-01, 3.74063969e-01, 3.74063969e-01,
          2.02822939e-01, 3.09622325e-02, 6.03989325e-03, 2.26704916e-03,
          2.20642565e-03, 4.07516472e-02, 2.02496454e-01, 3.74063969e-01,
          1.30671486e-01, 8.06084052e-02, 1.60994362e-02, 1.81309674e-02,
          1.89000741e-02, 4.58161253e-03, 7.68338097e-03, 3.11672278e-02,
          7.33659193e-02, 1.35397732e-01, 7.24710971e-02, 2.02291850e-02,
          1.86168719e-02, 2.02312917e-02, 1.53300734e-02, 6.82437345e-02,
          9.70639214e-02, 8.33192021e-02, 3.46441954e-01, 3.46441954e-01,
          1.16425745e-01, 2.98311748e-03, 4.27886582e-04, 5.19208051e-03,
          3.40702236e-02, 1.31153375e-01, 1.94817901e-01, 3.46441954e-01,
          3.46441954e-01, 1.27441391e-01, 6.32030098e-03, 5.40130995e-02,
          2.53042161e-01, 3.46441954e-01, 3.46441954e-01, 2.15205058e-01,
          7.66199008e-02, 2.36007214e-01, 1.76882058e-01, 8.59669074e-02,
          3.63241844e-02, 6.83533167e-03, 3.12029873e-03, 8.36837944e-03,
          5.01202494e-02, 1.85125396e-01, 2.50292033e-01, 1.49731606e-01,
          2.79860273e-02, 1.00127887e-02, 2.34841313e-02, 8.93300027e-02,
          2.04861477e-01, 2.50292033e-01, 1.18922070e-01, 2.50292033e-01,
          2.50292033e-01, 2.50292033e-01, 1.75276801e-01, 2.46223770e-02,
          1.32925259e-02, 2.39100028e-02, 5.20811081e-02, 2.34097928e-01,
          2.50292033e-01, 2.50292033e-01, 1.83897272e-01, 1.05249189e-01,
          1.60139382e-01, 2.17096210e-01, 2.50292033e-01, 2.50292033e-01,
          1.41010746e-01, 4.23887298e-02, 9.73678473e-03, 1.73707784e-03,
          1.98908895e-03, 1.90951508e-02, 8.47334489e-02, 2.22894207e-01,
          2.77910560e-01, 3.54645878e-01, 6.17263578e-02, 9.81494505e-03,
          1.84594502e-03, 5.94369718e-04, 1.18934433e-03, 1.19084818e-02,
          6.02214709e-02, 1.96035966e-01, 3.54645878e-01, 5.25668450e-02,
          1.02445120e-02, 1.02725867e-02, 3.39686945e-02, 1.28258750e-01,
          1.85185909e-01, 3.06450933e-01, 3.54645878e-01, 3.54645878e-01,
          9.76938531e-02, 1.70028880e-02, 5.16560487e-03, 3.18681792e-04,
          6.78950176e-03, 1.41128832e-02, 7.96600431e-02, 3.54645878e-01,
          2.71339655e-01, 2.66821086e-01, 5.12669161e-02, 6.58616843e-03,
          1.79476244e-03, 2.72047357e-03, 1.20518757e-02, 4.63867411e-02,
          7.25057647e-02, 2.38427296e-01, 2.37460017e-01, 5.35013042e-02,
          8.43921956e-03, 3.54336053e-02, 1.11572884e-01, 1.64513439e-01,
          2.24869847e-01, 7.96839446e-02, 2.71339655e-01, 2.71339655e-01,
          1.55072987e-01, 8.39277208e-02, 4.71476838e-02, 1.39634311e-02,
          8.68689734e-03, 3.40180025e-02, 2.40023702e-01, 2.71339655e-01,
          2.71339655e-01, 1.45587489e-01, 1.17746010e-01, 2.71339655e-01,
          2.71339655e-01, 1.31473601e-01, 1.81298718e-01, 9.51901600e-02,
          9.32082236e-02, 2.53112197e-01, 2.53112197e-01, 2.53112197e-01,
          1.48406208e-01, 2.84158532e-02, 1.83126144e-02, 2.42949147e-02,
          3.98979411e-02, 1.88823104e-01, 2.53112197e-01, 2.17959017e-01,
          1.30480185e-01, 7.76153281e-02, 1.16028719e-01, 1.60801828e-01,
          1.75715521e-01, 2.26245105e-01, 2.53112197e-01, 1.64432347e-01,
          1.03258066e-01, 1.17667437e-01, 2.53112197e-01, 2.20932931e-01,
          1.92653075e-01, 9.78543758e-02, 8.30244720e-02, 2.53112197e-01,
          1.58459798e-01, 4.56140153e-02, 5.27776405e-02, 6.31144121e-02,
          8.84054825e-02, 1.10040866e-01, 1.24460399e-01, 2.53112197e-01,
          3.20870638e-01, 3.56141739e-02, 6.23098342e-03, 6.27716770e-03,
          2.14500576e-02, 7.99190477e-02, 1.16960257e-01, 1.82080343e-01,
          3.38001460e-01, 3.38001460e-01, 6.18321411e-02, 1.05268089e-02,
          3.05754622e-03, 2.01214847e-04, 4.22677724e-03, 8.69403873e-03,
          4.83925901e-02, 3.38001460e-01, 3.38001460e-01, 4.83231992e-02,
          2.01663747e-03, 2.68725143e-03, 1.19616631e-02, 2.48055365e-02,
          4.92956154e-02, 1.10549942e-01, 3.38001460e-01, 3.38001460e-01,
          8.40982571e-02, 5.57473255e-03, 1.01918215e-03, 4.11693065e-04,
          3.50155775e-03, 2.38134786e-02, 8.42868984e-02, 3.38001460e-01,
          3.09247106e-01, 2.89623946e-01, 1.27659693e-01, 6.73997849e-02,
          4.21918593e-02, 1.19358646e-02, 6.85709761e-03, 2.75518075e-02,
          2.16957435e-01, 2.25068867e-01, 2.10769147e-01, 1.20046027e-01,
          1.00756742e-01, 3.09247106e-01, 2.62333602e-01, 9.80446339e-02,
          1.35607749e-01, 8.06035250e-02, 3.09247106e-01, 1.06218308e-01,
          2.75018252e-02, 4.29856069e-02, 6.14725873e-02, 5.17933890e-02,
          1.21001504e-01, 1.19777568e-01, 3.09247106e-01, 1.00401260e-01,
          2.85510719e-02, 3.10896561e-02, 1.97513074e-01, 3.09247106e-01,
          1.28620908e-01, 1.14999771e-01, 7.39211068e-02, 7.62717128e-02,
          2.81201333e-01, 1.47383541e-01, 7.90849850e-02, 9.83045250e-02,
          2.81201333e-01, 2.47842997e-01, 2.01896533e-01, 1.00812428e-01,
          9.15035158e-02, 2.81201333e-01, 1.50395840e-01, 2.98870411e-02,
          4.19073291e-02, 5.79019599e-02, 8.66363123e-02, 1.04317680e-01,
          1.24011673e-01, 2.81201333e-01, 2.62501419e-01, 3.37626934e-02,
          1.06152543e-03, 2.71011167e-03, 1.65729940e-01, 2.81201333e-01,
          1.84985906e-01, 1.42990619e-01, 1.60696760e-01, 2.81201333e-01,
          5.75444065e-02, 2.84825056e-03, 4.14424459e-04, 2.27970351e-02,
          9.01661217e-02, 9.75889415e-02, 1.53015971e-01, 2.81201333e-01,
          3.33130270e-01, 5.46622910e-02, 2.15126178e-03, 2.19338387e-03,
          9.98644531e-03, 1.89106818e-02, 4.74877581e-02, 1.18291512e-01,
          3.33130270e-01, 3.33130270e-01, 9.50044394e-02, 5.99385984e-03,
          8.08611047e-04, 4.48165141e-04, 4.10669157e-03, 3.17971371e-02,
          9.70657244e-02, 3.33130270e-01, 3.33130270e-01, 5.07547483e-02,
          1.83449034e-02, 3.14397155e-03, 7.59211741e-03, 4.46419325e-03,
          2.91070547e-02, 1.49071530e-01, 3.33130270e-01, 3.33130270e-01,
          1.13520630e-01, 2.17281673e-02, 4.30726772e-03, 1.13844443e-02,
          1.97845716e-02, 8.73081237e-02, 1.48524016e-01, 3.33130270e-01,
          2.82739013e-01, 8.27862695e-02, 1.52182989e-02, 3.31988707e-02,
          5.20351194e-02, 5.28157279e-02, 1.37570560e-01, 1.20162807e-01,
          2.82739013e-01, 8.09893608e-02, 2.19978783e-02, 2.77377535e-02,
          1.84975460e-01, 2.82739013e-01, 1.03362314e-01, 1.26064077e-01,
          7.66409785e-02, 6.54413849e-02, 2.42543519e-01, 5.68421781e-02,
          1.95696373e-02, 2.28036512e-02, 2.48930007e-02, 1.05564184e-01,
          2.82739013e-01, 2.59863436e-01, 2.32015848e-01, 7.66579360e-02,
          8.43524933e-02, 1.75509021e-01, 2.82739013e-01, 2.82739013e-01,
          1.01706617e-01, 2.82739013e-01, 2.33521000e-01, 8.37761313e-02,
          2.97810704e-01, 4.43891250e-02, 2.73035746e-03, 7.04709580e-03,
          2.28386998e-01, 2.97810704e-01, 2.58816272e-01, 2.13224351e-01,
          2.39640534e-01, 2.97810704e-01, 7.56185353e-02, 5.76576265e-03,
          1.33775303e-03, 3.37161347e-02, 1.39681131e-01, 1.48875013e-01,
          2.33058214e-01, 2.97810704e-01, 5.89257888e-02, 2.35898271e-02,
          2.99349241e-02, 7.72860721e-02, 1.38077542e-01, 1.28791749e-01,
          1.17644452e-01, 1.59820616e-01, 1.25060081e-01, 2.14805096e-01,
          4.20366451e-02, 2.95908879e-02, 1.40031064e-02, 2.85886582e-02,
          9.52887014e-02, 1.42788202e-01, 2.13967100e-01, 2.97810704e-01,
          3.28121543e-01, 8.60257745e-02, 3.74683253e-02, 8.02279264e-03,
          1.62179749e-02, 9.53885633e-03, 4.60857302e-02, 2.36611366e-01,
          3.28121543e-01, 3.28121543e-01, 1.82484299e-01, 4.17495929e-02,
          1.15991579e-02, 2.51885541e-02, 3.78520750e-02, 1.48067668e-01,
          2.34161094e-01, 3.28121543e-01, 3.12602580e-01, 1.42645806e-01,
          1.03807218e-01, 3.54681201e-02, 3.47390324e-02, 2.59085037e-02,
          2.27223653e-02, 8.42635706e-02, 2.62024134e-01, 2.85246849e-01,
          1.59227312e-01, 9.34890434e-02, 6.65109158e-02, 8.51284266e-02,
          6.57547042e-02, 8.77434611e-02, 9.02921408e-02, 1.70808434e-01,
          2.55216748e-01, 5.96498773e-02, 2.45758779e-02, 2.72686090e-02,
          2.85662152e-02, 1.28299609e-01, 2.59439975e-01, 2.59439975e-01,
          2.53590941e-01, 8.42852890e-02, 9.79233682e-02, 2.09616214e-01,
          2.59439975e-01, 2.59439975e-01, 1.19711250e-01, 2.59439975e-01,
          2.59439975e-01, 9.81316492e-02, 6.35230467e-02, 3.82718258e-02,
          5.32746240e-02, 4.52825762e-02, 5.09949662e-02, 9.34609920e-02,
          2.29805619e-01, 1.48547292e-01, 9.17442963e-02, 6.17032982e-02,
          7.70741776e-02, 2.12245807e-01, 2.59439975e-01, 2.59439975e-01,
          6.90623298e-02, 1.72825649e-01, 1.41545951e-01, 9.07082036e-02,
          8.74066576e-02, 4.26471494e-02, 5.43986484e-02, 1.38652310e-01,
          2.25089148e-01, 1.88672751e-01, 1.84096590e-01, 2.44416401e-01,
          1.96449965e-01, 2.80780017e-01, 7.23534003e-02, 5.39594330e-02,
          2.52615064e-02, 4.67960313e-02, 1.55994758e-01, 2.34580189e-01,
          2.80780017e-01, 2.80780017e-01, 1.12607248e-01, 3.56318504e-02,
          5.71308658e-02, 1.14293478e-01, 1.33918300e-01, 6.77688494e-02,
          1.00972928e-01, 1.69674888e-01, 2.80780017e-01, 2.80780017e-01,
          5.15704453e-02, 4.26202938e-02, 2.25624349e-02, 2.67670285e-02,
          3.95431146e-02, 7.62431026e-02, 2.80780017e-01, 2.80780017e-01,
          2.90661395e-01, 2.04297587e-01, 1.50301605e-01, 5.09682782e-02,
          4.80863936e-02, 3.71192433e-02, 3.23442183e-02, 1.07383065e-01,
          2.90661395e-01, 2.90661395e-01, 2.29507342e-01, 1.36348262e-01,
          9.58870798e-02, 1.24508359e-01, 8.98294598e-02, 1.11559227e-01,
          1.09516867e-01, 2.03626066e-01, 2.90661395e-01, 1.61024362e-01,
          6.39467463e-02, 2.13984083e-02, 1.36264339e-02, 2.35752743e-02,
          2.97191218e-02, 1.85524061e-01, 2.90661395e-01, 2.90661395e-01,
          2.46885464e-01, 8.89677405e-02, 4.15852815e-02, 6.57986403e-02,
          2.85294615e-02, 1.46149741e-02, 1.00532971e-01, 2.90661395e-01,
          9.93043706e-02, 6.10392243e-02, 8.96658078e-02, 7.64028132e-02,
          8.44840407e-02, 1.36857197e-01, 2.64169425e-01, 2.07349867e-01,
          1.27228379e-01, 9.86297950e-02, 1.08110152e-01, 2.64169425e-01,
          2.64169425e-01, 2.64169425e-01, 1.01033077e-01, 2.27635592e-01,
          1.94460645e-01, 1.29182145e-01, 2.64169425e-01, 8.84750932e-02,
          1.12821802e-01, 6.99431002e-02, 6.00139163e-02, 3.01734433e-02,
          3.41264382e-02, 9.76423621e-02, 2.64169425e-01, 2.64169425e-01,
          1.03532195e-01, 2.24498317e-01, 2.64169425e-01, 2.10483357e-01,
          2.15839799e-02, 2.79709715e-02, 4.85013723e-02, 1.97325960e-01 ]
      - [ 1.14094280e-01, 1.01896338e-01, 6.14581667e-02, 3.31012197e-02,
          3.84415351e-02, 1.46023976e-02, 6.27011061e-03, 8.31563305e-03,
          4.56657931e-02, 2.86024541e-01, 1.18189648e-01, 5.92245422e-02,
          7.96131417e-03, 1.13690076e-02, 4.33723070e-03, 4.12977375e-02,
          8.79730955e-02, 1.58270612e-01, 2.10322678e-01, 2.86024541e-01,
          2.86024541e-01, 2.36660779e-01, 9.30607766e-02, 1.46325482e-02,
          1.99790653e-02, 2.08050869e-02, 6.60519972e-02, 2.86024541e-01,
          2.86024541e-01, 2.86024541e-01, 1.86075941e-01, 1.41592234e-01,
          1.37017757e-01, 2.65634358e-01, 2.86024541e-01, 2.86024541e-01,
          1.64814845e-01, 6.78884760e-02, 1.82393659e-02, 7.07046594e-03,
          1.56963747e-02, 1.07790856e-02, 1.04634546e-01, 1.85103104e-01,
          1.57761082e-01, 1.18435748e-01, 2.17907786e-01, 5.02768308e-02,
          3.44870910e-02, 3.26484665e-02, 8.82177241e-03, 3.87493595e-02,
          6.56511486e-02, 6.58177659e-02, 2.37345427e-01, 1.48259893e-01,
          1.04692861e-01, 1.29567727e-01, 2.05649361e-01, 2.95145124e-01,
          2.95145124e-01, 2.95145124e-01, 2.95145124e-01, 2.26675361e-01,
          2.95145124e-01, 2.86221772e-01, 8.35999623e-02, 3.51231769e-02,
          7.60318339e-02, 8.87489095e-02, 2.65323043e-01, 9.18120295e-02,
          1.78885072e-01, 1.85247838e-01, 2.44094655e-02, 9.83692147e-03,
          1.19991442e-02, 5.74716460e-03, 1.19585115e-02, 2.03014594e-02,
          4.06914577e-02, 2.05420554e-01, 1.08355373e-01, 1.76757649e-02,
          5.12135588e-03, 1.42642539e-02, 5.41774929e-02, 9.64408517e-02,
          8.14628527e-02, 1.10543713e-01, 2.87039697e-01, 2.87039697e-01,
          2.87039697e-01, 1.19184360e-01, 1.67536363e-02, 1.55855687e-02,
          2.92030554e-02, 5.64724915e-02, 6.06212802e-02, 2.87039697e-01,
          2.87039697e-01, 2.34248385e-01, 1.07703961e-01, 2.18739495e-01,
          2.87039697e-01, 2.87039697e-01, 2.87039697e-01, 2.15087101e-01,
          9.80274007e-02, 2.39913270e-01, 2.46506676e-01, 1.33002415e-01,
          4.90800440e-02, 6.54835859e-03, 1.21044610e-02, 9.88853630e-03,
          3.16476077e-02, 2.37841740e-01, 2.46506676e-01, 2.46506676e-01,
          1.10645577e-01, 8.08195546e-02, 6.90327957e-02, 1.27190098e-01,
          1.76936641e-01, 1.53066099e-01, 9.16733146e-02, 2.46506676e-01,
          2.46506676e-01, 2.46506676e-01, 2.46506676e-01, 3.97287458e-02,
          4.61134128e-02, 9.79142357e-03, 4.33210954e-02, 1.91976666e-01,
          2.46506676e-01, 2.46506676e-01, 2.46506676e-01, 2.46506676e-01,
          1.17090411e-01, 1.21379644e-01, 7.59063512e-02, 6.63143992e-02,
          1.09098047e-01, 7.83673078e-02, 6.19912632e-02, 8.59021470e-02,
          1.23591088e-01, 1.55451268e-01, 2.03572810e-01, 2.75627047e-01,
          1.35078967e-01, 1.10957593e-01, 2.75627047e-01, 1.61570057e-01,
          5.62165305e-02, 2.15242617e-02, 4.23360057e-02, 4.25899215e-02,
          1.23947367e-01, 4.22923900e-02, 9.43278670e-02, 2.61378258e-01,
          2.75627047e-01, 2.75627047e-01, 2.75627047e-01, 1.94451943e-01,
          1.12296544e-01, 1.34088144e-01, 4.66144830e-02, 1.60151556e-01,
          2.75627047e-01, 2.75627047e-01, 2.75627047e-01, 9.61307809e-02,
          7.86774382e-02, 3.27528752e-02, 7.26295412e-02, 5.54343536e-02,
          2.06672147e-01, 2.84357637e-01, 2.09647715e-01, 8.42392072e-02,
          1.32622691e-02, 1.03772962e-02, 1.61065776e-02, 3.12613063e-02,
          3.33819278e-02, 2.55817324e-01, 2.66951412e-01, 1.41117766e-01,
          7.42400065e-02, 1.70293465e-01, 1.99645966e-01, 2.11018115e-01,
          1.66532993e-01, 1.14910930e-01, 1.68915495e-01, 2.84357637e-01,
          2.84357637e-01, 2.27212444e-01, 1.00103997e-01, 4.96869832e-02,
          1.79357864e-02, 5.38378619e-02, 6.13395274e-02, 1.09101266e-01,
          1.89572558e-01, 1.50457546e-01, 1.41111687e-01, 2.84357637e-01,
          2.30249494e-01, 8.45775902e-02, 8.74742121e-02, 5.50248399e-02,
          6.62225708e-02, 1.96230114e-01, 2.09002599e-01, 2.86131412e-01,
          3.03616852e-01, 3.71486060e-02, 3.49168852e-02, 7.14443671e-03,
          3.10493559e-02, 1.33345470e-01, 2.64445156e-01, 2.51529664e-01,
          3.03616852e-01, 3.01502109e-01, 9.43347886e-02, 8.37490261e-02,
          4.85120788e-02, 4.28385809e-02, 1.08771864e-02, 3.27052958e-02,
          2.93465387e-02, 2.32493579e-01, 3.03616852e-01, 1.23486742e-01,
          1.62162278e-02, 2.08967738e-03, 9.70905554e-03, 5.10419980e-02,
          1.15874782e-01, 8.99538919e-02, 2.49058649e-01, 3.03616852e-01,
          1.81583256e-01, 4.29534949e-02, 3.38433124e-02, 1.89647712e-02,
          5.62758148e-02, 1.68342710e-01, 1.89061016e-01, 2.42493510e-01,
          1.90165073e-01, 1.12414807e-01, 5.78545071e-02, 6.41848519e-02,
          2.33731903e-02, 1.04411379e-01, 2.82421559e-01, 2.82421559e-01,
          2.06751972e-01, 6.33960590e-02, 4.93009090e-02, 1.90948062e-02,
          4.12883461e-02, 3.79230194e-02, 1.35782987e-01, 2.82421559e-01,
          2.82421559e-01, 2.06936926e-01, 1.77172795e-01, 6.78343177e-02,
          3.79024521e-02, 4.96487916e-02, 3.32007781e-02, 2.39710346e-01,
          2.82421559e-01, 2.82421559e-01, 2.82421559e-01, 9.73656923e-02,
          6.55392781e-02, 6.85022697e-02, 7.99138024e-02, 8.83282945e-02,
          1.39455959e-01, 3.39128107e-01, 3.36676449e-01, 1.99771598e-01,
          9.59736407e-02, 5.27148880e-02, 1.90818645e-02, 5.12270778e-02,
          6.12420030e-02, 7.87997544e-02, 1.47878334e-01, 1.16393909e-01,
          1.22515582e-01, 3.39128107e-01, 1.95056081e-01, 5.93813024e-02,
          6.55039549e-02, 4.41181101e-02, 1.14945553e-01, 2.09815443e-01,
          2.70112038e-01, 1.95895150e-01, 2.26608276e-01, 1.90578803e-01,
          7.89357424e-02, 8.71011987e-02, 1.30539209e-01, 2.46122479e-02,
          3.06662433e-02, 2.77018100e-02, 1.48810297e-01, 3.39128107e-01,
          1.92358032e-01, 5.13824150e-02, 3.97896767e-02, 5.40666692e-02,
          8.11111182e-03, 1.69994310e-02, 2.26040091e-02, 2.02343613e-01,
          3.13093960e-01, 1.36009067e-01, 1.68199278e-02, 6.18464407e-03,
          7.20984023e-03, 4.68478948e-02, 9.63153243e-02, 8.10696036e-02,
          2.18669191e-01, 3.13093960e-01, 1.81126907e-01, 4.53267805e-02,
          4.21789438e-02, 2.25451849e-02, 3.95699963e-02, 1.23961288e-02,
          3.91090475e-02, 8.49516690e-02, 3.13093960e-01, 3.13093960e-01,
          1.99016914e-01, 1.28628880e-01, 5.59589490e-02, 2.17330098e-01,
          1.44183636e-01, 1.32181689e-01, 1.14004038e-01, 3.13093960e-01,
          2.36520499e-01, 2.04899475e-01, 1.99184775e-01, 1.92880124e-01,
          1.03099786e-01, 2.46525690e-01, 2.67437369e-01, 1.38004690e-01,
          1.21270292e-01, 4.64953966e-02, 3.09076533e-02, 3.96704227e-02,
          2.78038885e-02, 1.77067399e-01, 2.67437369e-01, 2.67437369e-01,
          2.35527933e-01, 7.14707077e-02, 4.60184328e-02, 5.15560545e-02,
          5.94598874e-02, 6.30833954e-02, 2.67437369e-01, 2.67437369e-01,
          2.67437369e-01, 1.49622485e-01, 9.48738083e-02, 4.73456420e-02,
          8.33353996e-02, 7.75467232e-02, 1.06272124e-01, 2.47725904e-01,
          2.67437369e-01, 2.67437369e-01, 2.31702030e-01, 1.48984909e-01,
          6.49450719e-02, 7.89314210e-02, 5.80172874e-02, 3.67976502e-02,
          9.56735611e-02, 1.76587448e-01, 2.28219345e-01, 1.62556499e-01,
          2.16395497e-01, 1.63691670e-01, 6.74172118e-02, 7.46216401e-02,
          1.09498337e-01, 1.75114870e-02, 2.17821114e-02, 2.18441077e-02,
          1.33343115e-01, 3.97550672e-01, 1.61111310e-01, 4.34161611e-02,
          3.35819125e-02, 4.41388711e-02, 8.71351361e-02, 1.90695539e-01,
          2.40840927e-01, 1.68295890e-01, 3.97550672e-01, 2.04379350e-01,
          6.73320070e-02, 4.31291759e-02, 2.93047596e-02, 7.72360712e-03,
          2.58923378e-02, 2.67892145e-02, 2.31047407e-01, 3.97550672e-01,
          1.44190416e-01, 4.01735306e-02, 2.24377438e-02, 1.77321453e-02,
          3.46570127e-02, 1.10020610e-02, 3.32005844e-02, 6.38997704e-02,
          2.55298465e-01, 2.55298465e-01, 1.98436186e-01, 1.21700361e-01,
          5.31048737e-02, 2.02150896e-01, 1.24839947e-01, 1.16202861e-01,
          9.19892117e-02, 2.52994180e-01, 2.03057170e-01, 2.00404197e-01,
          1.88634902e-01, 1.86384976e-01, 4.55993302e-02, 7.97260087e-03,
          1.10637769e-02, 1.89129058e-02, 1.63421109e-01, 2.55298465e-01,
          2.55298465e-01, 2.17487216e-01, 9.10309106e-02, 2.55298465e-01,
          9.48316976e-02, 6.95391148e-02, 3.67870629e-02, 4.95949872e-02,
          1.25771046e-01, 2.55298465e-01, 2.55298465e-01, 2.55298465e-01,
          2.63459533e-01, 2.63459533e-01, 2.63459533e-01, 1.38249636e-01,
          8.49014893e-02, 4.40157577e-02, 7.60891140e-02, 7.20945522e-02,
          1.07880712e-01, 2.24124849e-01, 2.63459533e-01, 2.63459533e-01,
          2.04604104e-01, 1.41041622e-01, 6.16211966e-02, 7.03708529e-02,
          5.23466021e-02, 3.08670923e-02, 2.63459533e-01, 2.63459533e-01,
          2.63459533e-01, 6.13258034e-02, 3.27672064e-02, 2.94777416e-02,
          4.27318402e-02, 7.22690746e-02, 2.63459533e-01, 1.59352034e-01,
          2.63459533e-01, 2.63459533e-01, 6.79462999e-02, 5.83348386e-02,
          6.33923262e-02, 5.94556406e-02, 4.22635674e-02, 5.50331622e-02,
          7.34313577e-02, 1.61376730e-01, 1.96522534e-01, 1.42340854e-01,
          3.33111137e-01, 1.77163914e-01, 6.97107092e-02, 4.88776043e-02,
          2.22592931e-02, 9.24413744e-03, 2.97105908e-02, 3.33129503e-02,
          2.12733984e-01, 3.33111137e-01, 1.19519010e-01, 4.44454141e-02,
          3.53976898e-02, 1.89179704e-02, 6.89581260e-02, 8.02323595e-02,
          8.26248750e-02, 3.34857441e-02, 2.28766024e-01, 1.54803023e-01,
          2.29105055e-01, 2.10188031e-01, 8.81746113e-02, 7.54591003e-02,
          1.67083472e-01, 1.79540157e-01, 3.07190716e-01, 3.33111137e-01,
          8.85120854e-02, 1.82120755e-01, 2.29227901e-01, 1.24455810e-01,
          5.54512925e-02, 8.28919187e-03, 1.04147717e-02, 2.26172991e-02,
          1.93514869e-01, 2.86649495e-01, 2.86649495e-01, 2.61066437e-01,
          1.12179741e-01, 2.86649495e-01, 1.07593469e-01, 7.88825825e-02,
          4.24048305e-02, 5.63077703e-02, 1.47747189e-01, 2.86649495e-01,
          2.86649495e-01, 2.86649495e-01, 5.16812839e-02, 3.71195565e-05,
          3.03354376e-04, 6.29107654e-03, 1.12024173e-01, 1.19073518e-01,
          1.55595288e-01, 1.38666973e-01, 1.80265576e-01, 2.86649495e-01,
          3.13479453e-02, 9.58043057e-03, 6.91807072e-04, 2.39908211e-02,
          3.26433331e-02, 1.09692700e-01, 2.30483487e-01, 2.86649495e-01,
          2.86723375e-01, 2.86723375e-01, 2.86723375e-01, 7.30574057e-02,
          3.95648107e-02, 3.83238718e-02, 5.22563793e-02, 9.99160483e-02,
          2.86723375e-01, 2.06990734e-01, 2.86723375e-01, 2.86723375e-01,
          7.63448626e-02, 6.60509467e-02, 8.47052410e-02, 8.00601393e-02,
          6.15473129e-02, 7.96686485e-02, 2.86723375e-01, 1.79693997e-01,
          6.68101385e-02, 3.86602012e-03, 1.62606165e-02, 6.24540215e-03,
          1.64119042e-02, 1.01516865e-01, 2.86723375e-01, 2.86723375e-01,
          1.97732776e-01, 7.47349039e-02, 2.39693653e-02, 2.59054322e-02,
          3.06935385e-02, 2.95662899e-02, 6.75099269e-02, 2.43825018e-01,
          8.47615078e-02, 9.44171548e-02, 8.93453956e-02, 2.93274317e-02,
          2.29366064e-01, 1.78619653e-01, 2.44731426e-01, 2.44731426e-01,
          1.14290178e-01, 9.92858782e-02, 2.10148335e-01, 2.26259395e-01,
          2.44731426e-01, 2.44731426e-01, 1.02575444e-01, 2.24095911e-01,
          2.44731426e-01, 1.59655169e-01, 2.01624662e-01, 8.66434500e-02,
          3.94991674e-02, 2.00377461e-02, 6.89789234e-03, 2.04756372e-02,
          1.00761361e-01, 1.63684994e-01, 2.23324805e-01, 2.26496175e-01,
          1.81017146e-01, 1.94579095e-01, 2.44731426e-01, 1.00003757e-01,
          9.87963192e-03, 7.27583021e-02, 1.27762228e-01, 1.82153240e-01 ]
      - [ 1.09800108e-01, 7.26654232e-02, 6.53375238e-02, 4.86593246e-02,
          2.59729233e-02, 5.36490232e-03, 1.13790678e-02, 1.44862570e-02,
          2.59346217e-02, 2.89122313e-01, 1.03548422e-01, 5.79881333e-02,
          2.77744904e-02, 1.36781968e-02, 1.12317279e-02, 4.84726727e-02,
          9.07928944e-02, 1.28263474e-01, 2.35019028e-01, 2.89122313e-01,
          2.89122313e-01, 2.31780395e-01, 8.10223669e-02, 1.36867650e-02,
          1.84596013e-02, 2.31600199e-02, 3.81676033e-02, 2.89122313e-01,
          2.89122313e-01, 2.89122313e-01, 1.99957520e-01, 1.53534189e-01,
          1.27630860e-01, 2.89122313e-01, 2.89122313e-01, 2.50174969e-01,
          1.67657062e-01, 4.57160845e-02, 1.46232704e-02, 7.56624807e-03,
          2.66646203e-02, 2.92507075e-02, 1.41084120e-01, 1.98145986e-01,
          1.33421272e-01, 1.00047693e-01, 1.94973230e-01, 4.61640246e-02,
          1.41641470e-02, 3.22872736e-02, 2.29819063e-02, 6.85422048e-02,
          9.50233117e-02, 4.96736877e-02, 2.63531357e-01, 1.27681434e-01,
          1.00046106e-01, 1.08413562e-01, 2.28322789e-01, 2.54458964e-01,
          3.04922372e-01, 3.04922372e-01, 2.34401077e-01, 1.90046087e-01,
          3.04922372e-01, 3.04922372e-01, 8.54794011e-02, 4.21903208e-02,
          7.27308467e-02, 1.56741560e-01, 2.94477671e-01, 8.24560970e-02,
          1.54793724e-01, 1.96743369e-01, 4.58164364e-02, 9.14363377e-03,
          9.31955874e-03, 5.48785087e-03, 1.32058971e-02, 1.89934690e-02,
          4.02412936e-02, 1.97849110e-01, 1.10432029e-01, 3.04402467e-02,
          8.51577800e-03, 1.39111904e-02, 6.03541620e-02, 9.75038335e-02,
          7.58052766e-02, 1.13767445e-01, 2.85355777e-01, 2.85355777e-01,
          2.85355777e-01, 1.35799959e-01, 1.72038041e-02, 1.62915811e-02,
          3.15646902e-02, 5.31839356e-02, 6.77930862e-02, 2.85355777e-01,
          2.85355777e-01, 2.41048247e-01, 1.16394006e-01, 2.15213180e-01,
          2.85355777e-01, 2.85355777e-01, 2.78550774e-01, 2.29511857e-01,
          1.08749032e-01, 2.29284599e-01, 2.47218236e-01, 1.26944914e-01,
          4.36993428e-02, 6.99463207e-03, 1.04253115e-02, 1.11109056e-02,
          1.94316823e-02, 2.47218236e-01, 2.47218236e-01, 2.47218236e-01,
          1.13705330e-01, 8.60544816e-02, 6.35918826e-02, 1.49859205e-01,
          1.66903436e-01, 1.10949665e-01, 1.05412647e-01, 2.47218236e-01,
          2.47218236e-01, 2.47218236e-01, 2.47218236e-01, 6.13108054e-02,
          3.72143611e-02, 1.59539897e-02, 3.90637517e-02, 1.95926398e-01,
          2.47218236e-01, 2.47218236e-01, 2.47218236e-01, 2.47218236e-01,
          1.16651013e-01, 1.20539196e-01, 7.71252587e-02, 5.94520085e-02,
          1.15177646e-01, 6.70011267e-02, 5.79709113e-02, 7.18041956e-02,
          1.29487783e-01, 1.28614247e-01, 2.68088788e-01, 2.73360163e-01,
          1.01858690e-01, 9.09575894e-02, 2.73360163e-01, 1.63023219e-01,
          5.52618504e-02, 2.43344344e-02, 3.86360511e-02, 7.09084123e-02,
          1.31212801e-01, 3.81373577e-02, 9.81362164e-02, 2.50401586e-01,
          2.73360163e-01, 2.73360163e-01, 2.73360163e-01, 1.55481189e-01,
          1.38111532e-01, 1.47767276e-01, 3.86708975e-02, 1.67119354e-01,
          2.73360163e-01, 2.73360163e-01, 2.73360163e-01, 9.29702595e-02,
          6.73253313e-02, 4.96945828e-02, 8.99925977e-02, 5.79861216e-02,
          1.73079938e-01, 2.87845880e-01, 2.26515189e-01, 9.48707983e-02,
          1.41438497e-02, 1.03194648e-02, 1.75675713e-02, 3.01670935e-02,
          3.80306058e-02, 2.43897960e-01, 2.63083756e-01, 1.47265613e-01,
          7.95971453e-02, 1.70532852e-01, 2.09677100e-01, 2.16027543e-01,
          1.53154552e-01, 1.24264739e-01, 1.54491648e-01, 2.87845880e-01,
          2.87845880e-01, 2.24249527e-01, 1.09170407e-01, 3.76635343e-02,
          2.72766482e-02, 6.26392365e-02, 6.11316711e-02, 1.03056423e-01,
          1.82746425e-01, 1.59316480e-01, 1.51694760e-01, 2.87845880e-01,
          2.23236859e-01, 9.03719664e-02, 8.95354599e-02, 5.29673100e-02,
          7.53668472e-02, 1.89344779e-01, 2.27148846e-01, 2.79424608e-01,
          2.98038155e-01, 5.63661382e-02, 2.76583284e-02, 1.13785723e-02,
          2.79622693e-02, 1.33419245e-01, 2.60142446e-01, 2.54085749e-01,
          2.98038155e-01, 2.98038155e-01, 9.64850336e-02, 7.90677518e-02,
          4.92125042e-02, 3.96464802e-02, 1.13970721e-02, 3.16935591e-02,
          3.45651209e-02, 2.29704276e-01, 2.98038155e-01, 1.52595580e-01,
          1.43114217e-02, 4.35636053e-03, 8.55802558e-03, 4.24192809e-02,
          1.18061692e-01, 8.63060132e-02, 2.54864991e-01, 2.98038155e-01,
          1.92607671e-01, 3.62062789e-02, 4.07898836e-02, 1.86606422e-02,
          6.09355159e-02, 1.65612251e-01, 1.97776809e-01, 2.44142905e-01,
          1.91559821e-01, 9.51320753e-02, 7.04027787e-02, 7.63491169e-02,
          2.10657511e-02, 1.12582378e-01, 2.91697145e-01, 2.91697145e-01,
          1.93648368e-01, 6.36484995e-02, 4.39413674e-02, 2.87224054e-02,
          5.42535596e-02, 4.09790650e-02, 8.96112099e-02, 2.91697145e-01,
          2.91697145e-01, 2.06763119e-01, 1.68962315e-01, 6.34973869e-02,
          3.61963809e-02, 5.32591231e-02, 3.86795327e-02, 1.84359759e-01,
          2.91697145e-01, 2.91697145e-01, 2.88293958e-01, 9.25645679e-02,
          3.94166894e-02, 8.73697475e-02, 7.34741688e-02, 9.41335931e-02,
          1.27582341e-01, 3.42886806e-01, 3.42886806e-01, 1.92084968e-01,
          1.04964130e-01, 4.14485969e-02, 2.74826270e-02, 5.99595457e-02,
          5.91043942e-02, 7.33311027e-02, 1.42282739e-01, 1.23908773e-01,
          1.31197274e-01, 3.42886806e-01, 1.86745316e-01, 6.36395663e-02,
          6.86940551e-02, 4.05420698e-02, 1.06926307e-01, 2.10374355e-01,
          2.92819083e-01, 1.62277371e-01, 2.47993931e-01, 1.68031856e-01,
          8.67088661e-02, 9.58052576e-02, 1.19694956e-01, 2.49181110e-02,
          2.87256539e-02, 3.01422384e-02, 1.47842094e-01, 3.42886806e-01,
          1.72301397e-01, 5.05436994e-02, 4.57018614e-02, 4.46208008e-02,
          7.12107867e-03, 1.72971636e-02, 2.22564787e-02, 1.99357763e-01,
          3.07236254e-01, 1.60159990e-01, 1.80915203e-02, 6.03272719e-03,
          6.34443574e-03, 3.72479707e-02, 9.89213735e-02, 7.24618733e-02,
          2.24203482e-01, 3.07236254e-01, 1.89346954e-01, 4.13044654e-02,
          4.73464467e-02, 2.23547462e-02, 3.97088751e-02, 1.39235565e-02,
          1.76093634e-03, 1.00421093e-01, 3.07236254e-01, 3.07236254e-01,
          2.44136512e-01, 9.28178132e-02, 5.72956018e-02, 2.15569377e-01,
          1.43102661e-01, 7.40238950e-02, 1.45451546e-01, 3.07236254e-01,
          2.20085129e-01, 2.26929054e-01, 1.79911762e-01, 2.05132723e-01,
          6.92899302e-02, 2.75650561e-01, 2.75650561e-01, 1.39183298e-01,
          1.16507366e-01, 4.49913181e-02, 3.06485705e-02, 4.16615866e-02,
          3.25341858e-02, 1.38242438e-01, 2.75650561e-01, 2.75650561e-01,
          2.00317472e-01, 6.71175867e-02, 2.77208928e-02, 6.59361109e-02,
          5.28585389e-02, 6.87174946e-02, 2.53068477e-01, 2.75650561e-01,
          2.75650561e-01, 1.64831027e-01, 9.44552645e-02, 3.86116281e-02,
          7.66242221e-02, 8.64770487e-02, 1.19181380e-01, 2.36703336e-01,
          2.75650561e-01, 2.75650561e-01, 2.30635226e-01, 1.33388966e-01,
          4.56807166e-02, 8.34228843e-02, 5.20854183e-02, 3.93419974e-02,
          9.03518945e-02, 1.76556677e-01, 2.48973623e-01, 1.36840031e-01,
          2.33384445e-01, 1.44675463e-01, 7.34674409e-02, 8.13160315e-02,
          1.01330996e-01, 1.86509434e-02, 2.03966387e-02, 2.35963389e-02,
          1.32927015e-01, 4.00798053e-01, 1.45159990e-01, 4.25379872e-02,
          3.83731015e-02, 3.65151539e-02, 1.04296140e-01, 1.87782437e-01,
          2.52030313e-01, 1.64282426e-01, 4.00798053e-01, 1.83199346e-01,
          6.70716166e-02, 4.37515117e-02, 2.85331011e-02, 1.14049679e-02,
          2.73724739e-02, 2.59152390e-02, 2.26965070e-01, 4.00798053e-01,
          1.36422113e-01, 3.96547168e-02, 2.50795707e-02, 1.90437809e-02,
          3.44348438e-02, 1.23559320e-02, 1.29753083e-03, 7.79753923e-02,
          2.55623400e-01, 2.55623400e-01, 2.38486081e-01, 9.21137556e-02,
          5.64624891e-02, 1.99591786e-01, 1.24729082e-01, 6.52469099e-02,
          1.19871683e-01, 2.47848883e-01, 1.89380527e-01, 2.17837498e-01,
          1.71776757e-01, 2.05673784e-01, 3.70487906e-02, 8.39860085e-03,
          5.95104531e-04, 2.38276552e-02, 1.56655848e-01, 2.55623400e-01,
          2.55623400e-01, 1.97755352e-01, 1.12839170e-01, 2.55623400e-01,
          9.29612294e-02, 4.00162935e-02, 4.63647395e-02, 4.31533754e-02,
          1.24522895e-01, 2.55623400e-01, 2.55623400e-01, 2.55623400e-01,
          2.45435148e-01, 2.63844758e-01, 2.63844758e-01, 1.53501332e-01,
          8.41882750e-02, 3.46046165e-02, 6.86197430e-02, 7.94232041e-02,
          1.23578593e-01, 2.18903929e-01, 2.63844758e-01, 2.63844758e-01,
          2.07359359e-01, 1.24943130e-01, 4.39280234e-02, 7.26867765e-02,
          4.68800068e-02, 3.31058949e-02, 2.63844758e-01, 2.63844758e-01,
          2.63844758e-01, 7.48715773e-02, 3.50399353e-02, 2.23616678e-02,
          2.99881808e-02, 7.76688010e-02, 2.63844758e-01, 1.78175583e-01,
          2.63844758e-01, 2.63844758e-01, 7.70512074e-02, 5.12254946e-02,
          5.40334731e-02, 6.04637079e-02, 4.35825996e-02, 5.25923185e-02,
          9.01204944e-02, 1.58361644e-01, 2.04269975e-01, 1.41081661e-01,
          3.32618684e-01, 1.59123152e-01, 6.94805607e-02, 4.94387895e-02,
          2.20307261e-02, 1.23606026e-02, 3.13953534e-02, 3.21982056e-02,
          2.11162180e-01, 3.32618684e-01, 1.13375977e-01, 4.42144200e-02,
          3.83476876e-02, 2.06150431e-02, 7.79332444e-02, 7.52820298e-02,
          8.90330225e-02, 3.32550853e-02, 2.20242113e-01, 1.49800941e-01,
          2.40913883e-01, 2.04209551e-01, 9.43282396e-02, 7.56663606e-02,
          1.71210900e-01, 1.80734932e-01, 3.04207057e-01, 3.32618684e-01,
          8.63305107e-02, 1.87530607e-01, 2.31242925e-01, 1.29209742e-01,
          4.52507138e-02, 9.16582067e-03, 7.27760373e-04, 2.68216748e-02,
          1.90009624e-01, 2.90084332e-01, 2.90084332e-01, 2.42693692e-01,
          1.40976936e-01, 2.90084332e-01, 1.09129950e-01, 4.83669601e-02,
          5.25926873e-02, 5.03419302e-02, 1.48305550e-01, 2.90084332e-01,
          2.90084332e-01, 2.90084332e-01, 4.74396162e-02, 3.70752605e-05,
          1.10942885e-04, 5.54415630e-03, 1.19639196e-01, 1.19522199e-01,
          1.44370362e-01, 1.31618664e-01, 1.86905012e-01, 2.80746400e-01,
          3.62689272e-02, 8.29450879e-03, 1.22293097e-03, 2.72177178e-02,
          4.13086824e-02, 8.87654126e-02, 2.32968822e-01, 2.90084332e-01,
          2.84188420e-01, 2.84188420e-01, 2.84188420e-01, 9.04787704e-02,
          4.16486897e-02, 2.97967289e-02, 3.60220484e-02, 1.03769928e-01,
          2.84188420e-01, 2.25927725e-01, 2.84188420e-01, 2.84188420e-01,
          8.86074975e-02, 5.67187183e-02, 7.31516480e-02, 8.14550072e-02,
          6.05714060e-02, 7.58970082e-02, 2.84188420e-01, 1.96612507e-01,
          5.77610023e-02, 8.41301214e-03, 8.55523720e-03, 1.18750939e-02,
          1.18241282e-02, 9.93116871e-02, 2.84188420e-01, 2.84188420e-01,
          2.14863032e-01, 7.37279132e-02, 2.77803689e-02, 1.50174852e-02,
          3.07550151e-02, 3.15126032e-02, 5.61605431e-02, 2.32203677e-01,
          9.25161988e-02, 8.85386243e-02, 9.64238495e-02, 2.88433563e-02,
          2.19099790e-01, 1.72690958e-01, 2.43285403e-01, 2.43285403e-01,
          1.22620225e-01, 9.98670757e-02, 2.13359416e-01, 2.26402804e-01,
          2.43285403e-01, 2.43285403e-01, 9.92451012e-02, 2.29961589e-01,
          2.43285403e-01, 1.64514720e-01, 2.03432187e-01, 8.70831832e-02,
          4.01687808e-02, 1.97445452e-02, 5.62482281e-03, 1.61088817e-02,
          1.08333729e-01, 1.49939165e-01, 2.33534545e-01, 2.34041110e-01,
          1.74210757e-01, 1.93783373e-01, 2.43285403e-01, 9.71103385e-02,
          8.66509229e-03, 7.72403032e-02, 1.20246932e-01, 1.84049234e-01 ]
      - [ 8.23685974e-02, 1.01273924e-01, 9.67003033e-02, 1.50031084e-02,
          1.79665796e-02, 5.40219480e-03, 1.79388479e-03, 9.24512092e-03,
          3.43050994e-02, 1.90206364e-01, 1.30865172e-01, 8.78661051e-02,
          1.38329631e-02, 1.13175502e-02, 3.13540851e-03, 3.74996997e-02,
          1.03711508e-01, 2.00656042e-01, 2.36249819e-01, 2.76923567e-01,
          2.76923567e-01, 2.76923567e-01, 1.09775200e-01, 1.22654540e-02,
          1.35647943e-02, 1.42172594e-02, 4.38119732e-02, 2.76923567e-01,
          2.76923567e-01, 2.76923567e-01, 2.04874784e-01, 1.64729968e-01,
          1.65556654e-01, 2.76923567e-01, 2.73653984e-01, 2.76923567e-01,
          1.25536516e-01, 4.21792753e-02, 3.03703509e-02, 2.28218287e-02,
          2.25708112e-02, 3.48386914e-02, 1.01122752e-01, 1.91021144e-01,
          1.91893250e-01, 1.10178813e-01, 6.19870722e-02, 7.10610896e-02,
          5.61520644e-02, 5.77279665e-02, 6.24355935e-02, 6.34423196e-02,
          6.32631183e-02, 5.21984473e-02, 2.57749617e-01, 1.36971354e-01,
          1.17956072e-01, 8.00486878e-02, 2.44759828e-01, 2.96519250e-01,
          2.96519250e-01, 2.96519250e-01, 2.87376791e-01, 2.19407722e-01,
          2.96519250e-01, 2.96519250e-01, 4.97901253e-02, 6.31005988e-02,
          1.35067850e-01, 2.44159311e-01, 1.69790477e-01, 4.13786247e-02,
          1.04511224e-01, 9.71787348e-02, 6.17902540e-02, 3.33817974e-02,
          2.00939756e-02, 1.15623083e-02, 2.96402909e-02, 4.28907648e-02,
          1.04244366e-01, 1.35310873e-01, 8.02210122e-02, 2.87306625e-02,
          1.92891732e-02, 1.89470313e-02, 4.75110225e-02, 1.13252893e-01,
          1.07465401e-01, 2.03448698e-01, 2.55983561e-01, 2.85385072e-01,
          2.85385072e-01, 8.31025243e-02, 3.31053957e-02, 1.27514340e-02,
          2.59892549e-02, 5.06958663e-02, 1.02066405e-01, 2.85385072e-01,
          2.85385072e-01, 2.85385072e-01, 7.83223212e-02, 2.34868899e-01,
          2.85385072e-01, 2.85385072e-01, 2.51380414e-01, 2.85385072e-01,
          1.15133449e-01, 1.81451976e-01, 2.51421541e-01, 1.63256362e-01,
          5.38328774e-02, 6.76549273e-03, 8.87517631e-03, 7.24403374e-03,
          1.98929273e-02, 2.51421541e-01, 2.17205718e-01, 2.51421541e-01,
          1.17355242e-01, 9.52418894e-02, 8.78702104e-02, 1.74793720e-01,
          1.25352755e-01, 1.45718932e-01, 1.16103947e-01, 1.66370317e-01,
          2.51421541e-01, 2.51421541e-01, 2.51421541e-01, 5.44962473e-02,
          3.49655338e-02, 1.24731055e-02, 9.31102224e-03, 2.31791601e-01,
          2.51421541e-01, 2.51421541e-01, 2.51421541e-01, 2.51421541e-01,
          1.45063281e-01, 1.35999158e-01, 4.84279022e-02, 5.10594100e-02,
          1.08697347e-01, 6.68376237e-02, 6.51757121e-02, 4.92724143e-02,
          1.31820664e-01, 1.86274186e-01, 2.74016440e-01, 2.16065899e-01,
          1.16415314e-01, 9.41161886e-02, 2.74016440e-01, 2.21025169e-01,
          3.10961027e-02, 2.96613313e-02, 6.05708472e-02, 1.05225466e-01,
          7.34609216e-02, 1.92492455e-02, 1.15353838e-01, 2.74016440e-01,
          2.74016440e-01, 2.46721163e-01, 2.74016440e-01, 2.15864807e-01,
          1.89642742e-01, 7.16341510e-02, 5.86758107e-02, 1.38655454e-01,
          2.74016440e-01, 2.74016440e-01, 2.12208122e-01, 7.24159330e-02,
          8.02525282e-02, 8.26219469e-02, 6.48093075e-02, 6.36314228e-02,
          1.39841259e-01, 2.90185839e-01, 2.90185839e-01, 5.69480360e-02,
          2.19776239e-02, 6.86150929e-03, 1.29556283e-02, 2.64471583e-02,
          5.38182445e-02, 1.81923911e-01, 2.44242400e-01, 2.51620293e-01,
          5.10509238e-02, 1.78521931e-01, 2.06805468e-01, 1.88585907e-01,
          1.31109655e-01, 1.72060564e-01, 1.03100821e-01, 2.90185839e-01,
          2.90185839e-01, 1.79641619e-01, 9.67332944e-02, 3.61955613e-02,
          2.93276720e-02, 6.19489849e-02, 8.53976831e-02, 5.94246909e-02,
          1.78988770e-01, 2.38143444e-01, 1.03858776e-01, 2.90185839e-01,
          2.12967381e-01, 7.46057630e-02, 8.07948560e-02, 8.50067437e-02,
          8.07152539e-02, 1.18800357e-01, 3.07086408e-01, 3.07086408e-01,
          2.96316445e-01, 4.79041561e-02, 2.56354697e-02, 8.95457808e-03,
          6.51891017e-03, 1.56108752e-01, 2.38316506e-01, 3.01141798e-01,
          2.67920643e-01, 3.07086408e-01, 1.12328418e-01, 8.89998525e-02,
          3.20966244e-02, 3.36797908e-02, 1.63373947e-02, 1.75356623e-02,
          7.50608370e-02, 1.69563904e-01, 3.07086408e-01, 1.18191987e-01,
          1.47465682e-02, 6.53895875e-03, 1.48337730e-03, 4.15426120e-02,
          1.24038473e-01, 9.58317593e-02, 1.92628756e-01, 3.07086408e-01,
          1.74862340e-01, 4.54168133e-02, 3.90741192e-02, 2.86253951e-02,
          7.07716197e-02, 1.87591493e-01, 2.08229542e-01, 1.76072434e-01,
          2.10645229e-01, 1.34349763e-01, 1.03415407e-01, 4.06693406e-02,
          3.59583236e-02, 9.84732658e-02, 2.84825534e-01, 2.84825534e-01,
          1.53996632e-01, 5.40673323e-02, 5.42983077e-02, 5.01372591e-02,
          4.36885282e-02, 4.61024269e-02, 1.00962922e-01, 2.84825534e-01,
          2.84825534e-01, 2.01356858e-01, 1.88356966e-01, 6.82487115e-02,
          4.74361479e-02, 6.50578290e-02, 6.99918866e-02, 2.36580893e-01,
          2.84825534e-01, 2.84825534e-01, 2.67796069e-01, 1.21103615e-01,
          6.45095557e-02, 7.97109604e-02, 8.79762694e-02, 1.05276823e-01,
          8.92621055e-02, 3.50039274e-01, 3.52687627e-01, 1.58703014e-01,
          9.56742689e-02, 4.11915667e-02, 3.07509713e-02, 6.29430190e-02,
          7.86493495e-02, 4.21541557e-02, 1.42437980e-01, 1.86341077e-01,
          9.26005989e-02, 3.52687627e-01, 1.77859858e-01, 5.32338731e-02,
          6.60345703e-02, 6.69145137e-02, 1.24522649e-01, 1.88394174e-01,
          2.76966602e-01, 1.45374283e-01, 2.42878407e-01, 1.89528406e-01,
          7.98622370e-02, 1.16600946e-01, 1.10739179e-01, 2.79360320e-02,
          3.15563604e-02, 3.16473395e-02, 1.26696482e-01, 3.52687627e-01,
          1.86390713e-01, 4.18806151e-02, 5.76865412e-02, 4.87071127e-02,
          1.01317381e-02, 8.15422088e-03, 5.19445501e-02, 1.37663305e-01,
          3.18316221e-01, 1.26913413e-01, 1.79677401e-02, 9.22069326e-03,
          3.16476962e-03, 3.30844931e-02, 1.03971504e-01, 7.84764737e-02,
          1.62900105e-01, 3.18316221e-01, 1.78689986e-01, 4.87528704e-02,
          4.80481200e-02, 3.15675624e-02, 1.24089113e-02, 7.53997406e-03,
          3.33332717e-02, 4.66734990e-02, 3.18316221e-01, 3.18316221e-01,
          2.19319418e-01, 1.33200541e-01, 7.25166649e-02, 1.50740042e-01,
          1.36555135e-01, 1.22409455e-01, 5.62030114e-02, 3.18316221e-01,
          2.88395524e-01, 2.18870223e-01, 2.35740468e-01, 2.21073002e-01,
          7.86401257e-02, 2.67235428e-01, 2.75934249e-01, 1.41045496e-01,
          1.34378582e-01, 5.07359654e-02, 3.82673442e-02, 5.36666997e-02,
          5.53984419e-02, 1.78219005e-01, 2.75934249e-01, 2.75934249e-01,
          1.92173257e-01, 9.25491825e-02, 4.55788411e-02, 6.08448349e-02,
          6.94142431e-02, 7.88386092e-02, 2.39706859e-01, 2.75934249e-01,
          2.75934249e-01, 1.24401823e-01, 1.14448935e-01, 4.91034761e-02,
          7.85348937e-02, 1.11331277e-01, 1.32204667e-01, 2.07722902e-01,
          2.75934249e-01, 2.75934249e-01, 1.81501791e-01, 1.67045638e-01,
          5.55759557e-02, 7.54290149e-02, 6.33632094e-02, 5.81446476e-02,
          1.03786498e-01, 1.57868117e-01, 2.31881261e-01, 1.22834854e-01,
          2.28884026e-01, 1.65079147e-01, 6.72018230e-02, 1.01505220e-01,
          9.23550799e-02, 2.12566499e-02, 2.24894546e-02, 2.40810737e-02,
          1.20045416e-01, 3.96251261e-01, 1.60006702e-01, 3.57863195e-02,
          4.93125767e-02, 3.90213281e-02, 7.36772120e-02, 1.81479320e-01,
          2.37541243e-01, 1.51182681e-01, 3.96251261e-01, 2.12588802e-01,
          6.82108924e-02, 4.36266251e-02, 3.58244926e-02, 9.41323489e-03,
          2.89252177e-02, 2.61477362e-02, 2.56811768e-01, 3.96251261e-01,
          1.71056718e-01, 4.83682938e-02, 2.44929790e-02, 1.52268363e-02,
          1.08766286e-02, 6.56498643e-03, 2.82613821e-02, 3.66214365e-02,
          2.53703207e-01, 2.53703207e-01, 2.10720152e-01, 1.23335712e-01,
          6.71357289e-02, 1.42462283e-01, 1.18011385e-01, 1.05729863e-01,
          4.55516912e-02, 2.46508002e-01, 2.47828037e-01, 2.08176523e-01,
          2.11766586e-01, 2.10576430e-01, 2.57243309e-02, 4.68602963e-03,
          1.10575045e-02, 2.46670246e-02, 1.41933769e-01, 2.53703207e-01,
          2.53703207e-01, 2.05107510e-01, 1.10248141e-01, 2.53703207e-01,
          1.07713416e-01, 5.60754910e-02, 2.68565826e-02, 4.81922291e-02,
          1.42685816e-01, 2.53703207e-01, 2.53703207e-01, 2.53703207e-01,
          2.26484612e-01, 2.73071796e-01, 2.73071796e-01, 1.12690024e-01,
          9.98059586e-02, 4.33254950e-02, 6.90299198e-02, 9.87390280e-02,
          1.28566384e-01, 1.79987773e-01, 2.73071796e-01, 2.73071796e-01,
          1.58489093e-01, 1.51765287e-01, 4.95955236e-02, 6.51158988e-02,
          5.71268350e-02, 4.87783030e-02, 2.73071796e-01, 2.73071796e-01,
          2.73071796e-01, 5.93091883e-02, 3.84060219e-02, 1.85548216e-02,
          4.36929986e-02, 7.16856271e-02, 2.73071796e-01, 1.32768109e-01,
          2.73071796e-01, 2.73071796e-01, 6.23254143e-02, 5.38359396e-02,
          4.05551083e-02, 7.34445378e-02, 6.91313967e-02, 5.66567630e-02,
          6.09316528e-02, 1.53409407e-01, 1.93624124e-01, 1.29906192e-01,
          3.27034622e-01, 1.79799259e-01, 7.06268772e-02, 5.09708598e-02,
          2.84026768e-02, 1.14718759e-02, 3.14472988e-02, 3.33987623e-02,
          2.31965721e-01, 3.27034622e-01, 1.40658900e-01, 5.13093881e-02,
          3.94965485e-02, 1.54997027e-02, 7.89682865e-02, 8.15406218e-02,
          8.73250216e-02, 3.30565497e-02, 2.22867832e-01, 1.43416017e-01,
          2.29404002e-01, 2.39064187e-01, 7.39164501e-02, 1.14436641e-01,
          1.32356197e-01, 1.85088992e-01, 2.88753480e-01, 3.27034622e-01,
          9.91756991e-02, 1.79128662e-01, 2.58341938e-01, 9.63584110e-02,
          3.64880376e-02, 4.92792437e-03, 1.12490179e-02, 3.64675149e-02,
          1.65724665e-01, 2.88758010e-01, 2.88758010e-01, 2.51357853e-01,
          1.38197824e-01, 2.88758010e-01, 1.32409245e-01, 6.45644739e-02,
          3.57344896e-02, 5.79688400e-02, 1.75760239e-01, 2.88758010e-01,
          2.88758010e-01, 2.88758010e-01, 1.06821887e-01, 0.,
          1.52926077e-04, 5.10098897e-02, 9.38687772e-02, 1.73935622e-01,
          1.42301843e-01, 1.22759841e-01, 1.38202414e-01, 2.88758010e-01,
          3.91371585e-02, 6.55136211e-03, 2.35327370e-02, 2.59397756e-02,
          5.84304333e-02, 9.43343341e-02, 1.94079816e-01, 2.88758010e-01,
          2.91157186e-01, 2.91157186e-01, 2.91157186e-01, 6.96283728e-02,
          4.28863242e-02, 2.17930321e-02, 5.16314991e-02, 8.76980349e-02,
          2.91157186e-01, 1.69893503e-01, 2.91157186e-01, 2.91157186e-01,
          6.77588731e-02, 5.49179018e-02, 4.92145643e-02, 9.66902971e-02,
          9.10592675e-02, 7.41811320e-02, 2.91157186e-01, 2.07955867e-01,
          5.10537475e-02, 6.82223588e-03, 1.07357549e-02, 2.99447845e-03,
          1.97118018e-02, 7.22715333e-02, 2.91157186e-01, 2.91157186e-01,
          2.25939304e-01, 6.88292310e-02, 7.45587330e-03, 1.94303822e-02,
          8.66739172e-03, 5.44267744e-02, 7.58956447e-02, 1.94758460e-01,
          9.97585207e-02, 9.67829376e-02, 9.39001888e-02, 2.95043290e-02,
          2.25479484e-01, 1.64179191e-01, 2.49805450e-01, 2.49805450e-01,
          9.23198462e-02, 1.45389274e-01, 1.67472541e-01, 2.30369404e-01,
          2.49805450e-01, 2.49805450e-01, 1.14489242e-01, 2.20750719e-01,
          2.49805450e-01, 1.22345686e-01, 2.06454784e-01, 8.91855061e-02,
          3.66576165e-02, 1.44934878e-02, 2.23498978e-02, 2.25624908e-02,
          1.16561912e-01, 2.05179691e-01, 1.98991179e-01, 2.22501457e-01,
          1.70723319e-01, 1.85868680e-01, 2.49805450e-01, 1.10386640e-01,
          2.01153513e-02, 7.52839297e-02, 1.47280037e-01, 1.64703295e-01 ]
      - [ 8.39579627e-02, 1.29238978e-01, 8.45167562e-02, 1.68786664e-02,
          9.51395463e-03, 2.22950359e-03, 3.90842883e-03, 8.75491649e-03,
          3.34383473e-02, 1.80177450e-01, 1.56689093e-01, 8.35802034e-02,
          1.57801788e-02, 1.29616801e-02, 3.55353672e-03, 4.14660275e-02,
          1.08016893e-01, 1.89933047e-01, 2.21370384e-01, 2.86166042e-01,
          2.86166042e-01, 2.21170634e-01, 5.64432740e-02, 7.53593398e-03,
          1.42996302e-02, 1.43712722e-02, 5.20189516e-02, 2.86166042e-01,
          2.86166042e-01, 2.86166042e-01, 1.91736922e-01, 1.37555614e-01,
          1.88862890e-01, 2.86166042e-01, 2.86166042e-01, 2.86166042e-01,
          1.17466114e-01, 4.94199358e-02, 4.36187461e-02, 3.02558634e-02,
          3.17634717e-02, 2.82539334e-02, 9.60982218e-02, 2.08238915e-01,
          1.75036445e-01, 9.65444073e-02, 6.51491508e-02, 6.92277104e-02,
          7.02561215e-02, 6.10546395e-02, 5.31979762e-02, 7.37754852e-02,
          6.89301342e-02, 5.47714643e-02, 2.35646144e-01, 1.48424268e-01,
          1.13050520e-01, 7.56559595e-02, 2.22545743e-01, 3.03947985e-01,
          3.03947985e-01, 3.03947985e-01, 2.84185737e-01, 1.76197812e-01,
          3.03947985e-01, 3.03947985e-01, 6.59736767e-02, 5.97167909e-02,
          1.23292789e-01, 2.70427734e-01, 1.77486449e-01, 5.23859076e-02,
          1.01295017e-01, 9.87504274e-02, 5.51963635e-02, 3.70438397e-02,
          1.89918242e-02, 9.81921144e-03, 3.56401429e-02, 4.64336462e-02,
          1.04251027e-01, 1.36970818e-01, 8.14042762e-02, 2.55264137e-02,
          2.06886362e-02, 2.02800985e-02, 4.18986566e-02, 1.15329154e-01,
          1.19908184e-01, 1.92192003e-01, 2.51684546e-01, 2.84232110e-01,
          2.84232110e-01, 9.50783715e-02, 3.07221748e-02, 1.29009774e-02,
          2.80069280e-02, 5.28240688e-02, 1.04260802e-01, 2.84232110e-01,
          2.84232110e-01, 2.84232110e-01, 8.38441253e-02, 2.43053898e-01,
          2.84232110e-01, 2.84232110e-01, 2.53727317e-01, 2.84232110e-01,
          1.04948640e-01, 2.45521978e-01, 2.45521978e-01, 1.19555905e-01,
          3.53942998e-02, 4.47727041e-03, 9.25750565e-03, 6.38588192e-03,
          2.51051597e-02, 2.31820241e-01, 2.45521978e-01, 2.45521978e-01,
          1.03735358e-01, 7.97788128e-02, 9.78690684e-02, 1.59852371e-01,
          1.36490300e-01, 1.49950653e-01, 9.77701843e-02, 2.45521978e-01,
          2.45521978e-01, 2.45521978e-01, 2.45521978e-01, 4.90548871e-02,
          3.48970406e-02, 4.24265070e-03, 3.13623734e-02, 2.02989578e-01,
          2.45521978e-01, 2.45521978e-01, 2.45521978e-01, 2.45521978e-01,
          1.45329863e-01, 1.29549831e-01, 3.62779535e-02, 7.15167820e-02,
          9.58971083e-02, 7.09268525e-02, 6.27751499e-02, 4.42524292e-02,
          1.15048334e-01, 2.01541781e-01, 2.73202688e-01, 2.34813899e-01,
          1.12679698e-01, 7.32281134e-02, 2.73202688e-01, 2.13398904e-01,
          3.55780274e-02, 2.64670309e-02, 5.48201688e-02, 1.13534592e-01,
          7.39880502e-02, 2.26445943e-02, 9.53268260e-02, 2.73202688e-01,
          2.73202688e-01, 2.38947347e-01, 2.73202688e-01, 2.34334260e-01,
          1.93704247e-01, 6.70294240e-02, 6.37531206e-02, 1.19123548e-01,
          2.73202688e-01, 2.73202688e-01, 2.24532872e-01, 6.05169162e-02,
          7.88407624e-02, 9.83671099e-02, 5.71147837e-02, 6.02510795e-02,
          1.38003141e-01, 2.92454898e-01, 2.92454898e-01, 6.25922158e-02,
          2.08202470e-02, 7.12425401e-03, 1.37120606e-02, 2.80908085e-02,
          5.25691174e-02, 1.86601400e-01, 2.59207010e-01, 2.32867151e-01,
          5.41003533e-02, 1.84282795e-01, 2.03012928e-01, 1.86007306e-01,
          1.32670417e-01, 1.69423193e-01, 1.08512953e-01, 2.92454898e-01,
          2.92454898e-01, 1.77312389e-01, 9.64068845e-02, 3.44793014e-02,
          3.64772901e-02, 6.53417781e-02, 6.10222183e-02, 6.53998628e-02,
          1.86589748e-01, 2.35144466e-01, 1.03647366e-01, 2.92454898e-01,
          2.02418938e-01, 7.88255855e-02, 7.85688907e-02, 7.40900487e-02,
          7.17175379e-02, 2.24866331e-01, 2.18947276e-01, 2.59517282e-01,
          3.20702553e-01, 4.54429835e-02, 2.66885627e-02, 2.93772318e-03,
          2.34416090e-02, 1.43519029e-01, 3.06043833e-01, 2.58571267e-01,
          2.54607052e-01, 3.20702553e-01, 1.15537584e-01, 9.08549801e-02,
          2.24925131e-02, 5.06562814e-02, 1.26434993e-02, 3.35550569e-02,
          2.70342194e-02, 1.65816054e-01, 3.20702553e-01, 1.09945416e-01,
          1.40479300e-02, 5.35596022e-03, 6.33714208e-03, 3.69838513e-02,
          1.41406924e-01, 7.65086710e-02, 2.02163994e-01, 3.20702553e-01,
          1.57898918e-01, 6.04485087e-02, 3.49437334e-02, 2.61455104e-02,
          5.76912984e-02, 2.05356881e-01, 2.07927555e-01, 1.71352774e-01,
          1.91440299e-01, 1.44758329e-01, 1.08665638e-01, 3.62919196e-02,
          3.92679684e-02, 8.56083110e-02, 2.83053249e-01, 2.83053249e-01,
          1.65796146e-01, 4.67618704e-02, 5.31944707e-02, 6.10296428e-02,
          3.84005681e-02, 4.43975255e-02, 8.36244971e-02, 2.83053249e-01,
          2.83053249e-01, 2.16870025e-01, 1.82256952e-01, 6.00341670e-02,
          6.42356873e-02, 6.13738187e-02, 6.33091033e-02, 2.30041414e-01,
          2.83053249e-01, 2.83053249e-01, 2.83053249e-01, 1.19377278e-01,
          5.67733459e-02, 9.28033590e-02, 8.67948085e-02, 9.83832777e-02,
          9.32342336e-02, 3.54621023e-01, 3.54621023e-01, 1.56697601e-01,
          9.54725221e-02, 3.91214937e-02, 3.84896509e-02, 6.54796511e-02,
          5.79091758e-02, 4.67418693e-02, 1.47893921e-01, 1.84695140e-01,
          9.14265215e-02, 3.54621023e-01, 1.68695450e-01, 5.82373254e-02,
          6.41546771e-02, 5.68291508e-02, 1.28382877e-01, 1.95092738e-01,
          2.71126717e-01, 1.48046568e-01, 2.42581815e-01, 1.82708785e-01,
          9.90537107e-02, 1.14543296e-01, 9.94827002e-02, 2.89001223e-02,
          3.51319797e-02, 3.09569798e-02, 1.12999603e-01, 3.54621023e-01,
          1.90757155e-01, 5.16485274e-02, 5.49786389e-02, 4.23245989e-02,
          8.21988843e-03, 1.72398016e-02, 1.77456960e-02, 1.35122091e-01,
          3.27633590e-01, 1.19904809e-01, 1.64886415e-02, 7.48214405e-03,
          5.27790887e-03, 3.07375602e-02, 1.15694627e-01, 6.27262443e-02,
          1.70895070e-01, 3.27633590e-01, 1.63066968e-01, 6.10572584e-02,
          4.42490838e-02, 2.83438042e-02, 2.82022562e-02, 8.93555954e-03,
          3.50483842e-02, 4.09388058e-02, 3.27633590e-01, 3.27633590e-01,
          1.88131452e-01, 1.21183410e-01, 7.02033713e-02, 1.77486673e-01,
          1.48775563e-01, 1.07758224e-01, 6.46778718e-02, 3.27633590e-01,
          2.87134320e-01, 1.97602049e-01, 2.15023279e-01, 2.23252386e-01,
          6.63331151e-02, 2.70239323e-01, 2.70239323e-01, 1.54263064e-01,
          1.29149809e-01, 4.58053499e-02, 4.89788055e-02, 5.06944694e-02,
          5.05189225e-02, 1.72796860e-01, 2.70239323e-01, 2.70239323e-01,
          2.21392602e-01, 9.08340141e-02, 4.06530611e-02, 6.88826442e-02,
          6.86876997e-02, 7.30820447e-02, 2.35087588e-01, 2.70239323e-01,
          2.70239323e-01, 1.44370914e-01, 1.07328743e-01, 6.25464320e-02,
          6.66924044e-02, 1.04310304e-01, 1.45085007e-01, 2.09668681e-01,
          2.70239323e-01, 2.70239323e-01, 1.99373603e-01, 1.62324652e-01,
          6.07762486e-02, 6.76852018e-02, 7.13351816e-02, 6.03798628e-02,
          1.07134700e-01, 1.64180219e-01, 2.26011872e-01, 1.25850856e-01,
          2.28037044e-01, 1.59476906e-01, 8.33758190e-02, 9.95267034e-02,
          8.42473805e-02, 2.17788368e-02, 2.52864603e-02, 2.36363895e-02,
          1.09044105e-01, 3.94268721e-01, 1.64738625e-01, 4.39606756e-02,
          4.68389466e-02, 3.46595012e-02, 7.49000683e-02, 1.89572126e-01,
          2.31006265e-01, 1.56160191e-01, 3.94268721e-01, 2.04035357e-01,
          7.35236406e-02, 4.80690524e-02, 3.81126665e-02, 9.10994690e-03,
          2.97190119e-02, 2.55137458e-02, 2.66605765e-01, 3.94268721e-01,
          1.75276399e-01, 5.06449863e-02, 2.49024518e-02, 1.57252252e-02,
          2.51618307e-02, 7.86743686e-03, 2.96702255e-02, 3.16979848e-02,
          2.55276084e-01, 2.55276084e-01, 1.83163404e-01, 1.13336004e-01,
          6.60182759e-02, 1.64678112e-01, 1.28549576e-01, 9.29910168e-02,
          5.37476167e-02, 2.53413111e-01, 2.47698128e-01, 1.87641218e-01,
          1.95019200e-01, 2.14827970e-01, 4.12893556e-02, 4.75768466e-03,
          1.26035260e-02, 2.62858439e-02, 1.48813844e-01, 2.55276084e-01,
          2.55276084e-01, 2.03814059e-01, 1.17744043e-01, 2.55276084e-01,
          1.06272973e-01, 5.58452718e-02, 3.59431766e-02, 4.46545854e-02,
          1.57539830e-01, 2.55276084e-01, 2.55276084e-01, 2.55276084e-01,
          2.24875897e-01, 2.68970847e-01, 2.68970847e-01, 1.33047938e-01,
          9.36225802e-02, 5.65769039e-02, 5.85894883e-02, 9.42849666e-02,
          1.44008026e-01, 1.85669214e-01, 2.68970847e-01, 2.68970847e-01,
          1.76058382e-01, 1.49186552e-01, 5.53072765e-02, 5.78505136e-02,
          6.54132217e-02, 5.34033254e-02, 2.68970847e-01, 2.68970847e-01,
          2.68970847e-01, 6.32809922e-02, 2.88325343e-02, 3.12294401e-02,
          3.64471115e-02, 7.60238022e-02, 2.68970847e-01, 1.53397024e-01,
          2.68970847e-01, 2.68970847e-01, 6.80632666e-02, 5.04103564e-02,
          5.29100634e-02, 6.01125434e-02, 7.10864216e-02, 6.48731887e-02,
          6.14943877e-02, 1.58395186e-01, 1.86421543e-01, 1.33180395e-01,
          3.22084874e-01, 1.70813262e-01, 7.30965957e-02, 5.50741665e-02,
          3.16255987e-02, 1.12096025e-02, 3.16244215e-02, 3.27096395e-02,
          2.41124004e-01, 3.22084874e-01, 1.42289892e-01, 5.24133891e-02,
          3.97813283e-02, 1.59843396e-02, 8.16812888e-02, 7.84599856e-02,
          8.27805698e-02, 3.56484391e-02, 2.17561200e-01, 1.36911556e-01,
          2.30512083e-01, 2.40779608e-01, 8.00710022e-02, 1.16008319e-01,
          1.28288463e-01, 1.82611316e-01, 3.07256550e-01, 3.22084874e-01,
          9.53144431e-02, 1.82843417e-01, 2.59022117e-01, 9.30277556e-02,
          5.39957397e-02, 4.86860983e-03, 1.32821854e-02, 3.87909114e-02,
          1.70547366e-01, 2.87321180e-01, 2.87321180e-01, 2.46627226e-01,
          1.45905048e-01, 2.87321180e-01, 1.26733437e-01, 6.49176985e-02,
          4.66930568e-02, 5.16354479e-02, 1.93865404e-01, 2.87321180e-01,
          2.87321180e-01, 2.87321180e-01, 1.05716474e-01, 6.00213170e-05,
          5.67501877e-03, 4.90127020e-02, 8.92749801e-02, 2.00275436e-01,
          1.14089653e-01, 1.20506488e-01, 1.46103397e-01, 2.87321180e-01,
          3.75017412e-02, 1.03046363e-02, 2.34314371e-02, 2.53259595e-02,
          6.82096779e-02, 8.50999132e-02, 1.81665391e-01, 2.87321180e-01,
          2.88799793e-01, 2.88799793e-01, 2.88799793e-01, 7.30408281e-02,
          3.07357535e-02, 3.84371653e-02, 4.43461426e-02, 9.23844054e-02,
          2.88799793e-01, 1.95621878e-01, 2.88799793e-01, 2.88799793e-01,
          7.37608075e-02, 5.06931655e-02, 6.74466416e-02, 7.99009353e-02,
          9.35654640e-02, 8.41472149e-02, 2.88799793e-01, 2.10047126e-01,
          4.95395809e-02, 1.21109153e-03, 8.96776654e-03, 1.26746064e-02,
          1.63512472e-02, 6.28206804e-02, 2.88799793e-01, 2.88799793e-01,
          2.39737615e-01, 5.22650816e-02, 4.56988672e-03, 1.61954183e-02,
          2.80896891e-02, 4.46019359e-02, 7.04005435e-02, 1.89491406e-01,
          1.02460772e-01, 9.47249010e-02, 8.84430557e-02, 3.26887257e-02,
          2.21883535e-01, 1.58040285e-01, 2.50323623e-01, 2.50323623e-01,
          9.99033973e-02, 1.48996815e-01, 1.63602725e-01, 2.28115678e-01,
          2.50323623e-01, 2.50323623e-01, 1.09861873e-01, 2.27868691e-01,
          2.50323623e-01, 1.18581787e-01, 1.94931939e-01, 9.21264812e-02,
          3.00149973e-02, 1.61768887e-02, 2.04882696e-02, 2.21151225e-02,
          1.26798287e-01, 2.01404139e-01, 2.09113508e-01, 2.28101209e-01,
          1.68739706e-01, 1.78214192e-01, 2.50323623e-01, 1.15502089e-01,
          1.52116669e-02, 8.35570469e-02, 1.48822784e-01, 1.61320984e-01 ]
      - [ 7.24881589e-02, 2.14517280e-01, 1.18822768e-01, 2.18288768e-02,
          5.66760171e-03, 1.16427150e-03, 6.36103912e-04, 6.27863314e-03,
          1.41594810e-02, 2.07277447e-01, 2.78618068e-01, 1.19794637e-01,
          1.08724060e-02, 6.47965539e-03, 6.66287402e-03, 9.58042368e-02,
          1.39501631e-01, 1.30836561e-01, 1.23929754e-01, 2.78618068e-01,
          2.78618068e-01, 2.78618068e-01, 9.22120810e-02, 1.53832920e-02,
          7.44891446e-03, 2.45989617e-02, 1.77054647e-02, 2.68137664e-01,
          2.78618068e-01, 2.78618068e-01, 2.34102353e-01, 1.54725939e-01,
          1.01288028e-01, 2.78618068e-01, 2.78618068e-01, 1.44221768e-01,
          1.05890408e-01, 8.26943070e-02, 2.77465265e-02, 4.88298992e-03,
          2.18435731e-02, 2.99321152e-02, 2.12177262e-01, 2.16331229e-01,
          1.48783028e-01, 1.13046952e-01, 1.99338049e-01, 1.66511104e-01,
          4.40436937e-02, 4.14513089e-02, 2.23960206e-02, 7.93630108e-02,
          5.76014034e-02, 7.19553605e-02, 1.17539883e-01, 2.45914727e-01,
          1.51279971e-01, 1.42868727e-01, 1.87448248e-01, 1.94697127e-01,
          2.45914727e-01, 2.45914727e-01, 1.82273731e-01, 1.65697873e-01,
          2.45914727e-01, 2.45914727e-01, 2.37699971e-01, 2.45914727e-01,
          1.76208928e-01, 2.16044143e-01, 2.23427162e-01, 1.62323594e-01,
          1.60592496e-01, 1.66825831e-01, 1.05436333e-01, 2.70209927e-02,
          1.02070784e-02, 7.58076506e-03, 4.59944643e-02, 1.14612617e-01,
          1.56666473e-01, 8.44168812e-02, 4.61230874e-02, 1.29619222e-02,
          7.75714684e-03, 1.83946323e-02, 5.11588007e-02, 1.42024696e-01,
          2.38305748e-01, 1.54426724e-01, 1.92304060e-01, 2.74044216e-01,
          1.76153496e-01, 1.83813378e-01, 1.52673438e-01, 1.88473523e-01,
          2.74044216e-01, 2.74044216e-01, 2.70754397e-01, 1.03108957e-01,
          9.83079448e-02, 4.19332571e-02, 4.30061594e-02, 1.08572222e-01,
          2.74044216e-01, 2.74044216e-01, 2.74044216e-01, 2.41577581e-01,
          7.94258043e-02, 2.66041994e-01, 2.66041994e-01, 1.83141395e-01,
          7.86398500e-02, 1.06442543e-02, 4.97882441e-03, 1.66436266e-02,
          1.10022454e-02, 1.61529824e-01, 2.66041994e-01, 2.66041994e-01,
          1.53144762e-01, 1.10092886e-01, 6.13781437e-02, 1.69611275e-01,
          1.66854188e-01, 8.38274211e-02, 8.32185969e-02, 1.41956300e-01,
          2.24596828e-01, 2.66041994e-01, 2.66041994e-01, 6.15896396e-02,
          9.18492768e-03, 2.68472396e-02, 8.95814691e-03, 1.09814256e-01,
          2.66041994e-01, 2.65813857e-01, 2.66041994e-01, 2.66041994e-01,
          1.07388951e-01, 5.35533391e-02, 6.34118542e-02, 3.68975513e-02,
          7.47945905e-02, 1.59934804e-01, 9.94535759e-02, 9.34784338e-02,
          1.18327580e-01, 1.09243162e-01, 2.26685956e-01, 2.26685956e-01,
          1.06841870e-01, 1.06793039e-01, 2.14434773e-01, 1.34989724e-01,
          1.31624088e-01, 1.49810180e-01, 1.09130524e-01, 1.32440776e-01,
          1.38612479e-01, 1.04901917e-01, 1.60707578e-01, 2.26685956e-01,
          2.26685956e-01, 2.26685956e-01, 2.26685956e-01, 6.87548369e-02,
          1.38003379e-01, 1.42715350e-01, 1.22407995e-01, 2.26685956e-01,
          1.82125792e-01, 1.30847722e-01, 1.16280079e-01, 2.26685956e-01,
          1.49727046e-01, 2.26685956e-01, 2.26685956e-01, 2.24700034e-01,
          1.09299317e-01, 1.93331525e-01, 9.72835124e-02, 1.03846155e-01,
          9.79993045e-02, 1.21139735e-01, 1.98392153e-01, 2.16033399e-01,
          1.59530088e-01, 5.82306907e-02, 5.81242405e-02, 2.48853732e-02,
          2.64537614e-02, 8.26105401e-02, 2.45960578e-01, 2.65951008e-01,
          2.65951008e-01, 1.40195459e-01, 4.50647175e-02, 4.02987748e-02,
