%YAML:1.0
opencv_ml_svm:
   format: 3
   svmType: C_SVC
   kernel:
      type: RBF
      gamma: 2.9999999999999999e-01
   C: 100.
   term_criteria: { epsilon:1.1920928955078125e-07, iterations:1000 }
   var_count: 648
   class_count: 23
   class_labels: !!opencv-matrix
      rows: 23
      cols: 1
      dt: i
      data: [ 1, 2, 3, 4, 5, 6, 7, 8, 10, 11, 12, 13, 14, 15, 16, 17, 18,
          19, 21, 22, 23, 24, 25 ]
   sv_total: 49
   support_vectors:
      - [ 2.21396714e-01, 0., 9.65037793e-02, 4.46451604e-02,
          1.54003397e-01, 1.68933179e-02, 5.24755102e-04, 0.,
          1.42471060e-01, 5.65814674e-02, 0., 1.09743075e-02,
          1.10625662e-02, 7.11077154e-02, 3.89845809e-03, 1.21097335e-04,
          0., 3.83678526e-02, 3.81576508e-01, 1.42569259e-01,
          3.81576508e-01, 3.81576508e-01, 3.81576508e-01, 1.85826391e-01,
          5.77230286e-03, 0., 2.12804049e-01, 1.11435369e-01,
          2.20758095e-02, 1.94625586e-01, 1.37200564e-01, 3.52594942e-01,
          4.28830162e-02, 1.33206998e-03, 0., 5.67945279e-02, 0., 0., 0.,
          0., 0., 0., 0., 0., 0., 0., 0., 0., 0., 0., 0., 0., 0., 0., 0.,
          0., 0., 0., 0., 0., 0., 0., 0., 0., 0., 0., 0., 0., 0., 0., 0.,
          0., 0., 0., 0., 0., 0., 0., 0., 0., 0., 0., 0., 0., 0., 0., 0.,
          0., 0., 0., 0., 0., 0., 0., 0., 0., 0., 0., 0., 0., 0., 0., 0.,
          0., 0., 0., 0., 0., 1.77410200e-01, 6.52686954e-02,
          2.83761114e-01, 2.70715445e-01, 2.83761114e-01, 6.81523532e-02,
          1.04008932e-02, 5.10992773e-04, 8.38259459e-02, 4.56897169e-02,
          9.77398362e-03, 7.81954676e-02, 5.20357490e-02, 1.42348468e-01,
          1.57274660e-02, 2.40020640e-03, 1.17921401e-04, 2.40933504e-02,
          1.92598030e-01, 9.31054428e-02, 2.83761114e-01, 2.39113659e-01,
          2.83761114e-01, 2.27174498e-02, 1.61160454e-01, 2.64451742e-01,
          2.83761114e-01, 2.25282684e-01, 1.11087123e-02, 5.65265194e-02,
          3.09603252e-02, 2.83761114e-01, 5.24248881e-03, 2.64861733e-02,
          1.59682631e-01, 2.83761114e-01, 0., 0., 0., 0., 0., 0., 0., 0.,
          0., 0., 0., 0., 0., 0., 0., 0., 0., 0., 4.62524384e-01, 0., 0.,
          0., 3.71032625e-01, 0., 0., 4.47192527e-02, 4.62524384e-01,
          4.62524384e-01, 0., 0., 0., 0., 0., 0., 0., 4.62524384e-01, 0.,
          0., 0., 0., 0., 0., 0., 0., 0., 5.86363534e-03, 0., 0., 0., 0.,
          0., 0., 0., 5.86363534e-03, 3.95223826e-01, 0., 0., 0., 0., 0.,
          0., 0., 3.95223826e-01, 3.95223826e-01, 2.34952435e-01,
          3.95223826e-01, 2.79900432e-01, 2.57300436e-01, 0., 0.,
          1.23382159e-01, 3.95223826e-01, 1.17035769e-01, 5.01553491e-02,
          2.28966191e-01, 1.20712914e-01, 3.13178599e-01, 9.20061208e-03,
          8.72502774e-02, 1.49250224e-01, 1.84186444e-01, 1.66727096e-01,
          5.57774678e-03, 2.65996512e-02, 1.47349117e-02, 1.84474915e-01,
          2.12321803e-03, 1.40838828e-02, 9.02069211e-02, 2.22820744e-01,
          3.13178599e-01, 1.93065088e-02, 8.58118758e-02, 1.77238174e-02,
          3.13178599e-01, 0., 4.55940142e-02, 1.86090082e-01,
          3.13178599e-01, 3.13178599e-01, 0., 1.08648412e-04,
          6.82043436e-04, 2.89781958e-01, 0., 6.57484261e-03,
          1.08295776e-01, 3.13178599e-01, 1.64048865e-01, 0., 0., 0.,
          4.16098721e-02, 0., 0., 4.37600259e-03, 1.67443499e-01,
          1.65784121e-01, 0., 0., 0., 0., 0., 0., 6.23177690e-03,
          1.82871580e-01, 4.66110289e-01, 0., 0., 0., 6.25522137e-02, 0.,
          0., 5.68782305e-03, 4.66110289e-01, 4.66110289e-01, 0., 0., 0.,
          0., 0., 0., 6.85495064e-02, 4.66110289e-01, 1.24892905e-01,
          9.00613202e-04, 1.72464977e-04, 0., 0., 0., 1.13474787e-03,
          1.10856313e-02, 1.38307661e-01, 1.17192492e-01, 4.33253907e-02,
          7.03955367e-02, 2.93824617e-02, 3.02054361e-02, 0.,
          2.49644555e-03, 2.67291889e-02, 1.11935265e-01, 4.34260905e-01,
          9.90673993e-03, 1.89711386e-03, 0., 0., 0., 1.24822203e-02,
          1.21941879e-01, 4.34260905e-01, 4.34260905e-01, 2.76275694e-01,
          1.82415694e-01, 5.44993579e-02, 1.13389939e-01, 0.,
          2.74608862e-02, 1.71972960e-01, 4.34260905e-01, 3.17111611e-01,
          1.44173326e-02, 6.44720495e-02, 8.97611864e-03, 2.92037636e-01,
          0., 2.92722099e-02, 1.49619162e-01, 3.17111611e-01,
          3.17111611e-01, 0., 0., 0., 2.32958764e-01, 0., 4.35753213e-03,
          8.60474259e-02, 3.17111611e-01, 3.17111611e-01, 4.71029850e-03,
          1.53866606e-02, 6.28325724e-05, 1.54650984e-02, 0.,
          2.38313433e-03, 1.14584982e-01, 3.17111611e-01, 3.17111611e-01,
          0., 0., 0., 1.08545125e-02, 0., 1.08324306e-03, 6.27208427e-02,
          3.17111611e-01, 3.52481842e-01, 0., 0., 0., 3.30551751e-02, 0.,
          0., 2.70851562e-03, 3.52481842e-01, 3.52481842e-01, 0., 0., 0.,
          0., 0., 0., 3.58779728e-02, 3.52481842e-01, 3.52481842e-01, 0.,
          0., 0., 4.13263828e-04, 0., 0., 4.78032714e-04, 3.52481842e-01,
          3.52481842e-01, 0., 0., 0., 0., 0., 0., 1.19593255e-02,
          3.52481842e-01, 3.43880832e-01, 5.03813941e-03, 9.64790117e-04,
          0., 0., 0., 6.34791795e-03, 6.20143637e-02, 3.43880832e-01,
          3.43880832e-01, 1.43290654e-01, 9.81291533e-02, 2.86998320e-02,
          5.95828891e-02, 0., 1.39654176e-02, 8.74543414e-02,
          3.43880832e-01, 3.43880832e-01, 1.67937984e-03, 3.21596686e-04,
          0., 0., 0., 2.11597257e-03, 2.06714552e-02, 3.43880832e-01,
          3.43880832e-01, 4.44224142e-02, 2.79454198e-02, 1.24845025e-03,
          1.85913127e-02, 0., 4.65513952e-03, 2.61354595e-02,
          3.43880832e-01, 4.72534865e-01, 8.08161031e-03, 2.27597635e-02,
          0., 2.76994659e-03, 0., 5.46836574e-03, 2.62927920e-01,
          4.72534865e-01, 4.72534865e-01, 0., 0., 0., 0., 0.,
          2.48562079e-03, 1.43919915e-01, 4.72534865e-01, 3.92091945e-02,
          0., 0., 0., 0., 0., 0., 0., 3.92091945e-02, 6.54891208e-02, 0.,
          0., 0., 0., 0., 0., 0., 6.54891208e-02, 4.95395482e-01, 0., 0.,
          0., 0., 0., 0., 8.34914914e-04, 4.95395482e-01, 4.95395482e-01,
          0., 0., 0., 0., 0., 0., 2.08877306e-02, 4.95395482e-01,
          5.22137322e-02, 0., 0., 0., 0., 0., 0., 0., 5.22137322e-02,
          6.12210706e-02, 0., 0., 0., 0., 0., 0., 0., 6.12210706e-02,
          4.92862433e-01, 2.74332520e-03, 5.25339332e-04, 0., 0., 0.,
          3.45651456e-03, 3.37675437e-02, 4.92862433e-01, 4.92862433e-01,
          7.09594712e-02, 4.69809026e-02, 0., 3.01193297e-02, 0.,
          7.60433171e-03, 4.26931754e-02, 4.92862433e-01, 5.12608215e-02,
          0., 0., 0., 0., 0., 0., 0., 5.12608215e-02, 5.90697266e-02, 0.,
          0., 0., 0., 0., 0., 0., 5.90697266e-02, 0., 0., 0., 0., 0., 0.,
          0., 0., 0., 0., 0., 0., 0., 0., 0., 0., 0., 0., 0., 0., 0., 0.,
          0., 0., 0., 0., 0., 0., 0., 0., 0., 0., 0., 0., 0., 0., 0., 0.,
          0., 0., 0., 0., 0., 0., 0., 0., 0., 0., 0., 0., 0., 0., 0., 0.,
          0., 0., 0., 0., 0., 0., 0., 0., 0., 0., 0., 0., 0., 0., 0., 0.,
          0., 0., 0., 0., 0., 0., 0., 0., 0., 0., 0., 0., 0., 0., 0., 0.,
          0., 0., 0., 0., 0., 0., 0., 0., 0., 0., 0., 0., 0., 0., 0., 0.,
          0., 0., 0., 0., 0., 0. ]
      - [ 1.83248281e-01, 5.40397204e-02, 6.16695397e-02, 3.39319818e-02,
          1.64205447e-01, 1.45950504e-02, 0., 0., 1.62036777e-01,
          4.61864769e-02, 3.60264815e-03, 8.22953414e-03, 9.59597249e-03,
          6.78729117e-02, 3.36808874e-03, 0., 0., 4.12915163e-02,
          3.42230320e-01, 2.63634294e-01, 3.72295439e-01, 3.72295439e-01,
          3.72295439e-01, 1.60545468e-01, 0., 0., 2.78595835e-01,
          8.44340175e-02, 3.09563465e-02, 1.68011799e-01, 1.09848186e-01,
          3.63755435e-01, 3.70489545e-02, 0., 0., 6.97491243e-02, 0., 0.,
          0., 0., 0., 0., 0., 0., 0., 0., 0., 0., 0., 0., 0., 0., 0., 0.,
          0., 0., 0., 0., 0., 0., 0., 0., 0., 0., 0., 0., 0., 0., 0., 0.,
          0., 0., 0., 0., 0., 0., 0., 0., 0., 0., 0., 0., 0., 0., 0., 0.,
          0., 0., 0., 0., 0., 0., 0., 0., 0., 0., 0., 0., 0., 0., 0., 0.,
          0., 0., 0., 0., 0., 0., 1.46239594e-01, 1.22426830e-01,
          2.96605527e-01, 1.96972504e-01, 2.96605527e-01, 6.54138923e-02,
          8.34676810e-03, 5.14871674e-04, 1.18297771e-01, 3.63606699e-02,
          1.46659128e-02, 7.54226893e-02, 4.54484150e-02, 1.61836565e-01,
          1.50955124e-02, 1.92617730e-03, 1.18816533e-04, 2.99125575e-02,
          1.93405315e-01, 8.33915249e-02, 2.96605527e-01, 1.26769468e-01,
          2.96605527e-01, 2.18046289e-02, 2.01325431e-01, 2.29905248e-01,
          2.96605527e-01, 2.89030850e-01, 1.18404236e-02, 5.86049445e-02,
          2.16561649e-02, 2.96605527e-01, 5.03183808e-03, 3.56737562e-02,
          8.89569893e-02, 2.96605527e-01, 0., 0., 0., 0., 0., 0., 0., 0.,
          0., 0., 0., 0., 0., 0., 0., 0., 0., 0., 4.46215838e-01, 0., 0.,
          0., 4.46215838e-01, 0., 0., 0., 4.46215838e-01, 4.46215838e-01,
          0., 0., 0., 0., 0., 0., 0., 4.46215838e-01, 0., 0., 0., 0., 0.,
          0., 0., 0., 0., 5.74647635e-03, 0., 0., 0., 0., 0., 0., 0.,
          5.74647635e-03, 3.72479141e-01, 0., 0., 0., 0., 0., 0., 0.,
          3.72479141e-01, 3.72479141e-01, 3.10712814e-01, 3.72479141e-01,
          3.72479141e-01, 2.29260802e-01, 6.67110132e-03, 0.,
          1.20916910e-01, 3.72479141e-01, 1.19045421e-01, 4.18799073e-02,
          2.52469897e-01, 6.00143187e-02, 3.09878707e-01, 8.63872655e-03,
          1.07643321e-01, 1.26898006e-01, 1.84266090e-01, 1.98550165e-01,
          5.61713707e-03, 2.73863729e-02, 9.72573273e-03, 1.93997994e-01,
          1.99355232e-03, 1.88767277e-02, 4.91359420e-02, 2.43312046e-01,
          3.09878707e-01, 3.02383713e-02, 8.73270333e-02, 1.59385125e-03,
          3.09878707e-01, 0., 6.06015287e-02, 1.68984622e-01,
          3.09878707e-01, 3.09878707e-01, 1.08511467e-05, 2.57304608e-04,
          3.67811852e-04, 2.98076153e-01, 0., 1.00947041e-02,
          7.83304721e-02, 3.09878707e-01, 1.69097662e-01, 0., 0., 0.,
          5.56043386e-02, 0., 0., 1.13390922e-03, 1.72009274e-01,
          1.58752471e-01, 0., 0., 0., 0., 0., 0., 7.57614058e-03,
          1.78004712e-01, 4.64567006e-01, 0., 0., 0., 8.21534172e-02, 0.,
          0., 1.24729956e-02, 4.64567006e-01, 4.64567006e-01, 0., 0., 0.,
          0., 0., 0., 8.33374932e-02, 4.64567006e-01, 1.29132479e-01, 0.,
          0., 0., 0., 0., 1.16097683e-03, 6.19345531e-03, 1.39726862e-01,
          1.14866927e-01, 4.06094976e-02, 5.05110621e-02, 4.15231213e-02,
          2.78942604e-02, 7.57172995e-04, 5.03089931e-03, 2.55877450e-02,
          1.17596157e-01, 4.47904021e-01, 0., 0., 0., 0., 0.,
          1.27707385e-02, 6.81279674e-02, 4.47904021e-01, 4.47904021e-01,
          1.71438858e-01, 2.08786651e-01, 7.16236308e-02, 1.06673434e-01,
          2.27151904e-03, 5.53398654e-02, 1.58254102e-01, 4.47904021e-01,
          3.17822635e-01, 2.32540015e-02, 6.34984300e-02, 0.,
          2.83117682e-01, 0., 3.97864692e-02, 1.41266286e-01,
          3.17822635e-01, 3.17822635e-01, 0., 0., 0., 2.44626358e-01, 0.,
          6.76571019e-03, 6.80281147e-02, 3.17822635e-01, 3.17822635e-01,
          7.58637721e-03, 1.34423375e-02, 0., 1.62167270e-02, 0.,
          2.40121316e-03, 1.15454242e-01, 3.17822635e-01, 3.17822635e-01,
          0., 0., 0., 1.09368563e-02, 0., 1.09146070e-03, 6.31966516e-02,
          3.17822635e-01, 3.52216393e-01, 0., 0., 0., 4.32715006e-02, 0.,
          0., 6.52229879e-03, 3.52216393e-01, 3.52216393e-01, 0., 0., 0.,
          0., 0., 0., 4.35783155e-02, 3.52216393e-01, 3.52216393e-01, 0.,
          0., 0., 4.13749338e-04, 0., 0., 2.17409991e-03, 3.52216393e-01,
          3.52216393e-01, 0., 0., 0., 0., 0., 0., 1.45261064e-02,
          3.52216393e-01, 3.46594900e-01, 0., 0., 0., 0., 0.,
          6.38230192e-03, 3.40476260e-02, 3.46594900e-01, 3.46594900e-01,
          8.95084441e-02, 1.08147368e-01, 3.67672667e-02, 5.49108535e-02,
          1.22339767e-03, 2.76566427e-02, 7.90854022e-02, 3.46594900e-01,
          3.46594900e-01, 0., 0., 0., 0., 0., 2.12743436e-03,
          1.13492096e-02, 3.46594900e-01, 3.46594900e-01, 2.29446869e-02,
          3.99849378e-02, 1.23854552e-03, 1.80620607e-02, 1.11217938e-04,
          9.21888277e-03, 2.33697426e-02, 3.46594900e-01, 4.72543240e-01,
          1.30806128e-02, 1.93922501e-02, 0., 2.77000503e-03, 0.,
          5.46848075e-03, 2.62933463e-01, 4.72543240e-01, 4.72543240e-01,
          0., 0., 0., 0., 0., 2.48567294e-03, 1.43922940e-01,
          4.72543240e-01, 3.92100252e-02, 0., 0., 0., 0., 0., 0., 0.,
          3.92100252e-02, 6.54904991e-02, 0., 0., 0., 0., 0., 0., 0.,
          6.54904991e-02, 4.95367616e-01, 0., 0., 0., 0., 0., 0.,
          3.77750699e-03, 4.95367616e-01, 4.95367616e-01, 0., 0., 0., 0.,
          0., 0., 2.52391640e-02, 4.95367616e-01, 5.20038977e-02, 0., 0.,
          0., 0., 0., 0., 0., 5.20038977e-02, 6.09750412e-02, 0., 0., 0.,
          0., 0., 0., 0., 6.09750412e-02, 4.93484259e-01, 0., 0., 0., 0.,
          0., 3.47429002e-03, 1.85342729e-02, 4.93484259e-01,
          4.93484259e-01, 3.36873308e-02, 6.97458386e-02, 0.,
          2.98722330e-02, 0., 1.50552578e-02, 3.81648764e-02,
          4.93484259e-01, 5.08402810e-02, 0., 0., 0., 0., 0., 0., 0.,
          5.08402810e-02, 5.85851185e-02, 0., 0., 0., 0., 0., 0., 0.,
          5.85851185e-02, 0., 0., 0., 0., 0., 0., 0., 0., 0., 0., 0., 0.,
          0., 0., 0., 0., 0., 0., 0., 0., 0., 0., 0., 0., 0., 0., 0., 0.,
          0., 0., 0., 0., 0., 0., 0., 0., 0., 0., 0., 0., 0., 0., 0., 0.,
          0., 0., 0., 0., 0., 0., 0., 0., 0., 0., 0., 0., 0., 0., 0., 0.,
          0., 0., 0., 0., 0., 0., 0., 0., 0., 0., 0., 0., 0., 0., 0., 0.,
          0., 0., 0., 0., 0., 0., 0., 0., 0., 0., 0., 0., 0., 0., 0., 0.,
          0., 0., 0., 0., 0., 0., 0., 0., 0., 0., 0., 0., 0., 0., 0., 0. ]
      - [ 2.02976003e-01, 5.74154742e-02, 6.48071989e-02, 2.92626806e-02,
          1.57546192e-01, 1.62214767e-02, 0., 0., 1.30617142e-01,
          5.18737622e-02, 3.82769830e-03, 8.48340429e-03, 9.36427619e-03,
          6.74922168e-02, 3.74341826e-03, 0., 0., 3.51755619e-02,
          3.74828756e-01, 2.74863243e-01, 3.74828756e-01, 3.74828756e-01,
          3.74828756e-01, 1.78436160e-01, 0., 0., 1.95098266e-01,
          1.02163695e-01, 3.18501592e-02, 1.73620567e-01, 1.07346110e-01,
          3.61831129e-01, 4.11775820e-02, 0., 0., 5.20690940e-02, 0., 0.,
          0., 0., 0., 0., 0., 0., 0., 0., 0., 0., 0., 0., 0., 0., 0., 0.,
          0., 0., 0., 0., 0., 0., 0., 0., 0., 0., 0., 0., 0., 0., 0., 0.,
          0., 0., 0., 0., 0., 0., 0., 0., 0., 0., 0., 0., 0., 0., 0., 0.,
          0., 0., 0., 0., 0., 0., 0., 0., 0., 0., 0., 0., 0., 0., 0., 0.,
          0., 0., 0., 0., 0., 0., 1.73978582e-01, 1.25063330e-01,
          2.96434134e-01, 1.73253939e-01, 2.96434134e-01, 7.13532642e-02,
          8.28066375e-03, 5.10794052e-04, 8.04307386e-02, 4.33526188e-02,
          1.47901680e-02, 7.63160735e-02, 4.36112434e-02, 1.58132032e-01,
          1.64661389e-02, 1.91092258e-03, 1.17875548e-04, 2.17646491e-02,
          2.10778281e-01, 8.30589160e-02, 2.96434134e-01, 1.18379287e-01,
          2.96434134e-01, 2.37844195e-02, 1.99731007e-01, 2.28084475e-01,
          2.96434134e-01, 2.96434134e-01, 1.17685059e-02, 5.87151013e-02,
          2.09922399e-02, 2.96434134e-01, 5.48871281e-03, 3.53912301e-02,
          8.82524773e-02, 2.96434134e-01, 0., 0., 0., 0., 0., 0., 0., 0.,
          0., 0., 0., 0., 0., 0., 0., 0., 0., 0., 4.46215838e-01, 0., 0.,
          0., 4.46215838e-01, 0., 0., 0., 4.46215838e-01, 4.46215838e-01,
          0., 0., 0., 0., 0., 0., 0., 4.46215838e-01, 0., 0., 0., 0., 0.,
          0., 0., 0., 0., 5.76648721e-03, 0., 0., 0., 0., 0., 0., 0.,
          5.76648721e-03, 3.87607008e-01, 0., 0., 0., 0., 0., 0., 0.,
          3.87607008e-01, 3.87607008e-01, 3.15006912e-01, 3.87607008e-01,
          3.01203877e-01, 1.96197122e-01, 4.11205776e-02, 2.25996855e-03,
          1.21337987e-01, 3.87607008e-01, 1.26515314e-01, 4.14401181e-02,
          2.53394693e-01, 5.64653836e-02, 3.05093825e-01, 9.39857587e-03,
          1.06512934e-01, 1.25565425e-01, 1.91051081e-01, 2.08872035e-01,
          5.55815035e-03, 2.73371823e-02, 9.42902174e-03, 1.98049292e-01,
          2.16890196e-03, 1.86784994e-02, 4.86199558e-02, 2.53163815e-01,
          3.05093825e-01, 2.99208350e-02, 8.64099935e-02, 1.57711387e-03,
          3.05093825e-01, 0., 5.99651374e-02, 1.67210072e-01,
          3.05093825e-01, 3.05093825e-01, 1.07371961e-05, 2.54602608e-04,
          3.63949395e-04, 3.05093825e-01, 0., 9.98869725e-03,
          7.75079057e-02, 3.05093825e-01, 1.70480818e-01, 0., 0., 0.,
          6.10603020e-02, 0., 0., 1.13163737e-03, 1.73386589e-01,
          1.58434406e-01, 0., 0., 0., 0., 0., 0., 7.56096141e-03,
          1.77648082e-01, 4.63588446e-01, 0., 0., 0., 9.52178836e-02, 0.,
          0., 1.24480054e-02, 4.63588446e-01, 4.63588446e-01, 0., 0., 0.,
          0., 0., 0., 8.31705183e-02, 4.63588446e-01, 1.29759833e-01, 0.,
          0., 0., 0., 0., 0., 4.71622683e-03, 1.39938086e-01,
          1.24235727e-01, 4.73352037e-02, 4.45526280e-02, 3.20366584e-02,
          2.37897336e-02, 4.59795166e-03, 2.52701400e-04, 1.92006920e-02,
          1.32491350e-01, 4.54201669e-01, 0., 0., 0., 0., 0., 0.,
          5.18784709e-02, 4.54201669e-01, 4.54201669e-01, 2.45688394e-01,
          1.05592802e-01, 5.81886806e-02, 9.40975919e-02, 1.37938559e-02,
          7.58104201e-04, 8.94020423e-02, 4.54201669e-01, 3.17484498e-01,
          2.34696325e-02, 6.40872419e-02, 0., 2.67240137e-01, 0.,
          4.01554033e-02, 1.42576233e-01, 3.17484498e-01, 3.17484498e-01,
          0., 0., 0., 2.63449609e-01, 0., 6.82844734e-03, 6.86589330e-02,
          3.17484498e-01, 3.17484498e-01, 7.65672512e-03, 1.35669867e-02,
          0., 1.48550142e-02, 0., 2.42347922e-03, 1.16524830e-01,
          3.17484498e-01, 3.17484498e-01, 0., 0., 0., 1.25503605e-02, 0.,
          1.10158161e-03, 6.37826622e-02, 3.17484498e-01, 3.52094054e-01,
          0., 0., 0., 5.06182536e-02, 0., 0., 6.52244082e-03,
          3.52094054e-01, 3.52094054e-01, 0., 0., 0., 0., 0., 0.,
          4.35792617e-02, 3.52094054e-01, 3.52094054e-01, 0., 0., 0.,
          9.36861499e-04, 0., 0., 2.17414717e-03, 3.52094054e-01,
          3.52094054e-01, 0., 0., 0., 0., 0., 0., 1.45264231e-02,
          3.52094054e-01, 3.48014683e-01, 0., 0., 0., 0., 0., 0.,
          2.60239951e-02, 3.48014683e-01, 3.48014683e-01, 1.27088249e-01,
          5.66949397e-02, 3.01571302e-02, 4.83473390e-02, 7.45696900e-03,
          4.09831729e-04, 4.48434725e-02, 3.48014683e-01, 3.48014683e-01,
          0., 0., 0., 0., 0., 0., 8.67466535e-03, 3.48014683e-01,
          3.48014683e-01, 3.53831425e-02, 2.18701940e-02, 1.22900819e-03,
          1.73647311e-02, 6.77906093e-04, 3.72574214e-05, 1.19788032e-02,
          3.48014683e-01, 4.72127587e-01, 1.31811108e-02, 1.95412394e-02,
          0., 2.79128714e-03, 0., 5.51049504e-03, 2.64953554e-01,
          4.72127587e-01, 4.72127587e-01, 0., 0., 0., 0., 0.,
          2.50477018e-03, 1.45028695e-01, 4.72127587e-01, 3.95112745e-02,
          0., 0., 0., 0., 0., 0., 0., 3.95112745e-02, 6.59936666e-02, 0.,
          0., 0., 0., 0., 0., 0., 6.59936666e-02, 4.95365828e-01, 0., 0.,
          0., 0., 0., 0., 3.77852051e-03, 4.95365828e-01, 4.95365828e-01,
          0., 0., 0., 0., 0., 0., 2.52459347e-02, 4.95365828e-01,
          5.20178489e-02, 0., 0., 0., 0., 0., 0., 0., 5.20178489e-02,
          6.09913990e-02, 0., 0., 0., 0., 0., 0., 0., 6.09913990e-02,
          4.94169235e-01, 0., 0., 0., 0., 0., 0., 1.43292174e-02,
          4.94169235e-01, 4.94169235e-01, 5.45626879e-02, 4.06885184e-02,
          0., 2.99826637e-02, 0., 0., 1.97871439e-02, 4.94169235e-01,
          5.10282293e-02, 0., 0., 0., 0., 0., 0., 0., 5.10282293e-02,
          5.88016994e-02, 0., 0., 0., 0., 0., 0., 0., 5.88016994e-02, 0.,
          0., 0., 0., 0., 0., 0., 0., 0., 0., 0., 0., 0., 0., 0., 0., 0.,
          0., 0., 0., 0., 0., 0., 0., 0., 0., 0., 0., 0., 0., 0., 0., 0.,
          0., 0., 0., 0., 0., 0., 0., 0., 0., 0., 0., 0., 0., 0., 0., 0.,
          0., 0., 0., 0., 0., 0., 0., 0., 0., 0., 0., 0., 0., 0., 0., 0.,
          0., 0., 0., 0., 0., 0., 0., 0., 0., 0., 0., 0., 0., 0., 0., 0.,
          0., 0., 0., 0., 0., 0., 0., 0., 0., 0., 0., 0., 0., 0., 0., 0.,
          0., 0., 0., 0., 0., 0., 0., 0., 0., 0., 0. ]
      - [ 1.99923202e-01, 5.65519333e-02, 6.38324842e-02, 2.88225636e-02,
          1.55176669e-01, 1.59775037e-02, 0., 0., 1.28652617e-01,
          5.10935709e-02, 3.77012882e-03, 8.35581217e-03, 9.22343507e-03,
          6.64771199e-02, 3.68711655e-03, 0., 0., 3.46465148e-02,
          3.73850137e-01, 2.98397094e-01, 3.73850137e-01, 3.73850137e-01,
          3.73850137e-01, 1.75752446e-01, 0., 0., 1.92163944e-01,
          1.00627132e-01, 3.12450398e-02, 1.69263840e-01, 1.09269254e-01,
          3.56389105e-01, 4.05582637e-02, 0., 0., 5.12859672e-02, 0., 0.,
          0., 0., 0., 0., 0., 0., 0., 0., 0., 0., 0., 0., 0., 0., 0., 0.,
          0., 0., 0., 0., 0., 0., 0., 0., 0., 0., 0., 0., 0., 0., 0., 0.,
          0., 0., 0., 0., 0., 0., 0., 0., 0., 0., 0., 0., 0., 0., 0., 0.,
          0., 0., 0., 0., 0., 0., 0., 0., 0., 0., 0., 0., 0., 0., 0., 0.,
          0., 0., 0., 0., 0., 0., 1.72269136e-01, 1.38101473e-01,
          2.96671003e-01, 1.72885954e-01, 2.96671003e-01, 7.06521794e-02,
          8.19930062e-03, 5.05775213e-04, 7.96404630e-02, 4.29266542e-02,
          1.45741329e-02, 7.45873377e-02, 4.51667458e-02, 1.56578287e-01,
          1.63043495e-02, 1.89214654e-03, 1.16717347e-04, 2.15507988e-02,
          1.90980718e-01, 9.88365188e-02, 2.96671003e-01, 1.66700512e-01,
          2.96671003e-01, 2.35507265e-02, 1.97768524e-01, 2.25843400e-01,
          2.96671003e-01, 2.80178517e-01, 1.14407344e-02, 5.52015193e-02,
          2.67380159e-02, 2.96671003e-01, 5.43478271e-03, 3.50434929e-02,
          8.73853490e-02, 2.96671003e-01, 0., 0., 0., 0., 0., 0., 0., 0.,
          0., 0., 0., 0., 0., 0., 0., 0., 0., 0., 4.46215838e-01, 0., 0.,
          0., 4.46215838e-01, 0., 0., 0., 4.46215838e-01, 4.46215838e-01,
          0., 0., 0., 0., 0., 0., 0., 4.46215838e-01, 0., 0., 0., 0., 0.,
          0., 0., 0., 0., 0., 0., 0., 0., 0., 0., 0., 0., 0.,
          4.13401753e-01, 0., 0., 0., 0., 0., 0., 0., 4.13401753e-01,
          4.13401753e-01, 2.69086421e-01, 2.66681999e-01, 3.32241774e-01,
          2.16414481e-01, 4.53578942e-02, 2.49284972e-03, 9.72421020e-02,
          4.13401753e-01, 1.18178695e-01, 5.04543185e-02, 2.20941782e-01,
          8.66062716e-02, 3.13126117e-01, 9.50668938e-03, 1.07738182e-01,
          1.27009824e-01, 1.83456838e-01, 1.96587548e-01, 5.50261885e-03,
          2.59978361e-02, 1.28894160e-02, 1.92908049e-01, 2.19385140e-03,
          1.88933611e-02, 4.91792336e-02, 2.41388857e-01, 3.13126117e-01,
          2.97662057e-02, 7.55414739e-02, 6.16606930e-03, 3.13126117e-01,
          0., 6.05304912e-02, 1.73702493e-01, 3.13126117e-01,
          3.13126117e-01, 0., 1.07185006e-04, 6.72856870e-04,
          2.96832025e-01, 0., 1.05413925e-02, 8.83198306e-02,
          3.13126117e-01, 1.64159432e-01, 0., 0., 0., 5.35840392e-02, 0.,
          0., 8.78746738e-04, 1.72547922e-01, 1.50144234e-01, 0., 0., 0.,
          0., 0., 0., 3.80790257e-03, 1.80449650e-01, 4.67034787e-01, 0.,
          0., 0., 7.92979673e-02, 0., 0., 9.66621004e-03, 4.67034787e-01,
          4.67034787e-01, 0., 0., 0., 0., 0., 0., 4.18869071e-02,
          4.67034787e-01, 1.29665971e-01, 0., 0., 0., 0., 0.,
          1.15967263e-03, 4.06811200e-03, 1.39353752e-01, 1.17970422e-01,
          3.46402563e-02, 3.74501757e-02, 3.23699266e-02, 2.40372103e-02,
          4.64578252e-03, 5.28057804e-03, 2.20533218e-02, 1.30293742e-01,
          4.50896353e-01, 0., 0., 0., 0., 0., 1.27563933e-02,
          4.47492115e-02, 4.50896353e-01, 4.50896353e-01, 1.67015120e-01,
          2.02501059e-01, 5.87939993e-02, 9.50764567e-02, 1.39373485e-02,
          5.60436919e-02, 1.53168380e-01, 4.50896353e-01, 3.16126198e-01,
          2.30074897e-02, 5.74986078e-02, 0., 2.89851844e-01, 0.,
          3.95881496e-02, 1.45749584e-01, 3.16126198e-01, 3.16126198e-01,
          0., 0., 0., 2.43003890e-01, 0., 7.20712030e-03, 7.81793818e-02,
          3.16126198e-01, 3.16126198e-01, 7.57312635e-03, 1.34188589e-02,
          0., 1.61884017e-02, 0., 2.21666601e-03, 1.21874668e-01,
          3.16126198e-01, 3.16126198e-01, 0., 0., 0., 1.09177539e-02, 0.,
          1.72407355e-03, 7.74643868e-02, 3.16126198e-01, 3.52523267e-01,
          0., 0., 0., 4.16841730e-02, 0., 0., 5.04337577e-03,
          3.52523267e-01, 3.52523267e-01, 0., 0., 0., 0., 0., 0.,
          2.18546297e-02, 3.52523267e-01, 3.52523267e-01, 0., 0., 0.,
          4.10240202e-04, 0., 0., 1.68112537e-03, 3.52523267e-01,
          3.52523267e-01, 0., 0., 0., 0., 0., 0., 7.28487689e-03,
          3.52523267e-01, 3.47134054e-01, 0., 0., 0., 0., 0.,
          6.36751531e-03, 2.23371368e-02, 3.47134054e-01, 3.47134054e-01,
          8.75564739e-02, 1.05974548e-01, 3.03207468e-02, 4.86096442e-02,
          7.49742659e-03, 2.80046221e-02, 7.64532909e-02, 3.47134054e-01,
          3.47134054e-01, 0., 0., 0., 0., 0., 2.12250534e-03,
          7.44571257e-03, 3.47134054e-01, 3.47134054e-01, 2.28915270e-02,
          3.98922935e-02, 1.23567600e-03, 1.74589418e-02, 6.81584002e-04,
          9.23498254e-03, 2.33155973e-02, 3.47134054e-01, 4.67266142e-01,
          1.31931547e-02, 1.95590947e-02, 0., 2.79383757e-03, 0.,
          5.10053802e-03, 2.80433029e-01, 4.67266142e-01, 4.67266142e-01,
          0., 0., 0., 0., 0., 3.96708539e-03, 1.78245217e-01,
          4.67266142e-01, 3.65935639e-02, 0., 0., 0., 0., 0., 0., 0.,
          3.65935639e-02, 6.43582270e-02, 0., 0., 0., 0., 0., 0., 0.,
          6.43582270e-02, 4.95531231e-01, 0., 0., 0., 0., 0., 0.,
          2.92661088e-03, 4.95531231e-01, 4.95531231e-01, 0., 0., 0., 0.,
          0., 0., 1.26819806e-02, 4.95531231e-01, 5.16625568e-02, 0., 0.,
          0., 0., 0., 0., 0., 5.16625568e-02, 6.05748110e-02, 0., 0., 0.,
          0., 0., 0., 0., 6.05748110e-02, 4.93534565e-01, 0., 0., 0., 0.,
          0., 3.47393099e-03, 1.21864909e-02, 4.93534565e-01,
          4.93534565e-01, 3.36838476e-02, 6.97386265e-02, 0.,
          2.98691429e-02, 0., 1.50537016e-02, 3.81609313e-02,
          4.93534565e-01, 5.08350246e-02, 0., 0., 0., 0., 0., 0., 0.,
          5.08350246e-02, 5.85790612e-02, 0., 0., 0., 0., 0., 0., 0.,
          5.85790612e-02, 0., 0., 0., 0., 0., 0., 0., 0., 0., 0., 0., 0.,
          0., 0., 0., 0., 0., 0., 0., 0., 0., 0., 0., 0., 0., 0., 0., 0.,
          0., 0., 0., 0., 0., 0., 0., 0., 0., 0., 0., 0., 0., 0., 0., 0.,
          0., 0., 0., 0., 0., 0., 0., 0., 0., 0., 0., 0., 0., 0., 0., 0.,
          0., 0., 0., 0., 0., 0., 0., 0., 0., 0., 0., 0., 0., 0., 0., 0.,
          0., 0., 0., 0., 0., 0., 0., 0., 0., 0., 0., 0., 0., 0., 0., 0.,
          0., 0., 0., 0., 0., 0., 0., 0., 0., 0., 0., 0., 0., 0., 0., 0. ]
      - [ 2.00481221e-01, 5.35651408e-02, 6.71800971e-02, 2.86942925e-02,
          1.57555312e-01, 1.44668762e-02, 0., 0., 1.29527822e-01,
          5.12002818e-02, 3.57100973e-03, 8.56073853e-03, 9.18238703e-03,
          6.72768503e-02, 3.33851017e-03, 0., 0., 3.48264202e-02,
          3.76098543e-01, 2.88863778e-01, 3.76098543e-01, 3.76098543e-01,
          3.76098543e-01, 1.59135550e-01, 0., 0., 1.93335623e-01,
          1.00647040e-01, 3.05589642e-02, 1.69236884e-01, 1.08782962e-01,
          3.60560924e-01, 3.67235951e-02, 0., 0., 5.15254550e-02, 0., 0.,
          0., 0., 0., 0., 0., 0., 0., 0., 0., 0., 0., 0., 0., 0., 0., 0.,
          0., 0., 0., 0., 0., 0., 0., 0., 0., 0., 0., 0., 0., 0., 0., 0.,
          0., 0., 0., 0., 0., 0., 0., 0., 0., 0., 0., 0., 0., 0., 0., 0.,
          0., 0., 0., 0., 0., 0., 0., 0., 0., 0., 0., 0., 0., 0., 0., 0.,
          0., 0., 0., 0., 0., 0., 1.70312643e-01, 1.32374302e-01,
          2.95412987e-01, 1.70114577e-01, 2.95412987e-01, 6.32281303e-02,
          8.06786586e-03, 4.97667585e-04, 7.91687965e-02, 4.24243025e-02,
          1.41062820e-02, 7.37027079e-02, 4.44427170e-02, 1.56428888e-01,
          1.45911071e-02, 1.86181534e-03, 1.14846363e-04, 2.13911030e-02,
          2.05361664e-01, 9.69327614e-02, 2.95412987e-01, 1.64028287e-01,
          2.95412987e-01, 2.10760422e-02, 1.94598272e-01, 2.22223133e-01,
          2.95412987e-01, 2.95412987e-01, 1.12360446e-02, 5.43449037e-02,
          2.63094027e-02, 2.95412987e-01, 4.86370223e-03, 3.44817415e-02,
          8.59845504e-02, 2.95412987e-01, 0., 0., 0., 0., 0., 0., 0., 0.,
          0., 0., 0., 0., 0., 0., 0., 0., 0., 0., 4.46215838e-01, 0., 0.,
          0., 4.46215838e-01, 0., 0., 0., 4.46215838e-01, 4.46215838e-01,
          0., 0., 0., 0., 0., 0., 0., 4.46215838e-01, 0., 0., 0., 0., 0.,
          0., 0., 0., 0., 5.94661618e-03, 0., 0., 0., 0., 0., 0., 0.,
          5.94661618e-03, 3.98620337e-01, 0., 0., 0., 0., 0., 0., 0.,
          3.98620337e-01, 3.98620337e-01, 2.21658394e-01, 3.98620337e-01,
          2.68434972e-01, 2.54089683e-01, 6.90148165e-03, 0.,
          1.25128239e-01, 3.98620337e-01, 1.26702905e-01, 4.99544926e-02,
          2.18753025e-01, 8.57483074e-02, 3.05792809e-01, 8.56068358e-03,
          1.06670864e-01, 1.25751600e-01, 1.91334367e-01, 2.09181726e-01,
          5.44810761e-03, 2.57402901e-02, 1.27617279e-02, 1.98525727e-01,
          1.97554240e-03, 1.87061932e-02, 4.86920401e-02, 2.53539175e-01,
          3.05792809e-01, 2.94713285e-02, 7.47931227e-02, 6.10498525e-03,
          3.05792809e-01, 0., 6.15683123e-02, 1.85793385e-01,
          3.05792809e-01, 3.05792809e-01, 0., 1.06123174e-04,
          6.66191219e-04, 3.05792809e-01, 0., 1.11812670e-02,
          9.37229171e-02, 3.05792809e-01, 1.70480818e-01, 0., 0., 0.,
          6.10603020e-02, 0., 0., 1.13163737e-03, 1.73386589e-01,
          1.58434406e-01, 0., 0., 0., 0., 0., 0., 7.56096141e-03,
          1.77648082e-01, 4.63588446e-01, 0., 0., 0., 9.52178836e-02, 0.,
          0., 1.24480054e-02, 4.63588446e-01, 4.63588446e-01, 0., 0., 0.,
          0., 0., 0., 8.31705183e-02, 4.63588446e-01, 1.28870964e-01, 0.,
          0., 0., 0., 0., 1.14550360e-03, 6.11091079e-03, 1.37178063e-01,
          1.14468284e-01, 2.81757060e-02, 8.05888996e-02, 2.77058911e-02,
          2.93453429e-02, 7.46869133e-04, 4.96384874e-03, 2.52467189e-02,
          1.17668308e-01, 4.42407280e-01, 0., 0., 0., 0., 0.,
          1.26005337e-02, 6.72199726e-02, 4.42407280e-01, 4.42407280e-01,
          1.24803461e-01, 2.79458523e-01, 5.20996936e-02, 1.10720262e-01,
          2.24060751e-03, 5.46023101e-02, 1.56144932e-01, 4.42407280e-01,
          3.13250333e-01, 2.32754592e-02, 5.81682920e-02, 0.,
          2.72077441e-01, 0., 4.17813323e-02, 1.62057012e-01,
          3.13250333e-01, 3.13250333e-01, 0., 0., 0., 2.63608128e-01, 0.,
          8.07837863e-03, 8.57307836e-02, 3.13250333e-01, 3.13250333e-01,
          7.66133144e-03, 1.35751488e-02, 0., 1.48639502e-02, 0.,
          4.66742134e-03, 1.43747956e-01, 3.13250333e-01, 3.13250333e-01,
          0., 0., 0., 1.25579108e-02, 0., 2.84639816e-03, 8.76638219e-02,
          3.13250333e-01, 3.52094054e-01, 0., 0., 0., 5.06182536e-02, 0.,
          0., 6.52244082e-03, 3.52094054e-01, 3.52094054e-01, 0., 0., 0.,
          0., 0., 0., 4.35792617e-02, 3.52094054e-01, 3.52094054e-01, 0.,
          0., 0., 9.36861499e-04, 0., 0., 2.17414717e-03, 3.52094054e-01,
          3.52094054e-01, 0., 0., 0., 0., 0., 0., 1.45264231e-02,
          3.52094054e-01, 3.45527261e-01, 0., 0., 0., 0., 0.,
          6.36694022e-03, 3.39656696e-02, 3.45527261e-01, 3.45527261e-01,
          6.56103343e-02, 1.46650925e-01, 2.72996351e-02, 5.77565432e-02,
          1.22010603e-03, 2.75900736e-02, 7.88950399e-02, 3.45527261e-01,
          3.45527261e-01, 0., 0., 0., 0., 0., 2.12231372e-03,
          1.13218920e-02, 3.45527261e-01, 3.45527261e-01, 1.92757193e-02,
          4.35070433e-02, 1.23556447e-03, 1.82892997e-02, 1.10918692e-04,
          9.19669215e-03, 2.33134925e-02, 3.45527261e-01, 4.57864016e-01,
          1.31159741e-02, 1.94446743e-02, 0., 2.77749309e-03, 0.,
          1.05539635e-02, 3.25042605e-01, 4.57864016e-01, 4.57864016e-01,
          0., 0., 0., 0., 0., 6.43626973e-03, 1.98225245e-01,
          4.57864016e-01, 3.74654941e-02, 0., 0., 0., 0., 0., 0., 0.,
          3.74654941e-02, 6.48264065e-02, 0., 0., 0., 0., 0., 0., 0.,
          6.48264065e-02, 4.95365828e-01, 0., 0., 0., 0., 0., 0.,
          3.77852051e-03, 4.95365828e-01, 4.95365828e-01, 0., 0., 0., 0.,
          0., 0., 2.52459347e-02, 4.95365828e-01, 5.20178489e-02, 0., 0.,
          0., 0., 0., 0., 0., 5.20178489e-02, 6.09913990e-02, 0., 0., 0.,
          0., 0., 0., 0., 6.09913990e-02, 4.93427098e-01, 0., 0., 0., 0.,
          0., 3.48088844e-03, 1.85694713e-02, 4.93427098e-01,
          4.93427098e-01, 3.04569937e-02, 7.23946467e-02, 0.,
          2.99289636e-02, 0., 1.50838513e-02, 3.82373594e-02,
          4.93427098e-01, 5.09368367e-02, 0., 0., 0., 0., 0., 0., 0.,
          5.09368367e-02, 5.86963817e-02, 0., 0., 0., 0., 0., 0., 0.,
          5.86963817e-02, 0., 0., 0., 0., 0., 0., 0., 0., 0., 0., 0., 0.,
          0., 0., 0., 0., 0., 0., 0., 0., 0., 0., 0., 0., 0., 0., 0., 0.,
          0., 0., 0., 0., 0., 0., 0., 0., 0., 0., 0., 0., 0., 0., 0., 0.,
          0., 0., 0., 0., 0., 0., 0., 0., 0., 0., 0., 0., 0., 0., 0., 0.,
          0., 0., 0., 0., 0., 0., 0., 0., 0., 0., 0., 0., 0., 0., 0., 0.,
          0., 0., 0., 0., 0., 0., 0., 0., 0., 0., 0., 0., 0., 0., 0., 0.,
          0., 0., 0., 0., 0., 0., 0., 0., 0., 0., 0., 0., 0., 0., 0., 0. ]
      - [ 0., 0., 0., 0., 0., 0., 0., 0., 0., 0., 0., 0., 0., 0., 0., 0.,
          0., 0., 3.62322897e-01, 7.05937818e-02, 3.62322897e-01,
          1.69932783e-01, 3.62322897e-01, 2.45561719e-01, 3.62322897e-01,
          0., 3.62322897e-01, 2.18826190e-01, 4.70625143e-03,
          5.58957607e-02, 3.83527949e-02, 3.18439603e-01, 1.11618973e-01,
          2.17368677e-01, 0., 1.79486573e-01, 0., 0., 0., 0., 0., 0., 0.,
          0., 0., 0., 0., 0., 0., 0., 0., 0., 0., 0., 0., 0., 0., 0., 0.,
          0., 0., 0., 0., 0., 0., 0., 0., 0., 0., 0., 0., 0., 0., 0., 0.,
          0., 0., 0., 0., 0., 0., 8.15642551e-02, 8.35570097e-02,
          1.39463350e-01, 0., 6.71931952e-02, 0., 0., 0., 8.15642551e-02,
          0., 0., 0., 0., 0., 0., 0., 0., 0., 1.89084709e-01,
          3.67742568e-01, 4.98007119e-01, 4.98007119e-01, 4.98007119e-01,
          0., 0., 0., 1.89084709e-01, 1.83134690e-01, 2.74472572e-02,
          2.47688055e-01, 6.21065907e-02, 1.70374453e-01, 5.46819009e-02,
          1.06488459e-01, 0., 1.45173907e-01, 4.36342023e-02,
          2.49202340e-03, 2.65494902e-02, 1.41782807e-02, 7.59046674e-02,
          2.48554051e-02, 4.84038368e-02, 0., 3.48740257e-02,
          1.88430354e-01, 3.37203681e-01, 4.02407855e-01, 4.00920451e-01,
          4.02407855e-01, 7.65546635e-02, 1.49083868e-01, 0.,
          1.35285258e-01, 4.44641821e-02, 3.84647697e-02, 2.37212658e-01,
          9.11155343e-02, 2.53424108e-01, 3.47975791e-02, 6.77653998e-02,
          0., 3.21999229e-02, 0., 0., 0., 0., 0., 0., 0., 0., 0., 0., 0.,
          0., 0., 0., 0., 0., 0., 0., 0., 0., 0., 0., 0., 0., 0., 0., 0.,
          2.65871316e-01, 6.52728260e-01, 6.52728260e-01, 0., 0., 0., 0.,
          0., 2.65871316e-01, 2.11537961e-04, 0., 0., 0., 0., 0., 0., 0.,
          2.11537961e-04, 3.11260652e-02, 5.44829480e-02, 1.33964702e-01,
          2.05815583e-01, 3.27279896e-01, 0., 0., 0., 3.11260652e-02,
          1.93195924e-01, 1.88148156e-01, 2.79719174e-01, 0., 0., 0., 0.,
          0., 9.70700979e-02, 3.32843423e-01, 3.32843423e-01,
          3.32843423e-01, 3.31407905e-01, 3.32843423e-01, 1.43090067e-02,
          0., 0., 3.32843423e-01, 1.19109593e-01, 2.49788508e-01,
          4.05621618e-01, 2.86107630e-01, 4.05621618e-01, 5.17684259e-02,
          1.00814715e-01, 0., 8.31713751e-02, 2.80345958e-02,
          2.79259123e-02, 1.66409239e-01, 6.40217364e-02, 1.88372523e-01,
          2.35311016e-02, 4.58248630e-02, 0., 1.97411645e-02, 0.,
          1.91414326e-01, 4.05621618e-01, 1.51404932e-01, 4.05621618e-01,
          7.77192116e-02, 9.25347731e-02, 1.66510306e-02, 0., 0.,
          1.89360790e-02, 8.09845924e-02, 2.25197617e-02, 7.62433186e-02,
          5.32595254e-03, 6.16898574e-03, 1.11006864e-03, 0., 0., 0., 0.,
          0., 0., 0., 0., 0., 0., 3.10718361e-02, 3.93095575e-02,
          7.42724463e-02, 0., 0., 0., 0., 0., 6.06939383e-03,
          6.92916103e-03, 5.11974916e-02, 9.57481042e-02, 0., 0., 0., 0.,
          0., 4.69486316e-04, 4.56921369e-01, 6.17200792e-01,
          6.17200792e-01, 3.84908654e-02, 0., 0., 0., 0., 4.24748547e-02,
          6.43690452e-02, 7.38037750e-02, 1.17434479e-01, 0., 0., 0., 0.,
          0., 3.03577464e-02, 2.78166413e-01, 1.77878916e-01,
          1.96908146e-01, 8.13060403e-02, 2.40518421e-01, 5.46178641e-03,
          0., 0., 1.30096093e-01, 2.08467737e-01, 3.27778548e-01,
          3.27778548e-01, 8.47064704e-03, 0., 0., 0., 0., 6.62112758e-02,
          3.27778548e-01, 3.27778548e-01, 3.27778548e-01, 2.31109858e-02,
          3.25473100e-01, 3.55031937e-02, 0., 0., 2.24458218e-01,
          5.63275814e-03, 1.18785411e-01, 3.20723891e-01, 9.19926614e-02,
          3.20723891e-01, 8.23738277e-02, 1.07135624e-01, 2.09742337e-02,
          9.48760100e-03, 2.56034476e-03, 1.12963971e-02, 4.63042185e-02,
          1.18762627e-02, 4.34805378e-02, 5.44634508e-03, 9.55084432e-03,
          2.27184268e-03, 4.31254553e-03, 1.64927736e-01, 2.42945123e-02,
          3.47171165e-02, 1.47905676e-02, 3.20723891e-01, 3.20723891e-01,
          3.20723891e-01, 2.17983454e-01, 3.20723891e-01, 1.95328951e-01,
          1.07693963e-01, 1.30393162e-01, 0., 1.86178446e-01,
          8.58347043e-02, 2.22124845e-01, 8.81081522e-02, 3.01896691e-01,
          6.00708788e-03, 1.21774822e-02, 2.55372077e-02, 0.,
          1.81562515e-04, 0., 0., 0., 1.29204383e-03, 6.75435737e-02,
          2.11727291e-01, 3.99532974e-01, 6.36241678e-03, 2.87745311e-03,
          0., 0., 0., 7.61102326e-03, 2.55940020e-01, 3.28488916e-01,
          3.99532974e-01, 0., 1.28100533e-02, 3.64410668e-03, 0., 0.,
          1.22867271e-01, 3.26282561e-01, 3.99532974e-01, 3.99532974e-01,
          1.97008140e-02, 3.16519663e-02, 0., 0., 0., 1.03113480e-01,
          1.48104325e-01, 3.10786396e-01, 3.10786396e-01, 7.57328887e-03,
          1.23033498e-03, 0., 0., 0., 4.69185114e-02, 2.68961668e-01,
          3.10786396e-01, 3.10786396e-01, 1.56542808e-02, 2.39109457e-01,
          2.58502979e-02, 0., 0., 1.52616143e-01, 1.05483584e-01,
          3.10786396e-01, 3.10786396e-01, 1.72891393e-02, 1.35336770e-02,
          0., 0., 0., 3.50354277e-02, 5.89709915e-02, 2.03465864e-01,
          2.88331479e-01, 1.95987578e-02, 3.10786396e-01, 1.11801978e-02,
          0., 0., 3.88210267e-02, 8.53791907e-02, 1.21833766e-02,
          1.23737063e-02, 7.23725697e-03, 2.78077424e-01, 1.58930033e-01,
          2.78077424e-01, 1.07818417e-01, 1.73279360e-01, 1.24538258e-01,
          6.50401562e-02, 7.93653429e-02, 0., 1.08078010e-01,
          4.95181493e-02, 1.06267512e-01, 4.31002639e-02, 1.84376985e-01,
          2.62976974e-01, 2.12666895e-02, 2.23428421e-02, 1.40022738e-02,
          2.55815387e-01, 1.04747646e-01, 2.78077424e-01, 1.90699488e-01,
          2.78077424e-01, 2.78077424e-01, 2.50409454e-01, 2.78077424e-01,
          0., 1.83217749e-01, 8.85361955e-02, 6.99942634e-02,
          4.43413109e-02, 2.78077424e-01, 1.59279481e-01, 2.04239413e-01,
          2.89926380e-01, 0., 8.17029551e-03, 2.46751821e-03, 0., 0.,
          7.80285522e-02, 1.84057772e-01, 3.18607748e-01, 3.18607748e-01,
          1.03677092e-02, 1.59762781e-02, 0., 0., 0., 5.85739985e-02,
          3.18607748e-01, 3.18607748e-01, 3.18607748e-01, 0.,
          1.13913566e-02, 5.12743881e-03, 0., 0., 2.12609336e-01,
          2.03598276e-01, 3.18607748e-01, 3.18607748e-01, 4.19538887e-03,
          5.32542635e-03, 0., 0., 0., 6.64070621e-02, 1.69724137e-01,
          3.72812122e-01, 3.72812122e-01, 2.96337344e-02, 2.25220155e-02,
          0., 0., 0., 5.76887503e-02, 8.38656649e-02, 2.87027925e-01,
          3.72812122e-01, 3.48311253e-02, 3.72812122e-01, 1.42595544e-02,
          0., 0., 5.43241352e-02, 5.96386343e-02, 1.96524009e-01,
          3.18871170e-01, 8.56900215e-03, 1.05048688e-02, 0., 0., 0.,
          1.62072461e-02, 2.59081628e-02, 3.24977674e-02, 1.55152738e-01,
          5.88860177e-02, 3.72812122e-01, 0., 0., 0., 2.13111285e-02,
          2.42517710e-01, 1.77155640e-02, 1.89348496e-02, 1.16418814e-02,
          2.00759515e-01, 8.09856132e-02, 2.69338608e-01, 1.64401144e-01,
          2.83359975e-01, 2.83359975e-01, 2.20518857e-01, 2.69435227e-01,
          0., 1.51592076e-01, 7.39283487e-02, 4.72932421e-02,
          3.52657400e-02, 2.83359975e-01, 2.83359975e-01, 2.48883408e-03,
          5.32026077e-03, 7.42615841e-04, 9.11958888e-03, 5.59366262e-03,
          1.47811532e-01, 1.34593055e-01, 2.83359975e-01, 2.83359975e-01,
          1.05919555e-01, 1.55230328e-01, 0., 6.65972615e-03,
          4.19117650e-03, 5.21003362e-03, 1.98543575e-02, 2.83359975e-01,
          3.35695714e-01, 3.35695714e-01, 3.35695714e-01, 0.,
          1.56034753e-02, 7.31135625e-03, 0., 0., 3.08064550e-01,
          2.68975228e-01, 3.35695714e-01, 3.35695714e-01, 4.71806247e-03,
          5.60066523e-03, 0., 0., 0., 8.76466930e-02, 2.59418994e-01,
          2.41754591e-01, 2.66042143e-01, 0., 2.57150270e-04,
          4.18380805e-04, 0., 0., 1.93133608e-01, 4.76691872e-02,
          1.07873693e-01, 9.82342064e-02, 0., 0., 0., 0., 0.,
          2.28520017e-02, 9.67882127e-02, 3.10064614e-01, 3.50606531e-01,
          1.27626043e-02, 1.79968160e-02, 0., 0., 0., 2.09027063e-02,
          8.12252760e-02, 6.33348450e-02, 3.18240047e-01, 1.17562570e-01,
          3.50606531e-01, 0., 0., 0., 6.96614981e-02, 2.39130785e-03,
          1.02726175e-02, 8.64192285e-03, 0., 2.26207618e-02, 0., 0., 0.,
          1.36432692e-03, 3.50606531e-01, 8.63064602e-02, 3.50606531e-01,
          1.17508315e-01, 3.50606531e-01, 0., 0., 0., 3.50606531e-01 ]
      - [ 0., 0., 0., 0., 0., 0., 0., 0., 0., 0., 0., 0., 0., 0., 0., 0.,
          0., 0., 3.61494303e-01, 7.06773698e-02, 3.61494303e-01,
          1.88540265e-01, 3.61494303e-01, 2.45852500e-01, 3.61494303e-01,
          0., 3.61494303e-01, 2.19085306e-01, 4.71182447e-03,
          5.59619442e-02, 4.67646904e-02, 3.10694724e-01, 1.11751139e-01,
          2.17626065e-01, 0., 1.79699108e-01, 0., 0., 0., 0., 0., 0., 0.,
          0., 0., 0., 0., 0., 0., 0., 0., 0., 0., 0., 0., 0., 0., 0., 0.,
          0., 0., 0., 0., 0., 0., 0., 0., 0., 0., 0., 0., 0., 0., 0., 0.,
          0., 0., 0., 0., 0., 0., 8.15642551e-02, 8.35570097e-02,
          1.39463350e-01, 0., 6.71931952e-02, 0., 0., 0., 8.15642551e-02,
          0., 0., 0., 0., 0., 0., 0., 0., 0., 1.89084709e-01,
          3.67742568e-01, 4.98007119e-01, 4.98007119e-01, 4.98007119e-01,
          0., 0., 0., 1.89084709e-01, 1.83574244e-01, 2.67175473e-02,
          2.49391943e-01, 6.66438118e-02, 1.66107163e-01, 5.48131466e-02,
          1.06744051e-01, 0., 1.45522356e-01, 4.37389351e-02,
          2.31440784e-03, 2.68692300e-02, 1.62069257e-02, 7.38267377e-02,
          2.49150619e-02, 4.85200174e-02, 0., 3.49577293e-02,
          1.88882634e-01, 3.29261601e-01, 4.04345810e-01, 4.03247356e-01,
          4.04345810e-01, 7.67384097e-02, 1.49441674e-01, 0.,
          1.35609969e-01, 4.45709005e-02, 3.65375243e-02, 2.40598172e-01,
          9.19545069e-02, 2.49707371e-01, 3.48810963e-02, 6.79280460e-02,
          0., 3.22772078e-02, 0., 0., 0., 0., 0., 0., 0., 0., 0., 0., 0.,
          0., 0., 0., 0., 0., 0., 0., 0., 0., 0., 0., 0., 0., 0., 0., 0.,
          2.65871316e-01, 6.52728260e-01, 6.52728260e-01, 0., 0., 0., 0.,
          0., 2.65871316e-01, 2.16700777e-04, 0., 0., 0., 0., 0., 0., 0.,
          2.16700777e-04, 3.18857282e-02, 5.58126643e-02, 1.37234256e-01,
          2.10838735e-01, 3.29259247e-01, 0., 0., 0., 3.18857282e-02,
          1.97911069e-01, 1.92740098e-01, 2.86546052e-01, 0., 0., 0., 0.,
          0., 9.94391888e-02, 3.29259247e-01, 3.29259247e-01,
          3.29259247e-01, 3.29259247e-01, 3.29259247e-01, 2.02249140e-02,
          2.58960873e-02, 0., 3.29259247e-01, 1.19210944e-01,
          2.44089812e-01, 4.06964540e-01, 2.87340939e-01, 4.06964540e-01,
          5.18124774e-02, 1.00900494e-01, 0., 8.32421556e-02,
          2.80584525e-02, 2.65855435e-02, 1.68453023e-01, 6.45261556e-02,
          1.85572878e-01, 2.35511232e-02, 4.58638594e-02, 0.,
          1.97579637e-02, 0., 1.89606801e-01, 4.06964540e-01,
          1.46267161e-01, 4.06964540e-01, 7.77853504e-02, 9.26135182e-02,
          1.66651998e-02, 0., 0., 1.84974819e-02, 8.16875696e-02,
          2.01450009e-02, 7.77464062e-02, 5.33048436e-03, 6.17423514e-03,
          1.11101323e-03, 0., 0., 0., 0., 0., 0., 0., 0., 0., 0.,
          3.07464562e-02, 3.88979167e-02, 7.34946728e-02, 0., 0., 0., 0.,
          0., 6.00583572e-03, 6.85659982e-03, 5.06613553e-02,
          9.47454497e-02, 0., 0., 0., 0., 0., 4.64569923e-04,
          4.70867842e-01, 6.11371458e-01, 6.11371458e-01, 3.80878001e-02,
          0., 0., 0., 0., 6.07613139e-02, 6.79066330e-02, 7.78598785e-02,
          1.23888433e-01, 0., 0., 0., 0., 0., 3.20261419e-02,
          2.93705642e-01, 1.87654778e-01, 2.29465261e-01, 9.48892608e-02,
          1.86336830e-01, 1.20990099e-02, 1.00064455e-02, 0.,
          1.37497708e-01, 2.22211927e-01, 3.41833919e-01, 3.41833919e-01,
          8.93617608e-03, 0., 0., 0., 0., 7.21373409e-02, 3.41833919e-01,
          3.41833919e-01, 3.41833919e-01, 3.80258411e-02, 1.48099557e-01,
          1.11442156e-01, 3.87868397e-02, 0., 2.37298980e-01,
          5.35780145e-03, 1.22657135e-01, 3.32019150e-01, 9.22627673e-02,
          3.32019150e-01, 8.57988447e-02, 1.11590199e-01, 2.18463205e-02,
          9.37315356e-03, 2.43536453e-03, 1.15198037e-02, 4.85729277e-02,
          1.07542221e-02, 4.63741347e-02, 5.67279803e-03, 9.94795840e-03,
          2.36630370e-03, 4.26052418e-03, 1.28297865e-01, 2.65101586e-02,
          3.73779945e-02, 1.56330597e-02, 3.32019150e-01, 3.16715389e-01,
          3.32019150e-01, 3.03825408e-01, 2.48285174e-01, 1.96778864e-01,
          1.21022850e-01, 1.02030344e-01, 0., 1.71763510e-01,
          2.82874536e-02, 2.85337180e-01, 1.51488170e-01, 1.87977821e-01,
          5.95349865e-03, 1.20688463e-02, 2.53093895e-02, 0., 0., 0., 0.,
          0., 1.28051743e-03, 7.02570304e-02, 2.07570285e-01,
          4.02359486e-01, 6.30565779e-03, 1.52641340e-04, 0., 0., 0.,
          1.08591458e-02, 2.25317448e-01, 3.78368109e-01, 4.02359486e-01,
          0., 6.93655619e-03, 5.60077548e-04, 2.31244275e-03, 0.,
          8.71750116e-02, 2.97979593e-01, 4.02359486e-01, 4.02359486e-01,
          8.82792193e-03, 1.67905400e-03, 0., 0., 0., 9.45997983e-02,
          1.56153604e-01, 3.21295351e-01, 3.21295351e-01, 7.87467882e-03,
          3.66265187e-04, 0., 0., 0., 5.09409569e-02, 2.79925913e-01,
          3.21295351e-01, 3.21295351e-01, 3.01458072e-02, 1.06595784e-01,
          7.84246773e-02, 2.79361755e-02, 0., 1.58950195e-01,
          1.16147220e-01, 3.21295351e-01, 3.21295351e-01, 1.10245543e-02,
          4.02891496e-03, 0., 0., 0., 4.28954847e-02, 5.96863925e-02,
          2.05644354e-01, 3.17047447e-01, 7.79857114e-02, 2.38787174e-01,
          3.26611623e-02, 5.57388691e-03, 0., 3.87345292e-02,
          6.83135688e-02, 1.29653150e-02, 1.31881116e-02, 8.10557511e-03,
          2.79207975e-01, 1.43722355e-01, 2.79207975e-01, 1.50802821e-01,
          1.23216324e-01, 1.30156070e-01, 7.02476352e-02, 6.07717671e-02,
          0., 9.58480984e-02, 1.44202877e-02, 1.41285300e-01,
          7.62109756e-02, 1.18027128e-01, 2.77029842e-01, 2.23946199e-02,
          2.41202265e-02, 2.43167244e-02, 2.40708888e-01, 6.10685162e-02,
          2.79207975e-01, 2.46148869e-01, 2.79207975e-01, 2.79207975e-01,
          2.28335723e-01, 2.79207975e-01, 0., 1.54544562e-01,
          2.17821524e-02, 1.68847203e-01, 8.66481513e-02, 2.79207975e-01,
          1.46225080e-01, 2.36556515e-01, 2.63844758e-01, 0.,
          4.57476219e-03, 3.94983566e-04, 1.63080404e-03, 0.,
          5.83115742e-02, 1.67736411e-01, 3.21516663e-01, 3.21516663e-01,
          4.46075713e-03, 8.48771597e-04, 0., 0., 0., 5.36044091e-02,
          3.21516663e-01, 3.21516663e-01, 3.21516663e-01, 0.,
          6.40466809e-03, 1.18495058e-03, 4.89241257e-03, 0.,
          2.10593566e-01, 2.06175342e-01, 3.21516663e-01, 3.21516663e-01,
          0., 2.82923866e-04, 0., 0., 0., 6.95993453e-02, 1.78580642e-01,
          3.65485847e-01, 3.65485847e-01, 1.74132995e-02, 6.36625802e-03,
          0., 0., 0., 6.79671019e-02, 8.03509057e-02, 2.74189800e-01,
          3.65485847e-01, 1.27552509e-01, 3.65485847e-01, 3.97277251e-02,
          4.70802700e-03, 0., 5.11842892e-02, 5.98827153e-02,
          2.00827479e-01, 3.31882477e-01, 0., 5.08157536e-03, 0., 0., 0.,
          1.70025136e-02, 1.99511778e-02, 3.85506749e-02, 1.61513790e-01,
          8.09865296e-02, 3.65485847e-01, 0., 0., 0., 2.36668736e-02,
          2.52613842e-01, 1.82335284e-02, 2.00081002e-02, 2.05658618e-02,
          1.83942616e-01, 4.23250943e-02, 2.80440539e-01, 2.03820661e-01,
          2.80440539e-01, 2.80440539e-01, 1.97038218e-01, 2.68773019e-01,
          0., 1.24595731e-01, 1.79905985e-02, 1.29720807e-01,
          6.71549439e-02, 2.80440539e-01, 2.80440539e-01, 2.45578727e-03,
          5.33577055e-03, 1.86962320e-03, 6.98954007e-03, 3.52706970e-03,
          1.50903329e-01, 1.32805929e-01, 2.80440539e-01, 2.80440539e-01,
          8.70043337e-02, 1.70328930e-01, 0., 4.86973953e-03,
          1.57397147e-03, 1.16394525e-02, 1.95907298e-02, 2.80440539e-01,
          3.35912079e-01, 3.35912079e-01, 3.35912079e-01, 0.,
          8.65113456e-03, 1.72561000e-03, 7.12468056e-03, 0.,
          3.06164861e-01, 2.72229105e-01, 3.35912079e-01, 3.35912079e-01,
          0., 2.95329810e-04, 0., 0., 0., 9.27880853e-02, 2.76823819e-01,
          1.64694697e-01, 3.06885928e-01, 0., 0., 1.56873590e-04,
          6.47698180e-04, 0., 1.92572504e-01, 6.16625212e-02,
          6.91501126e-02, 1.07113421e-01, 0., 0., 0., 0., 0.,
          2.82561854e-02, 9.62055773e-02, 3.19985956e-01, 3.42026234e-01,
          0., 1.04705729e-02, 0., 0., 0., 2.07768790e-02, 6.44796938e-02,
          8.20090175e-02, 3.28226596e-01, 1.44958377e-01, 3.42026234e-01,
          0., 0., 0., 7.38896355e-02, 2.37691286e-03, 1.02107795e-02,
          8.58990103e-03, 0., 2.24845912e-02, 0., 0., 0., 1.35611417e-03,
          3.42026234e-01, 1.51925027e-01, 3.42026234e-01, 1.16800956e-01,
          3.42026234e-01, 0., 0., 0., 3.42026234e-01 ]
      - [ 2.19196975e-01, 9.48010236e-02, 2.98550487e-01, 1.73331536e-02,
          3.52747738e-01, 0., 0., 0., 2.19196975e-01, 1.00924931e-02,
          4.02680878e-03, 7.84136821e-03, 0., 6.35335520e-02, 0., 0., 0.,
          1.00924931e-02, 3.52747738e-01, 3.52747738e-01, 3.52747738e-01,
          1.90664589e-01, 3.52747738e-01, 0., 0., 0., 3.52747738e-01,
          7.20892427e-03, 1.20804273e-02, 2.35241037e-02, 0.,
          1.17902376e-01, 0., 0., 0., 7.20892427e-03, 0., 0., 0., 0., 0.,
          0., 0., 0., 0., 0., 0., 0., 0., 0., 0., 0., 0., 0.,
          4.98753130e-01, 0., 0., 0., 0., 0., 0., 0., 4.98753130e-01,
          4.98753130e-01, 0., 0., 0., 0., 0., 0., 0., 4.98753130e-01, 0.,
          0., 0., 0., 0., 0., 0., 0., 0., 7.63722211e-02, 4.23594527e-02,
          4.59514335e-02, 0., 2.72197928e-02, 0., 0., 0., 7.63722211e-02,
          2.15772316e-02, 0., 0., 0., 0., 0., 0., 0., 2.15772316e-02,
          3.66011769e-01, 4.07718718e-01, 4.07718718e-01, 0.,
          4.07718718e-01, 3.61892879e-02, 4.07718718e-01, 2.10965827e-01,
          3.66011769e-01, 3.47447574e-01, 2.49925941e-01, 3.47447574e-01,
          1.11212708e-01, 3.47447574e-01, 0., 1.83348136e-03,
          2.37273425e-02, 2.66972244e-01, 3.47333075e-03, 1.22610368e-02,
          1.63055453e-02, 0., 6.87512159e-02, 0., 0., 0., 3.47333075e-03,
          1.62777111e-01, 8.74556080e-02, 2.29013395e-02, 3.70709002e-02,
          3.47447574e-01, 7.47194365e-02, 3.47447574e-01, 3.47447574e-01,
          1.42281517e-01, 5.61115108e-02, 9.66104791e-02, 9.94514599e-02,
          4.76160310e-02, 1.71361372e-01, 0., 4.21541333e-02,
          4.22783829e-02, 3.05125415e-02, 3.35761271e-02, 2.26529893e-02,
          7.36916857e-03, 0., 9.54675768e-03, 0., 0., 0., 3.35761271e-02,
          4.31693010e-02, 1.76189914e-02, 5.73157473e-03, 0.,
          2.10028682e-02, 0., 0., 0., 4.31693010e-02, 2.36848935e-01,
          3.38571846e-01, 3.38571846e-01, 1.20280109e-01, 3.38571846e-01,
          2.09190041e-01, 4.30646949e-02, 1.43914632e-02, 1.80507645e-01,
          2.45083094e-01, 2.72647589e-01, 2.83187836e-01, 5.46727777e-02,
          3.38571846e-01, 3.16657126e-01, 9.47423056e-02, 3.16612199e-02,
          2.32081279e-01, 1.46910800e-02, 0., 0., 0., 1.37334028e-02, 0.,
          0., 0., 1.46910800e-02, 1.41727924e-01, 1.59862190e-01,
          1.73418120e-01, 3.36889848e-02, 3.80788177e-01, 1.33859422e-02,
          1.95281997e-01, 9.44307745e-02, 1.41727924e-01, 7.89803118e-02,
          0., 0., 0., 3.80788177e-01, 1.43752337e-01, 6.19503185e-02,
          2.07027085e-02, 7.89803118e-02, 9.20012146e-02, 5.59962876e-02,
          3.80788177e-01, 3.80788177e-01, 3.80788177e-01, 9.56138875e-03,
          2.26643860e-01, 1.32203102e-01, 9.20012146e-02, 3.83417122e-02,
          1.64914541e-02, 5.60700893e-03, 8.37356783e-03, 2.89428294e-01,
          2.52430923e-02, 1.42135948e-01, 2.39276081e-01, 4.34499830e-02,
          2.74294671e-02, 3.17210145e-02, 4.29808684e-02, 2.06965636e-02,
          5.24676517e-02, 0., 2.17265990e-02, 2.78137997e-02,
          1.90811586e-02, 9.29523557e-02, 2.65136976e-02, 1.08765610e-01,
          4.19633947e-02, 2.89428294e-01, 5.65391891e-02, 2.89428294e-01,
          2.89428294e-01, 1.89137727e-01, 2.86691934e-01, 2.86949545e-01,
          2.89428294e-01, 9.86548588e-02, 8.15621912e-02, 2.04524468e-03,
          2.89428294e-01, 2.89428294e-01, 2.78711140e-01, 7.74226487e-02,
          1.10174507e-01, 1.30593151e-01, 4.79797609e-02, 2.68569291e-01,
          6.39170557e-02, 2.33097244e-02, 6.17825519e-03, 5.65094389e-02,
          7.39178061e-02, 7.58701190e-02, 8.43635947e-02, 2.04154458e-02,
          2.68569291e-01, 9.94370505e-02, 5.66202328e-02, 1.53763071e-02,
          6.90916851e-02, 2.64400065e-01, 2.19661474e-01, 2.68569291e-01,
          1.80877686e-01, 2.68569291e-01, 1.05932333e-01, 1.78980857e-01,
          1.79337978e-01, 2.04473928e-01, 1.89616516e-01, 7.54300281e-02,
          1.26670837e-01, 7.54785016e-02, 2.68569291e-01, 2.10197434e-01,
          2.68569291e-01, 2.68569291e-01, 1.85823068e-01, 2.22485792e-02,
          0., 0., 0., 1.26852825e-01, 4.19553779e-02, 3.89967561e-02,
          1.09565873e-02, 2.22485792e-02, 2.31801029e-02, 1.05012478e-02,
          1.62510172e-01, 1.40039966e-01, 3.36900383e-01, 1.88137207e-03,
          5.19536920e-02, 3.14795151e-02, 2.31801029e-02, 6.59022257e-02,
          1.22886440e-02, 8.80619045e-03, 8.99188966e-03, 2.51511872e-01,
          2.14133665e-01, 3.36900383e-01, 3.36900383e-01, 1.61417112e-01,
          9.86131430e-02, 2.95008630e-01, 3.36900383e-01, 3.36900383e-01,
          3.36900383e-01, 1.89906880e-02, 3.93035226e-02, 1.53512154e-02,
          7.43336901e-02, 6.79889545e-02, 2.06461549e-02, 6.00545146e-02,
          2.25722510e-02, 1.49592087e-01, 3.21285613e-02, 2.68115371e-01,
          2.68115371e-01, 1.21120535e-01, 1.77489266e-01, 1.86374381e-01,
          2.68115371e-01, 5.40656671e-02, 4.14528921e-02, 1.44999183e-03,
          1.78185940e-01, 2.05313519e-01, 1.67948216e-01, 2.68115371e-01,
          6.89183250e-02, 5.95201999e-02, 1.40824057e-02, 2.51205601e-02,
          2.28539612e-02, 2.33842030e-01, 1.94001243e-01, 2.68115371e-01,
          2.68115371e-01, 2.68115371e-01, 2.68115371e-01, 3.21879052e-02,
          1.52283842e-02, 4.34997538e-03, 1.02786884e-01, 1.27657905e-01,
          2.68115371e-01, 1.90053612e-01, 1.61190271e-01, 2.56777018e-01,
          1.30949378e-01, 2.56777018e-01, 7.15747699e-02, 1.31331027e-01,
          1.29490107e-01, 1.43142089e-01, 1.34532332e-01, 5.15148789e-02,
          8.34114552e-02, 5.77793270e-02, 2.56777018e-01, 1.45727351e-01,
          2.56777018e-01, 2.11687371e-01, 1.28545597e-01, 1.51129887e-01,
          1.88708216e-01, 2.56777018e-01, 1.10200703e-01, 1.15401961e-01,
          7.37606734e-02, 1.88120231e-01, 1.42671332e-01, 1.19082242e-01,
          1.34351879e-01, 5.21641858e-02, 3.07276044e-02, 8.23067278e-02,
          2.18696699e-01, 1.53271034e-01, 2.56777018e-01, 2.56777018e-01,
          1.55900612e-01, 2.56943032e-02, 1.00646587e-02, 5.75376209e-03,
          2.86106742e-03, 6.54492155e-02, 5.91702573e-02, 2.56769836e-01,
          1.25935674e-01, 4.74635474e-02, 3.92536223e-02, 1.10157549e-01,
          2.53497303e-01, 9.03506875e-02, 1.76802099e-01, 5.77812828e-03,
          2.00564656e-02, 6.45333715e-03, 2.70892642e-02, 3.06575626e-01,
          1.04598470e-01, 7.27852732e-02, 7.94813689e-03, 8.40060934e-02,
          9.46611017e-02, 3.06575626e-01, 2.40543991e-01, 3.06575626e-01,
          3.06575626e-01, 3.06575626e-01, 3.06575626e-01, 1.00195900e-01,
          1.13478154e-01, 9.89037473e-03, 1.16683595e-01, 3.17088962e-02,
          3.06575626e-01, 3.04179877e-01, 8.99039581e-02, 7.18055367e-02,
          1.52196856e-02, 2.30104085e-02, 3.07182260e-02, 2.75677770e-01,
          2.29594812e-01, 3.04179877e-01, 3.04179877e-01, 3.04179877e-01,
          3.04179877e-01, 3.98724191e-02, 1.82757713e-02, 6.18441263e-03,
          1.10715672e-01, 1.45060912e-01, 3.04179877e-01, 2.65376925e-01,
          2.24456694e-02, 1.14847738e-02, 0., 2.28559089e-04,
          7.28616957e-04, 3.47464755e-02, 3.76548879e-02, 2.89566875e-01,
          2.50442654e-01, 1.00396931e-01, 6.64354712e-02, 0.,
          1.85349933e-03, 5.62219240e-04, 5.19811991e-04, 1.63738057e-03,
          1.67729855e-01, 1.80869892e-01, 2.35717133e-01, 2.75985569e-01,
          1.42358214e-01, 1.42488182e-01, 9.87726599e-02, 2.38914534e-01,
          1.69683233e-01, 1.42934874e-01, 1.84083596e-01, 6.90655261e-02,
          3.37367356e-02, 1.11494124e-01, 2.75985569e-01, 2.05236539e-01,
          2.75985569e-01, 2.75985569e-01, 2.20780596e-01, 2.51206923e-02,
          3.52045521e-02, 2.42316555e-02, 6.77693356e-03, 4.05462235e-02,
          4.15206440e-02, 1.04057558e-01, 5.70572168e-02, 3.96602675e-02,
          2.17425287e-01, 5.81103703e-03, 9.57864628e-04, 8.71319976e-03,
          1.00388296e-01, 8.47109482e-02, 2.75985569e-01, 2.57043511e-01,
          2.75985569e-01, 2.50209540e-01, 6.80778548e-02, 5.05733192e-02,
          5.02671301e-03, 5.10565788e-02, 5.84259667e-02, 2.72109061e-01,
          1.47596449e-01, 2.52794772e-01, 2.72109061e-01, 2.72109061e-01,
          2.72109061e-01, 6.05147034e-02, 6.24767803e-02, 5.98690985e-03,
          7.02162087e-02, 1.93344243e-02, 2.31614560e-01, 2.72109061e-01,
          7.42712095e-02, 8.00228938e-02, 4.27189254e-04, 1.41384490e-02,
          9.85501055e-03, 1.61161020e-01, 9.36623737e-02, 2.72109061e-01,
          2.72109061e-01, 2.35229567e-01, 2.72109061e-01, 5.72246592e-03,
          4.45495639e-03, 1.95139626e-04, 1.99783817e-02, 7.75331771e-03,
          2.72109061e-01, 4.39480394e-01, 9.02004167e-02, 4.34894338e-02,
          0., 0., 0., 1.17887802e-01, 1.43310681e-01, 4.39480394e-01,
          4.39480394e-01, 3.78099203e-01, 1.88454211e-01, 0.,
          7.53715076e-03, 0., 0., 6.65831752e-03, 4.39480394e-01, 0., 0.,
          0., 0., 0., 0., 0., 0., 0., 0., 0., 0., 0., 0., 0., 0., 0., 0.,
          6.16060905e-02, 6.55529499e-02, 2.62267329e-02, 0.,
          1.08943455e-01, 1.11487180e-01, 2.69842118e-01, 1.53748676e-01,
          1.19815566e-01, 4.10178393e-01, 0., 0., 0., 2.69878864e-01,
          2.31122971e-01, 4.10178393e-01, 4.10178393e-01, 4.10178393e-01,
          1.10204075e-03, 0., 0., 0., 0., 0., 2.61169649e-03,
          2.58326810e-03, 8.72083101e-03, 1.37827024e-01, 0., 0., 0., 0.,
          0., 5.15666716e-02, 4.29441966e-02, 1.70841768e-01,
          3.61811846e-01, 1.41349941e-01, 1.56965047e-01, 0.,
          2.19393615e-02, 1.28551954e-02, 2.73953319e-01, 1.76551342e-01,
          3.61811846e-01, 3.61811846e-01, 3.61811846e-01, 3.61811846e-01,
          2.20748037e-03, 6.06003962e-03, 0., 2.78667491e-02,
          1.25076398e-02, 3.61811846e-01, 1.42475590e-01, 1.07686054e-02,
          1.26259057e-02, 0., 0., 0., 1.34901945e-02, 1.28652966e-02,
          1.42792076e-01, 9.73498970e-02, 1.75105035e-02, 2.30440330e-02,
          0., 0., 0., 3.39962484e-04, 6.15666911e-04, 8.27737004e-02 ]
      - [ 1.95533589e-01, 7.72506446e-02, 2.59561688e-01, 3.51386480e-02,
          4.01071519e-01, 7.71708190e-02, 1.26498044e-01, 0.,
          1.95533589e-01, 8.12154077e-03, 2.33840547e-03, 8.42997711e-03,
          8.73949961e-04, 6.24951310e-02, 5.14472136e-03, 8.43320228e-03,
          0., 8.12154077e-03, 1.39666855e-01, 1.64272636e-01,
          4.01071519e-01, 4.01071519e-01, 4.01071519e-01, 1.08039156e-01,
          1.77097276e-01, 0., 1.39666855e-01, 5.21575771e-02,
          2.91311946e-02, 3.67505327e-02, 9.61344503e-03, 2.46998221e-01,
          7.20261084e-03, 1.18064852e-02, 0., 1.01200026e-02,
          1.30112534e-02, 0., 0., 0., 0., 0., 0., 0., 1.30112534e-02,
          1.37798423e-02, 0., 0., 0., 0., 0., 0., 0., 1.37798423e-02,
          4.34419602e-01, 3.05787504e-01, 0., 0., 4.34419602e-01, 0.,
          2.41515264e-02, 1.30209565e-01, 1.43123701e-01, 4.34419602e-01,
          2.37834692e-01, 0., 0., 4.34419602e-01, 0., 3.10519636e-02,
          1.67412296e-01, 1.51578173e-01, 1.37838512e-03, 0., 0., 0., 0.,
          0., 0., 0., 1.37838512e-03, 1.55390441e-01, 1.40245140e-01, 0.,
          1.26389302e-02, 2.77658761e-01, 0., 0., 0., 1.50166139e-01,
          1.51622314e-02, 0., 0., 0., 1.91329539e-01, 0., 4.62004403e-03,
          2.49083191e-02, 1.51622314e-02, 3.12727064e-01, 4.20735419e-01,
          0., 1.39028192e-01, 5.84550142e-01, 1.58917710e-01,
          2.50544995e-01, 2.68109869e-02, 2.97054112e-01, 6.36886954e-02,
          9.51858833e-02, 4.28398758e-01, 2.69178748e-01, 4.28398758e-01,
          6.00785837e-02, 9.77267548e-02, 0., 6.36886954e-02,
          3.15566882e-02, 1.85702741e-02, 2.11883113e-02, 5.30709280e-03,
          1.67145982e-01, 3.97458253e-03, 6.51511690e-03, 0.,
          5.05837845e-03, 2.27730330e-02, 5.69124334e-03, 1.04342751e-01,
          2.13487417e-01, 4.28398758e-01, 1.35107577e-01, 2.35211536e-01,
          1.38518363e-01, 6.45311847e-02, 5.96262887e-02, 3.27881537e-02,
          2.41481196e-02, 3.06296293e-02, 3.87911975e-01, 0.,
          2.55500823e-02, 2.26419717e-02, 2.78655086e-02, 1.57697469e-01,
          7.04789311e-02, 0., 0., 3.65715623e-01, 3.25845811e-03,
          1.68391168e-02, 2.74390765e-02, 2.79751420e-02, 1.30522788e-01,
          5.48169427e-02, 0., 0., 3.41241002e-01, 4.18944657e-03,
          2.16502938e-02, 3.52788195e-02, 2.96276622e-02, 1.65013552e-01,
          1.05285496e-01, 5.12450412e-02, 7.35327676e-02, 4.34311926e-01,
          9.69633535e-02, 2.66875595e-01, 3.11163515e-02, 9.32504702e-03,
          1.12125769e-01, 6.87142238e-02, 2.32932027e-02, 3.34239826e-02,
          4.34311926e-01, 1.53827474e-01, 3.74144554e-01, 5.63367791e-02,
          9.87588707e-03, 6.75503258e-03, 0., 0., 0., 1.10880569e-01,
          1.42074935e-03, 7.34217325e-03, 1.19639570e-02, 6.75503258e-03,
          1.43008485e-01, 2.02005580e-01, 0., 8.24632049e-02,
          4.74647522e-01, 7.73893073e-02, 1.45629242e-01, 1.55838830e-02,
          1.35483518e-01, 2.25167791e-03, 0., 0., 0., 3.87646616e-01,
          7.40923062e-02, 1.53999165e-01, 3.59086320e-02, 2.25167791e-03,
          1.11430055e-02, 1.83641389e-02, 8.87469351e-02, 4.27351743e-01,
          4.74647522e-01, 6.59215227e-02, 2.03880966e-01, 2.18174402e-02,
          1.04589174e-02, 1.41909849e-02, 0., 2.87481770e-02,
          8.31600055e-02, 2.93148041e-01, 6.30369186e-02, 1.40628472e-01,
          8.81642550e-02, 4.34609987e-02, 3.49517949e-02, 1.85533855e-02,
          2.56461911e-02, 1.85712911e-02, 1.62974700e-01, 0.,
          2.39481889e-02, 2.01556645e-02, 2.35956479e-02, 1.21369340e-01,
          4.60045002e-02, 4.46958616e-02, 4.89702895e-02, 2.93148041e-01,
          1.19585894e-01, 2.93148041e-01, 2.93148041e-01, 2.53899872e-01,
          2.69355685e-01, 2.93148041e-01, 2.93148041e-01, 7.23617077e-02,
          1.16695449e-01, 5.28459027e-02, 2.93148041e-01, 2.31288806e-01,
          2.75312155e-01, 7.25339279e-02, 4.74269390e-02, 4.02319543e-02,
          4.23941314e-02, 3.03282946e-01, 4.35484126e-02, 1.18977912e-01,
          1.51293911e-02, 9.43147205e-03, 4.60941978e-02, 2.78940108e-02,
          1.45080304e-02, 1.83391813e-02, 3.03282946e-01, 7.28261024e-02,
          1.80686831e-01, 3.22442688e-02, 7.49029219e-03, 2.14843363e-01,
          1.62964046e-01, 3.03282946e-01, 1.22227028e-01, 3.03282946e-01,
          7.34306872e-02, 2.31654525e-01, 1.37104705e-01, 2.24206910e-01,
          1.27963841e-01, 2.68768817e-02, 9.21839699e-02, 5.25015369e-02,
          3.03282946e-01, 1.69262186e-01, 3.03282946e-01, 2.69282967e-01,
          1.73210621e-01, 1.83240464e-03, 0., 0., 0., 1.54289663e-01,
          3.67568210e-02, 8.25338140e-02, 2.24378090e-02, 1.83240464e-03,
          4.03475203e-03, 0., 4.86606695e-02, 1.91364899e-01,
          3.47458720e-01, 2.12939736e-02, 7.48631209e-02, 8.01115297e-03,
          4.03475203e-03, 3.21142264e-02, 2.63435487e-03, 4.79455404e-02,
          5.37150763e-02, 2.97269583e-01, 1.39248565e-01, 3.47458720e-01,
          3.47458720e-01, 1.29417330e-01, 9.42196622e-02, 2.22863227e-01,
          3.47458720e-01, 3.47458720e-01, 3.47458720e-01, 5.02743002e-04,
          1.14900107e-02, 5.79765299e-03, 7.14131594e-02, 7.99205452e-02,
          3.50007527e-02, 2.79675033e-02, 2.48219203e-02, 1.92680508e-01,
          6.47203028e-02, 2.58823425e-01, 2.22296849e-01, 1.54318303e-01,
          1.70397878e-01, 2.10955858e-01, 2.58823425e-01, 4.13412116e-02,
          6.08691685e-02, 3.03563140e-02, 1.69745833e-01, 1.34296790e-01,
          1.65819392e-01, 2.48061150e-01, 1.41616479e-01, 1.44971445e-01,
          9.88462660e-03, 6.66626841e-02, 2.40185149e-02, 2.58823425e-01,
          2.33012795e-01, 2.58823425e-01, 2.58823425e-01, 2.58823425e-01,
          2.58823425e-01, 2.28215046e-02, 3.19023021e-02, 2.16830838e-02,
          1.26589492e-01, 1.09358668e-01, 2.42280304e-01, 1.62717879e-01,
          1.29319087e-01, 2.49870136e-01, 8.72587487e-02, 2.49870136e-01,
          5.07655144e-02, 1.62227631e-01, 1.00688227e-01, 1.66205838e-01,
          1.04070477e-01, 1.96882263e-02, 6.98415488e-02, 3.98293436e-02,
          2.49870136e-01, 1.21576749e-01, 2.49870136e-01, 2.06210971e-01,
          1.34063795e-01, 1.68177709e-01, 1.63674489e-01, 2.49870136e-01,
          3.86025086e-02, 1.05719328e-01, 1.07119821e-01, 1.21753223e-01,
          7.74207786e-02, 1.65534854e-01, 2.49870136e-01, 6.79000514e-03,
          5.62451519e-02, 4.37256172e-02, 2.17739373e-01, 2.31611207e-01,
          2.49870136e-01, 2.32337788e-01, 2.49870136e-01, 2.93825418e-02,
          7.55586522e-03, 1.91321690e-02, 1.81622058e-02, 9.32698771e-02,
          3.75640579e-02, 2.37566158e-01, 1.12951957e-01, 5.30670583e-02,
          4.34720553e-02, 9.49284956e-02, 2.33344585e-01, 1.41517058e-01,
          1.87913194e-01, 5.01923532e-05, 3.63862771e-03, 1.67962222e-03,
          3.14501561e-02, 3.12990844e-01, 1.19466521e-01, 9.33862031e-02,
          5.38577102e-02, 2.12086156e-01, 6.78581819e-02, 2.61637747e-01,
          1.63208455e-01, 3.12990844e-01, 3.12990844e-01, 3.12990844e-01,
          3.12990844e-01, 1.14602409e-01, 1.41107500e-01, 5.52115613e-04,
          5.83378505e-03, 3.18080909e-03, 3.12990844e-01, 2.85496950e-01,
          1.85117155e-01, 1.91896871e-01, 9.95358452e-03, 7.78339356e-02,
          2.61050090e-02, 2.85496950e-01, 2.85496950e-01, 2.85496950e-01,
          2.85496950e-01, 2.85496950e-01, 2.85496950e-01, 2.73548979e-02,
          3.91280539e-02, 2.28636265e-02, 1.43574551e-01, 1.28547043e-01,
          2.85496950e-01, 1.91417187e-01, 7.35980421e-02, 1.08723737e-01,
          0., 8.27834883e-04, 6.79904537e-04, 1.45365953e-01,
          1.00115925e-01, 2.04942882e-01, 1.87657773e-01, 1.45957083e-01,
          1.62633285e-01, 0., 1.89201348e-03, 0., 3.99340689e-02,
          2.24176887e-02, 1.22893438e-01, 2.00866073e-01, 1.97030902e-01,
          2.66676366e-01, 4.53229472e-02, 1.26786560e-01, 1.39346018e-01,
          1.53447568e-01, 8.92829821e-02, 1.95038721e-01, 2.66676366e-01,
          6.36454020e-03, 6.70643002e-02, 5.73761463e-02, 2.66676366e-01,
          2.66676366e-01, 2.66676366e-01, 2.66676366e-01, 2.66676366e-01,
          4.46231663e-02, 3.15671712e-02, 2.56803576e-02, 0.,
          3.07212807e-02, 7.62945488e-02, 8.44682232e-02, 3.07832137e-02,
          5.00942804e-02, 2.66676366e-01, 1.73843713e-04, 3.71991796e-03,
          4.26518079e-03, 6.05125502e-02, 1.36286035e-01, 2.66676366e-01,
          2.20902860e-01, 2.66676366e-01, 2.77694911e-01, 7.89150521e-02,
          5.88524528e-02, 3.35162655e-02, 1.27000168e-01, 4.00047190e-02,
          1.53793350e-01, 1.01022422e-01, 2.77694911e-01, 2.77694911e-01,
          2.77694911e-01, 2.77694911e-01, 6.48993850e-02, 7.89142549e-02,
          3.19057843e-04, 3.53893731e-03, 2.09024455e-03, 2.45461926e-01,
          2.77694911e-01, 1.14967123e-01, 3.39790545e-02, 3.01803485e-03,
          1.81536283e-02, 1.36784725e-02, 8.92291144e-02, 8.73644277e-02,
          2.77694911e-01, 2.77694911e-01, 2.77694911e-01, 2.49798462e-01,
          5.75323869e-03, 5.67925209e-03, 1.06352629e-04, 1.78905670e-03,
          3.23995436e-03, 2.77694911e-01, 3.19591850e-01, 2.37067550e-01,
          3.19591850e-01, 0., 0., 0., 3.19591850e-01, 3.17393094e-01,
          3.19591850e-01, 3.19591850e-01, 3.19591850e-01, 3.19591850e-01,
          0., 5.37217502e-03, 0., 1.31597802e-01, 7.35457614e-02,
          3.19591850e-01, 0., 0., 0., 0., 0., 0., 0., 0., 0., 0., 0., 0.,
          0., 0., 0., 0., 0., 0., 1.02496363e-01, 6.29015341e-02,
          3.33146416e-02, 0., 7.01010600e-02, 1.85412392e-01,
          2.51591802e-01, 9.37549844e-02, 1.35779023e-01, 4.13364470e-01,
          0., 0., 0., 1.25839263e-01, 3.21527690e-01, 4.13364470e-01,
          4.13364470e-01, 4.13364470e-01, 2.93386728e-03, 0., 0., 0., 0.,
          2.24025964e-04, 3.93184274e-03, 2.85514444e-03, 9.79015976e-03,
          1.32448986e-01, 0., 0., 0., 0., 4.92857129e-04, 4.05884944e-02,
          4.66024838e-02, 1.62159577e-01, 3.69589329e-01, 2.24493489e-01,
          5.91894090e-02, 0., 1.80946924e-02, 1.91824045e-02,
          1.73786744e-01, 1.72945917e-01, 3.69589329e-01, 3.69589329e-01,
          3.69589329e-01, 3.69589329e-01, 2.14428641e-03, 6.51659165e-03,
          1.54785128e-04, 3.63253523e-03, 6.57846546e-03, 3.69589329e-01,
          1.43483728e-01, 1.79455448e-02, 3.78426607e-03, 0., 0.,
          3.08637646e-05, 1.09032383e-02, 1.43363960e-02, 1.43997356e-01,
          1.03156880e-01, 3.95335220e-02, 8.32538400e-03, 0., 0., 0.,
          3.30230367e-04, 5.98042097e-04, 8.75234380e-02 ]
      - [ 0., 0., 0., 0., 0., 0., 0., 0., 0., 0., 0., 0., 0., 0., 0., 0.,
          0., 0., 0., 0., 0., 0., 0., 0., 0., 0., 0., 5.59329987e-01,
          5.59329987e-01, 5.59329987e-01, 0., 5.84144890e-02,
          4.27427469e-03, 0., 0., 2.28984699e-01, 2.62342300e-03, 0., 0.,
          0., 0., 0., 0., 0., 1.42952160e-03, 1.16494097e-01,
          2.91634593e-02, 1.47533819e-01, 6.61232546e-02, 1.60567760e-01,
          0., 0., 4.63861710e-04, 6.90716356e-02, 1.87111840e-01,
          2.02661484e-01, 2.12312639e-01, 1.26698185e-02, 1.89772651e-01,
          8.49431613e-04, 0., 0., 1.46060154e-01, 3.88285965e-01,
          1.54021963e-01, 3.88285965e-01, 3.19970965e-01, 3.88285965e-01,
          8.48487616e-02, 9.98181403e-02, 3.31329822e-04, 3.88285965e-01,
          1.77706093e-01, 3.71828303e-02, 1.57532424e-01, 1.10055231e-01,
          2.54457325e-01, 0., 0., 1.94163527e-03, 1.35981411e-01,
          7.45695308e-02, 1.05019119e-02, 3.46186422e-02, 6.17800727e-02,
          1.42552316e-01, 0., 0., 1.51016063e-03, 6.81675747e-02,
          2.45502099e-01, 4.61686924e-02, 4.02029395e-01, 3.93618405e-01,
          4.05034542e-01, 6.78873360e-02, 5.89014404e-02, 1.38688239e-03,
          2.23787099e-01, 4.94576432e-02, 1.20266406e-02, 7.33218715e-02,
          1.68469876e-01, 4.05034542e-01, 1.07569611e-02, 3.92676331e-03,
          1.07868644e-03, 7.38219246e-02, 5.33031998e-04, 0., 0., 0., 0.,
          0., 0., 0., 5.33031998e-04, 4.22121473e-02, 9.39715579e-02,
          1.05061866e-01, 7.18911784e-03, 2.39300402e-03, 1.75099660e-04,
          0., 0., 1.66630764e-02, 2.27615144e-02, 1.71488464e-01,
          2.75290161e-01, 5.71524650e-02, 0., 0., 0., 0., 5.86334942e-03,
          3.17403257e-01, 5.45221984e-01, 5.45221984e-01, 3.95555347e-01,
          7.17901159e-03, 5.25298936e-04, 0., 0., 1.08455569e-01,
          7.70557672e-02, 9.93899703e-02, 1.33240849e-01, 1.43548744e-02,
          7.51835778e-02, 3.95626383e-04, 0., 0., 5.83328344e-02,
          2.23913133e-01, 6.74306601e-02, 2.42125541e-01, 1.22546375e-01,
          3.46981794e-01, 3.80107164e-02, 4.34770547e-02, 9.13700787e-05,
          1.64844483e-01, 1.82814598e-01, 3.46981794e-01, 3.46981794e-01,
          1.63770393e-01, 9.60442722e-02, 1.18687912e-03, 0., 0.,
          7.92398527e-02, 1.91967681e-01, 1.66908845e-01, 3.46981794e-01,
          1.49578109e-01, 3.46981794e-01, 8.44728127e-02, 6.08678907e-02,
          0., 1.38616279e-01, 1.33032426e-01, 2.54615210e-02,
          2.34371185e-01, 2.52712607e-01, 3.96936625e-01, 5.68426885e-02,
          4.33982052e-02, 6.46961271e-04, 1.29826039e-01, 2.30502561e-02,
          6.51590759e-03, 4.30167876e-02, 1.08583018e-01, 3.96936625e-01,
          1.31321410e-02, 2.89321342e-03, 5.03192074e-04, 4.02070619e-02,
          5.43935001e-02, 0., 4.27467190e-02, 2.92160153e-01,
          3.96936625e-01, 2.39919350e-01, 6.07574955e-02, 0.,
          4.24636342e-02, 1.79931332e-04, 0., 5.39937988e-03,
          1.44939378e-01, 3.96936625e-01, 1.28164589e-01, 4.05049976e-03,
          0., 1.79931332e-04, 1.18480567e-02, 5.42112440e-02,
          1.05113104e-01, 1.99224893e-02, 0., 0., 0., 0., 1.40360976e-03,
          9.33255628e-02, 3.39898467e-01, 3.41595858e-01, 1.15018897e-01,
          1.85206044e-03, 1.35517999e-04, 0., 0., 2.67219041e-02,
          1.13187768e-01, 1.80964753e-01, 3.41595858e-01, 1.73471734e-01,
          5.99466935e-02, 3.07637645e-04, 5.29016703e-02, 2.58623669e-03,
          6.56479597e-02, 2.83096433e-01, 3.41595858e-01, 3.41595858e-01,
          2.38687828e-01, 6.10580891e-02, 6.89122709e-04, 1.27939969e-01,
          1.29847527e-01, 3.41595858e-01, 1.48518518e-01, 3.20901364e-01,
          3.20901364e-01, 1.30847842e-01, 7.03844205e-02, 9.60410805e-04,
          0., 0., 5.76166995e-02, 1.37604475e-01, 1.29956231e-01,
          3.20901364e-01, 1.12078212e-01, 3.20901364e-01, 6.93422109e-02,
          4.58011366e-02, 0., 9.85090807e-02, 2.18849391e-01,
          2.28610411e-01, 3.20901364e-01, 7.82540962e-02, 6.48672599e-03,
          1.82632852e-04, 6.15173131e-02, 1.96756795e-01, 2.64568269e-01,
          8.44130442e-02, 3.57717052e-02, 1.13775536e-01, 4.23900336e-02,
          3.20901364e-01, 6.59361556e-02, 5.34123704e-02, 7.72884935e-02,
          1.06490701e-01, 3.84399034e-02, 0., 2.39910372e-02,
          2.37598553e-01, 3.74398679e-01, 2.08401188e-01, 4.73446734e-02,
          0., 3.12273037e-02, 1.14785093e-04, 0., 2.66681612e-03,
          1.23225383e-01, 3.74398679e-01, 1.10649303e-01, 3.32718808e-03,
          0., 1.14785093e-04, 6.61498085e-02, 0., 2.87885126e-02,
          1.49685368e-01, 3.74398679e-01, 2.78987527e-01, 1.71533793e-01,
          6.47466555e-02, 1.13049120e-01, 1.86214358e-01, 6.52597770e-02,
          3.48245203e-02, 1.02285244e-01, 3.48703563e-01, 1.47395283e-01,
          1.89606622e-01, 9.62048322e-02, 2.28387251e-01, 7.93389231e-02,
          1.24594219e-01, 2.87892073e-01, 1.17226288e-01, 4.06199396e-02,
          1.96917375e-04, 3.38621065e-02, 2.00329698e-03, 5.08104935e-02,
          1.82811752e-01, 2.80346751e-01, 2.87892073e-01, 1.50267094e-01,
          3.96890566e-02, 4.33218287e-04, 8.35123584e-02, 1.00777201e-01,
          2.44377881e-01, 2.87892073e-01, 1.78901583e-01, 2.87892073e-01,
          1.02434970e-01, 6.57251328e-02, 1.40655291e-04, 3.83809283e-02,
          3.75042558e-02, 2.87892073e-01, 2.87892073e-01, 1.12189122e-01,
          1.82118461e-01, 6.19916618e-02, 3.11682746e-02, 3.09441617e-04,
          7.62058124e-02, 2.38564134e-01, 2.87892073e-01, 1.68739811e-01,
          1.39715612e-01, 2.92200267e-01, 4.70869541e-02, 2.98468745e-03,
          6.98302902e-05, 5.40270619e-02, 1.83686510e-01, 2.19063565e-01,
          8.10649469e-02, 2.78331116e-02, 6.64567575e-02, 2.73048989e-02,
          2.99723595e-01, 4.45213653e-02, 4.74451743e-02, 9.05433968e-02,
          1.01044476e-01, 2.99723595e-01, 4.04761843e-02, 1.15098963e-02,
          8.02523049e-04, 2.13192008e-03, 4.98787849e-05, 1.25069156e-01,
          2.99723595e-01, 2.99723595e-01, 2.99723595e-01, 1.01761006e-01,
          8.05038288e-02, 3.68644148e-02, 2.45877028e-01, 2.63823271e-02,
          1.26498207e-01, 2.99723595e-01, 2.99723595e-01, 5.98688871e-02,
          8.29934794e-03, 2.58721262e-02, 1.00727640e-01, 2.96233416e-01,
          1.83193326e-01, 1.34410635e-01, 5.60056604e-02, 9.44529176e-02,
          1.56292990e-01, 5.72944358e-02, 3.02839037e-02, 6.93029687e-02,
          2.54081994e-01, 9.50587019e-02, 1.53663307e-01, 8.00893754e-02,
          1.90270007e-01, 2.87018895e-01, 9.96906757e-02, 1.02746114e-01,
          7.60718659e-02, 2.96233416e-01, 5.98729104e-02, 1.51910305e-01,
          1.28842235e-01, 2.96233416e-01, 2.96233416e-01, 1.21811964e-01,
          8.90757293e-02, 4.48551886e-02, 2.96233416e-01, 2.23086476e-02,
          1.78503260e-01, 1.00196205e-01, 2.96233416e-01, 2.92657077e-01,
          1.83500201e-01, 2.92657077e-01, 1.00674197e-01, 6.72192127e-02,
          1.21170415e-04, 3.70276310e-02, 4.75421734e-02, 2.92657077e-01,
          2.92657077e-01, 1.18644513e-01, 1.56435028e-01, 5.75237162e-02,
          2.78924033e-02, 2.66574905e-04, 7.28491545e-02, 2.78908223e-01,
          2.92657077e-01, 2.92657077e-01, 4.41025086e-02, 3.45166661e-02,
          2.70403386e-03, 2.23529357e-02, 0., 1.24806492e-02,
          5.39949052e-02, 2.92657077e-01, 2.92657077e-01, 1.00116521e-01,
          8.64971429e-03, 1.22910633e-03, 0., 0., 1.70418750e-02,
          1.77335277e-01, 2.92657077e-01, 2.79551119e-01, 3.40169184e-02,
          4.35461430e-03, 0., 1.60867185e-03, 3.11755794e-05,
          1.00811400e-01, 2.79551119e-01, 2.79551119e-01, 2.79551119e-01,
          7.81103373e-02, 6.87638894e-02, 3.33192311e-02, 1.79380104e-01,
          2.16324646e-02, 1.04070134e-01, 2.79551119e-01, 2.79551119e-01,
          2.79551119e-01, 4.25610468e-02, 1.74682622e-03, 0.,
          6.46434864e-03, 0., 1.78684741e-02, 1.72610030e-01,
          2.79551119e-01, 2.79551119e-01, 7.34440908e-02, 7.02489540e-02,
          5.86647838e-02, 1.88314497e-01, 9.45830122e-02, 5.58097176e-02,
          2.36003384e-01, 2.79551119e-01, 2.44521737e-01, 8.01644325e-02,
          9.75420401e-02, 6.40246570e-02, 2.60284990e-01, 3.92191485e-02,
          1.10849835e-01, 1.00896113e-01, 2.60284990e-01, 2.60284990e-01,
          1.01623170e-01, 8.05553123e-02, 3.47868726e-02, 2.60284990e-01,
          1.23206303e-02, 1.29258856e-01, 7.35960826e-02, 2.60284990e-01,
          2.60284990e-01, 1.49322748e-01, 2.60284990e-01, 1.06490053e-01,
          2.60284990e-01, 9.46368054e-02, 4.76409234e-02, 6.39469326e-02,
          2.60284990e-01, 2.60284990e-01, 9.35641825e-02, 1.68410137e-01,
          4.17669527e-02, 1.42006397e-01, 6.30911998e-03, 3.14380322e-03,
          0., 2.60284990e-01, 4.20585722e-01, 9.12134424e-02,
          4.42887619e-02, 0., 5.07805943e-02, 0., 2.92454679e-02,
          1.44226968e-01, 4.20585722e-01, 4.20585722e-01, 2.72250801e-01,
          1.11226551e-02, 0., 0., 0., 4.60155681e-02, 4.20585722e-01,
          4.20585722e-01, 2.12610886e-03, 0., 0., 0., 0., 0., 0., 0.,
          2.12610886e-03, 1.49865709e-02, 0., 0., 0., 0., 0., 0., 0.,
          1.49865709e-02, 3.43769252e-01, 8.60440359e-02, 3.53813521e-03,
          0., 1.36409998e-02, 0., 2.21887548e-02, 3.24720770e-01,
          3.43769252e-01, 3.43769252e-01, 1.43405870e-01, 1.37028188e-01,
          1.17128573e-01, 3.43769252e-01, 2.06582814e-01, 1.04347199e-01,
          3.43769252e-01, 3.43769252e-01, 2.05894299e-02, 0., 0., 0.,
          7.39863049e-03, 0., 0., 9.95686045e-04, 2.09034812e-02,
          1.08282641e-01, 6.25552386e-02, 6.34277314e-02, 3.21553238e-02,
          1.56442672e-01, 8.48426968e-02, 3.25949304e-02, 1.49352904e-02,
          1.12993419e-01, 3.14121515e-01, 2.49317348e-01, 3.14121515e-01,
          1.76893741e-01, 3.14121515e-01, 1.67784289e-01, 8.36009532e-02,
          1.04991540e-01, 3.14121515e-01, 3.14121515e-01, 1.58039361e-01,
          2.87535906e-01, 6.79025054e-02, 2.09908143e-01, 1.11856190e-02,
          5.57339704e-03, 0., 3.14121515e-01, 1.11937732e-01,
          1.08837105e-01, 1.81715682e-01, 4.05922607e-02, 1.27158239e-01,
          6.89083040e-02, 2.64732447e-02, 6.31320570e-03, 1.13928996e-01,
          5.37617505e-02, 3.12297586e-02, 8.31726938e-02, 1.04070324e-02,
          3.52567397e-02, 4.59388690e-03, 1.76488282e-03, 0.,
          5.37617505e-02 ]
      - [ 0., 0., 0., 0., 0., 0., 0., 0., 0., 0., 0., 0., 0., 0., 0., 0.,
          0., 0., 0., 0., 0., 0., 0., 0., 0., 0., 0., 5.60013592e-01,
          5.60013592e-01, 5.60013592e-01, 0., 3.60656567e-02,
          2.97417101e-02, 0., 0., 2.26664424e-01, 4.04197909e-03, 0., 0.,
          0., 0., 0., 0., 0., 3.03696678e-03, 8.82947743e-02,
          3.90513353e-02, 1.67620450e-01, 4.86622639e-02, 1.34215176e-01,
          7.69060012e-03, 1.25656545e-03, 5.54806972e-03, 4.78838533e-02,
          2.11046129e-01, 2.51955688e-01, 3.62421036e-01, 3.30201387e-02,
          9.06622484e-02, 5.02640801e-03, 0., 0., 7.01481625e-02,
          3.65277350e-01, 3.65277350e-01, 3.65277350e-01, 1.93211108e-01,
          3.65277350e-01, 3.52469683e-02, 1.11967288e-01, 4.71064523e-02,
          3.08990955e-01, 1.72572419e-01, 5.81661090e-02, 2.21928835e-01,
          1.14360072e-01, 2.62777299e-01, 3.99362370e-02, 6.52517285e-03,
          1.49943596e-02, 9.83557850e-02, 7.90340006e-02, 1.62683707e-02,
          4.87489104e-02, 6.82478026e-02, 1.47571743e-01, 3.10615152e-02,
          5.07513341e-03, 6.81561790e-03, 4.79098894e-02, 2.48486236e-01,
          1.30392820e-01, 4.32350308e-01, 2.62058735e-01, 4.32350308e-01,
          6.48779571e-02, 8.59700963e-02, 4.97905686e-02, 1.66118324e-01,
          4.78630476e-02, 1.97888222e-02, 8.73457342e-02, 1.33571595e-01,
          4.32350308e-01, 3.05757374e-02, 9.04571358e-03, 1.14617655e-02,
          4.20058221e-02, 5.27989352e-04, 0., 0., 0., 0., 0., 0., 0.,
          5.27989352e-04, 4.18127999e-02, 9.54686552e-02, 1.01884253e-01,
          7.82612059e-03, 1.47846702e-03, 1.21922453e-03, 0., 0.,
          1.65054370e-02, 2.44695637e-02, 1.67212799e-01, 2.75693089e-01,
          5.70278354e-02, 0., 0., 0., 0., 5.80787938e-03, 3.22094470e-01,
          5.40972412e-01, 5.40972412e-01, 4.05809224e-01, 4.43540094e-03,
          3.65767349e-03, 0., 0., 1.06788866e-01, 8.39140713e-02,
          1.15930945e-01, 1.90232798e-01, 2.27025598e-02, 3.56605798e-02,
          2.35689641e-03, 0., 0., 2.96488442e-02, 2.19164029e-01,
          1.48729011e-01, 3.31211805e-01, 7.90790990e-02, 3.31211805e-01,
          1.57376342e-02, 4.89540547e-02, 1.98600851e-02, 1.15167074e-01,
          1.67506173e-01, 3.31211805e-01, 3.31211805e-01, 1.62907556e-01,
          4.05285656e-02, 7.07068853e-03, 0., 0., 6.03630021e-02,
          1.75397232e-01, 2.44035274e-01, 3.31211805e-01, 1.31370306e-01,
          3.31211805e-01, 4.93845530e-02, 6.81868270e-02, 2.41506994e-02,
          1.06075205e-01, 1.26406550e-01, 6.86414316e-02, 3.00538659e-01,
          1.50028720e-01, 4.23462063e-01, 4.43511754e-02, 5.78814745e-02,
          3.08311228e-02, 9.06805843e-02, 2.06657574e-02, 9.82562173e-03,
          4.65512238e-02, 7.50898868e-02, 4.23462063e-01, 2.05227528e-02,
          5.30025503e-03, 6.34084037e-03, 2.11735871e-02, 5.31462803e-02,
          2.47749891e-02, 1.16618909e-01, 1.80234253e-01, 4.23462063e-01,
          2.01210797e-01, 7.81961530e-02, 2.76958439e-02, 3.95023562e-02,
          2.28988356e-04, 6.46192813e-04, 1.51172169e-02, 8.77314210e-02,
          4.23462063e-01, 1.21664591e-01, 5.21307718e-03, 1.84638961e-03,
          2.28988356e-04, 1.22893266e-02, 5.31760864e-02, 1.05532087e-01,
          1.99564472e-02, 0., 0., 0., 0., 1.39680482e-03, 9.48680863e-02,
          3.37624162e-01, 3.40281099e-01, 1.18284598e-01, 1.14958431e-03,
          9.48009954e-04, 0., 0., 2.64262334e-02, 1.12995215e-01,
          1.79658085e-01, 3.40281099e-01, 1.72813460e-01, 5.96560575e-02,
          3.06146161e-04, 5.26451916e-02, 2.57369783e-03, 6.53296858e-02,
          2.85366267e-01, 3.40281099e-01, 3.40281099e-01, 2.40893811e-01,
          6.06990196e-02, 7.59704271e-04, 1.69300452e-01, 9.01136398e-02,
          3.40281099e-01, 1.48819119e-01, 3.23316097e-01, 3.23316097e-01,
          1.44417971e-01, 3.23807336e-02, 6.38295570e-03, 0., 0.,
          5.00593744e-02, 1.36972338e-01, 2.07163081e-01, 3.23316097e-01,
          1.12603880e-01, 3.23316097e-01, 4.74696234e-02, 5.72044179e-02,
          2.02219859e-02, 8.42453837e-02, 2.25254998e-01, 2.20225617e-01,
          3.23316097e-01, 7.76639357e-02, 4.55568405e-03, 6.70391426e-04,
          9.80085656e-02, 1.29901469e-01, 2.39969015e-01, 9.23550576e-02,
          5.16836606e-02, 1.09486133e-01, 5.42075522e-02, 3.23316097e-01,
          6.38785660e-02, 5.31551540e-02, 6.02093004e-02, 9.78090093e-02,
          3.73346768e-02, 1.75490025e-02, 8.16887245e-02, 1.53573364e-01,
          3.87772232e-01, 1.80608749e-01, 6.13941401e-02, 2.15914212e-02,
          2.90080477e-02, 1.47518847e-04, 3.89305089e-04, 1.07913325e-02,
          7.73266032e-02, 3.87772232e-01, 1.06987938e-01, 4.26095445e-03,
          1.43942796e-03, 1.47518847e-04, 2.93361433e-02, 1.41655225e-02,
          3.77876423e-02, 1.81462094e-01, 3.87772232e-01, 2.82644749e-01,
          1.53295949e-01, 9.57125500e-02, 1.27589375e-01, 1.02183320e-01,
          7.00708032e-02, 6.96557909e-02, 1.04510374e-01, 3.50026041e-01,
          1.51268661e-01, 1.76106587e-01, 1.55500621e-01, 2.48676196e-01,
          8.05365965e-02, 1.25996828e-01, 2.88086385e-01, 1.18843585e-01,
          4.11420912e-02, 1.99448667e-04, 3.42973880e-02, 2.02904828e-03,
          5.14636412e-02, 1.88884437e-01, 2.84819067e-01, 2.88086385e-01,
          1.54144883e-01, 4.01992425e-02, 4.38787130e-04, 1.17682599e-01,
          7.12436214e-02, 2.43703902e-01, 2.88086385e-01, 1.77794173e-01,
          2.88086385e-01, 1.03751726e-01, 6.65700063e-02, 1.42463352e-04,
          4.44082357e-02, 4.68018763e-02, 2.88086385e-01, 2.88086385e-01,
          7.34501928e-02, 1.84306294e-01, 6.27885386e-02, 3.15689296e-02,
          3.13419354e-04, 1.33656815e-01, 2.01319084e-01, 2.88086385e-01,
          1.85076565e-01, 1.40439138e-01, 2.84628361e-01, 4.88480926e-02,
          2.96631968e-03, 6.94005575e-05, 9.08273160e-02, 1.29632697e-01,
          2.11058795e-01, 8.40393454e-02, 4.77932915e-02, 6.30364940e-02,
          3.59440222e-02, 2.84628361e-01, 4.50847596e-02, 4.96287122e-02,
          7.52090067e-02, 1.00097686e-01, 2.84628361e-01, 6.41178265e-02,
          1.91426203e-02, 7.97584304e-04, 2.11880007e-03, 4.95718268e-05,
          1.79897889e-01, 2.84628361e-01, 2.84628361e-01, 2.84628361e-01,
          2.42912918e-01, 6.77377731e-02, 1.67877208e-02, 2.66358674e-01,
          1.20352022e-02, 1.28370687e-01, 2.84628361e-01, 2.84628361e-01,
          2.96359733e-02, 2.59136148e-02, 3.01039051e-02, 1.29058883e-01,
          2.91119307e-01, 1.97367415e-01, 1.26205623e-01, 8.60324427e-02,
          1.12029202e-01, 9.35601592e-02, 6.71064556e-02, 6.21810928e-02,
          7.47297928e-02, 2.46615976e-01, 1.03859030e-01, 1.50980189e-01,
          1.40065134e-01, 2.17940196e-01, 1.97471008e-01, 1.87529817e-01,
          8.99901018e-02, 3.75287123e-02, 2.91119307e-01, 4.92411368e-02,
          1.29514173e-01, 1.86743945e-01, 2.91119307e-01, 2.91119307e-01,
          1.54935330e-01, 1.18376143e-01, 1.18642170e-02, 1.79517597e-01,
          2.38364507e-02, 1.72444582e-01, 2.38193527e-01, 2.91119307e-01,
          2.96536416e-01, 1.79746330e-01, 2.96536416e-01, 1.01181656e-01,
          6.75580427e-02, 1.21781195e-04, 4.46859598e-02, 5.96841425e-02,
          2.96536416e-01, 2.96536416e-01, 6.46509379e-02, 1.57257259e-01,
          5.78136742e-02, 2.80329976e-02, 2.67918600e-04, 1.34833217e-01,
          2.39513114e-01, 2.96536416e-01, 2.96536416e-01, 3.77744772e-02,
          3.44195701e-02, 2.71766400e-03, 2.24656090e-02, 0.,
          2.30039191e-02, 7.09303394e-02, 2.96536416e-01, 2.96536416e-01,
          2.41928920e-02, 8.74051452e-03, 1.23530184e-03, 0., 0.,
          3.62870060e-02, 1.83614343e-01, 2.96536416e-01, 2.67552525e-01,
          5.57621233e-02, 1.19316997e-02, 0., 1.89886603e-03,
          3.08427516e-05, 1.42426610e-01, 2.67552525e-01, 2.67552525e-01,
          2.67552525e-01, 1.90687284e-01, 6.39893264e-02, 1.63501687e-02,
          2.04025701e-01, 6.36347197e-03, 1.04125090e-01, 2.67552525e-01,
          2.67552525e-01, 2.67552525e-01, 6.85282424e-02, 1.24011831e-02,
          0., 9.77638550e-03, 0., 2.26478688e-02, 1.07468605e-01,
          2.67552525e-01, 2.67552525e-01, 1.11458518e-01, 1.25544414e-01,
          3.87106314e-02, 2.67552525e-01, 0., 8.26677606e-02,
          1.98998377e-01, 2.67552525e-01, 1.75202116e-01, 1.44494727e-01,
          9.29067135e-02, 3.17995213e-02, 2.69346774e-01, 2.58459672e-02,
          9.02961791e-02, 1.46165699e-01, 2.69346774e-01, 2.69346774e-01,
          1.23262435e-01, 1.02113932e-01, 8.13012850e-03, 1.39185205e-01,
          1.25843994e-02, 1.23220831e-01, 1.81468382e-01, 2.69346774e-01,
          2.69346774e-01, 1.28599554e-01, 2.69346774e-01, 6.40066490e-02,
          2.69346774e-01, 0., 6.66323528e-02, 8.28304365e-02,
          2.69346774e-01, 2.69346774e-01, 5.30721396e-02, 1.72287092e-01,
          1.65903997e-02, 1.49114415e-01, 0., 4.34445124e-03,
          1.14971753e-02, 2.69346774e-01, 4.32766736e-01, 6.98156878e-02,
          4.14794907e-02, 0., 4.83693741e-02, 0., 5.51108718e-02,
          1.80794135e-01, 4.32766736e-01, 4.32766736e-01, 6.01924546e-02,
          1.07174963e-02, 0., 0., 0., 9.37492698e-02, 4.32766736e-01,
          4.32766736e-01, 2.84308195e-03, 0., 0., 0., 0., 0., 0., 0.,
          2.84308195e-03, 3.19431610e-02, 0., 0., 0., 0., 0., 0., 0.,
          3.19431610e-02, 3.44650865e-01, 1.38480037e-01, 2.52073761e-02,
          0., 2.04186141e-02, 0., 3.21324691e-02, 1.93513080e-01,
          3.44650865e-01, 3.44650865e-01, 2.04977751e-01, 2.51544505e-01,
          7.76870847e-02, 3.44650865e-01, 0., 1.61920488e-01,
          3.44650865e-01, 3.44650865e-01, 2.65816860e-02, 0., 0., 0.,
          9.63741262e-03, 0., 0., 0., 2.65816860e-02, 1.35256425e-01,
          4.52245399e-02, 9.28098932e-02, 2.34465860e-02, 1.81667641e-01,
          0., 9.74342525e-02, 3.25608961e-02, 1.14160582e-01,
          3.30200404e-01, 1.92159802e-01, 3.30200404e-01, 9.78772566e-02,
          3.30200404e-01, 0., 1.09518558e-01, 1.22685947e-01,
          3.30200404e-01, 3.30200404e-01, 7.64269456e-02, 2.76748985e-01,
          2.58616135e-02, 2.26545587e-01, 0., 7.20240269e-03,
          4.98147355e-03, 3.30200404e-01, 1.57061532e-01, 7.97742605e-02,
          1.96241990e-01, 2.54646689e-02, 1.53359517e-01, 0.,
          7.71686137e-02, 2.57884599e-02, 1.24958433e-01, 6.80921376e-02,
          2.43718997e-02, 8.15066472e-02, 5.36550116e-03, 5.38138077e-02,
          0., 5.14457328e-03, 1.71923044e-03, 6.06837310e-02 ]
      - [ 0., 0., 0., 0., 0., 0., 0., 0., 0., 2.29453724e-02, 0., 0., 0.,
          0., 0., 0., 0., 2.29453724e-02, 3.72453511e-01, 5.77093568e-03,
          1.53882205e-02, 0., 0., 0., 0., 0., 3.72453511e-01,
          3.72453511e-01, 3.56523275e-01, 3.72453511e-01, 1.11402728e-01,
          3.72453511e-01, 0., 9.05900151e-02, 1.22066610e-01,
          3.72453511e-01, 3.62879373e-02, 0., 0., 0., 0., 0., 0., 0.,
          3.62879373e-02, 1.29693467e-02, 0., 0., 0., 0., 0., 0., 0.,
          1.29693467e-02, 3.80399674e-01, 2.49220878e-01, 3.80399674e-01,
          1.28371805e-01, 3.80399674e-01, 0., 2.00574234e-01,
          2.70266145e-01, 3.80399674e-01, 1.42662734e-01, 3.54482867e-02,
          1.07715361e-01, 2.96242610e-02, 3.80399674e-01, 0.,
          9.11701024e-02, 1.22848235e-01, 1.42662734e-01, 0., 0., 0., 0.,
          0., 0., 0., 0., 0., 1.75539643e-01, 0., 5.31363152e-02,
          1.22227482e-01, 1.68471977e-01, 9.91535466e-03, 2.73426017e-03,
          4.09983769e-02, 1.32715508e-01, 0., 0., 0., 0., 0., 0., 0., 0.,
          0., 3.53136063e-01, 0., 1.59408942e-01, 4.37764406e-01,
          4.37764406e-01, 4.37764406e-01, 1.19801819e-01, 1.22995131e-01,
          3.80470157e-01, 9.58338231e-02, 9.90677159e-03, 1.85740422e-02,
          0., 0., 0., 0., 0., 8.80919397e-02, 1.40796944e-01,
          5.62654361e-02, 1.68969825e-01, 1.76226310e-02, 1.18951082e-01,
          0., 1.18419388e-02, 1.59565620e-02, 1.34778976e-01,
          3.44806641e-01, 2.78152764e-01, 3.44806641e-01, 1.87662635e-02,
          8.08630139e-02, 0., 0., 1.17797991e-02, 3.44806641e-01,
          3.44806641e-01, 1.89717099e-01, 3.44806641e-01, 2.46716905e-02,
          2.27651209e-01, 2.61194147e-02, 5.93397394e-02, 6.50278106e-02,
          3.44806641e-01, 1.25735134e-01, 7.99783468e-02, 2.44570151e-01,
          4.42995541e-02, 3.30140650e-01, 0., 5.71968742e-02,
          7.70706087e-02, 1.25281289e-01, 3.77405770e-02, 1.05515514e-02,
          3.21404301e-02, 1.02229742e-02, 2.48058006e-01, 0.,
          2.59985812e-02, 3.50320973e-02, 3.77405770e-02, 3.30140650e-01,
          1.27991706e-01, 3.30140650e-01, 6.20193891e-02, 3.30140650e-01,
          1.32775083e-01, 2.98467010e-01, 9.71250013e-02, 3.09636056e-01,
          2.58825868e-02, 1.05193239e-02, 3.22705097e-02, 1.43121677e-02,
          3.30140650e-01, 8.85651633e-02, 1.75328404e-01, 4.36780006e-02,
          2.34039389e-02, 0., 0., 0., 0., 0., 0., 0., 0., 0.,
          1.92503467e-01, 0., 9.10797268e-02, 2.65256256e-01,
          3.99866015e-01, 3.99866015e-01, 9.07483622e-02, 7.67619386e-02,
          2.13764980e-01, 0., 0., 0., 0., 2.20325347e-02, 1.16306618e-02,
          0., 0., 0., 5.03589772e-02, 4.91283019e-04, 7.89515004e-02,
          4.32547443e-02, 3.99866015e-01, 3.99866015e-01, 3.99866015e-01,
          7.92351738e-02, 5.88600077e-02, 2.84988225e-01, 1.73535168e-01,
          2.20363438e-01, 1.50251854e-02, 7.77353197e-02, 0., 0.,
          8.62670224e-03, 2.84988225e-01, 2.84988225e-01, 1.19908124e-01,
          2.50399172e-01, 1.41388988e-02, 1.34216711e-01, 2.33163517e-02,
          4.00073119e-02, 4.45596427e-02, 2.84988225e-01, 2.53906131e-01,
          1.50605813e-01, 2.12550655e-01, 3.33432704e-02, 2.84988225e-01,
          0., 0., 1.20773865e-02, 2.12151408e-01, 2.84988225e-01,
          7.70518407e-02, 9.76066440e-02, 3.25452210e-03, 1.76337823e-01,
          8.72817785e-02, 8.69257152e-02, 6.20259084e-02, 2.84988225e-01,
          2.27295443e-01, 7.06538782e-02, 2.07524374e-01, 3.37012485e-02,
          3.05990726e-01, 1.05876572e-01, 1.95666850e-01, 5.69020882e-02,
          1.77158222e-01, 1.34819727e-02, 5.27160289e-03, 1.62053928e-02,
          7.77721265e-03, 3.05990726e-01, 6.64799362e-02, 1.18516393e-01,
          2.74773780e-02, 1.17240157e-02, 1.82184488e-01, 7.03612948e-03,
          1.40255084e-02, 0., 3.05990726e-01, 3.05990726e-01,
          3.05990726e-01, 1.32440731e-01, 1.17140576e-01, 1.00180553e-02,
          1.41935641e-04, 4.24723927e-04, 0., 3.05990726e-01,
          2.14887500e-01, 3.05990726e-01, 1.59622222e-01, 1.43998750e-02,
          0., 0., 0., 0., 2.51616519e-02, 1.24681471e-02, 4.75722691e-03,
          1.58978172e-03, 0., 3.42727527e-02, 6.61957217e-03,
          9.39926058e-02, 1.56219462e-02, 3.58335823e-01, 3.58335823e-01,
          3.58335823e-01, 5.60650565e-02, 3.42727527e-02, 9.85423476e-03,
          0., 0., 0., 6.95567951e-02, 4.81619015e-02, 3.58335823e-01,
          1.69408947e-01, 3.97869982e-02, 1.95709690e-02, 1.03069745e-01,
          3.58335823e-01, 3.58335823e-01, 3.58335823e-01, 6.32780232e-03,
          1.80963993e-01, 1.91564970e-02, 2.14644745e-02, 2.82853276e-01,
          1.70022279e-01, 2.49990791e-01, 4.04484235e-02, 3.72493654e-01,
          0., 0., 1.46484561e-02, 2.34052196e-01, 3.72493654e-01,
          8.77715722e-02, 1.04559168e-01, 3.96407489e-03, 2.29256913e-01,
          1.09082937e-01, 1.13687880e-01, 7.62941539e-02, 3.42190593e-01,
          1.69897694e-02, 5.21053299e-02, 1.61334410e-01, 5.70404669e-03,
          3.72493654e-01, 2.20497837e-03, 0., 0., 1.37721049e-02,
          2.53683645e-02, 1.57101767e-03, 7.72313215e-03, 1.48263422e-03,
          3.04115266e-01, 2.46550366e-02, 9.35960561e-02, 1.22128893e-02,
          3.26082222e-02, 1.20092534e-01, 2.28411029e-03, 2.34806817e-03,
          7.72203857e-05, 2.95321822e-01, 2.66679317e-01, 2.95321822e-01,
          1.00389294e-01, 7.60195851e-02, 8.47780891e-03, 0., 0.,
          6.00602980e-05, 2.60356396e-01, 1.62073314e-01, 2.95321822e-01,
          1.38150722e-01, 1.33638661e-02, 5.97023778e-02, 5.55623730e-04,
          0., 8.49423814e-04, 2.95321822e-01, 1.23272866e-01,
          2.95321822e-01, 9.34751332e-02, 1.04406022e-01, 1.09898873e-01,
          1.06612698e-03, 0., 4.11310270e-02, 2.95321822e-01,
          1.14806674e-01, 2.95321822e-01, 2.70800114e-01, 1.81833133e-01,
          2.80987169e-03, 2.65550858e-04, 5.30744728e-04, 0.,
          1.93753913e-02, 1.17742037e-02, 1.56824857e-01, 5.74674532e-02,
          1.15272989e-02, 6.30679820e-03, 3.52893025e-02, 1.80184841e-01,
          1.10844851e-01, 1.88582465e-01, 0., 3.15143391e-02,
          3.44435312e-03, 6.85825106e-03, 3.22861284e-01, 9.62415859e-02,
          8.12313631e-02, 8.82310346e-02, 3.18317324e-01, 1.40360519e-02,
          3.22861284e-01, 2.27287024e-01, 3.16653758e-01, 3.22861284e-01,
          3.22861284e-01, 3.22861284e-01, 1.86419442e-01, 1.61017671e-01,
          0., 1.01309959e-02, 5.28620230e-03, 1.62679419e-01,
          2.20475625e-02, 9.10755396e-02, 2.80473232e-01, 6.31079171e-03,
          4.37868804e-01, 4.40579886e-03, 0., 0., 2.20475625e-02,
          2.13100296e-02, 1.77472446e-03, 1.09576210e-02, 1.69454049e-03,
          4.36730355e-01, 2.58269049e-02, 1.43799171e-01, 1.74984969e-02,
          3.47476378e-02, 1.45666242e-01, 1.77835107e-01, 4.37868804e-01,
          0., 4.37868804e-01, 1.32173933e-02, 0., 0., 1.45666242e-01,
          8.75436235e-03, 4.41951631e-03, 2.11306363e-02, 7.94013031e-05,
          1.79593831e-01, 1.71637591e-02, 1.02560386e-01, 9.53548215e-03,
          1.83526576e-02, 5.32559901e-02, 5.10386191e-04, 0.,
          7.23730016e-04, 2.80266315e-01, 9.55900252e-02, 2.80266315e-01,
          8.55592042e-02, 9.56824720e-02, 1.14866093e-01, 1.07432553e-03,
          0., 3.77382711e-02, 2.80266315e-01, 9.39154625e-02,
          2.80266315e-01, 2.44303077e-01, 1.90865844e-01, 5.77543117e-02,
          3.64561594e-04, 0., 2.41243324e-04, 1.58467516e-01,
          8.75943601e-02, 2.80266315e-01, 1.18417226e-01, 1.29086837e-01,
