%YAML:1.0
opencv_ml_svm:
   format: 3
   svmType: C_SVC
   kernel:
      type: RBF
      gamma: 2.9999999999999999e-01
   C: 100.
   term_criteria: { epsilon:1.1920928955078125e-07, iterations:1000 }
   var_count: 576
   class_count: 5
   class_labels: !!opencv-matrix
      rows: 5
      cols: 1
      dt: i
      data: [ 1, 2, 4, 5, 6 ]
   sv_total: 5
   support_vectors:
      - [ 9.36587006e-02, 7.88096115e-02, 1.03159204e-01, 1.16941325e-01,
          2.08872721e-01, 2.13203520e-01, 1.51213437e-01, 7.74701908e-02,
          6.82230443e-02, 1.82655036e-01, 9.60625932e-02, 1.48934111e-01,
          2.24840999e-01, 2.32426673e-01, 2.32426673e-01, 2.32426673e-01,
          2.32426673e-01, 2.32426673e-01, 1.12058468e-01, 6.53067380e-02,
          1.14792369e-01, 1.14076562e-01, 2.32426673e-01, 2.32426673e-01,
          2.32426673e-01, 1.07523754e-01, 1.21013932e-01, 9.88507643e-02,
          5.41609414e-02, 7.78720975e-02, 8.92581791e-02, 1.91059396e-01,
          1.67381972e-01, 2.32426673e-01, 2.32426673e-01, 1.40533671e-01,
          8.22556019e-02, 3.44608612e-02, 6.58198223e-02, 1.27330482e-01,
          1.44368127e-01, 2.37672776e-01, 2.21067756e-01, 2.44776011e-01,
          2.09707633e-01, 7.41561726e-02, 2.55721100e-02, 4.85247560e-02,
          9.40507054e-02, 2.70964503e-01, 2.70964503e-01, 2.70964503e-01,
          2.70964503e-01, 2.70964503e-01, 4.74051908e-02, 1.27103422e-02,
          1.86962169e-02, 3.53196450e-02, 3.79573815e-02, 5.68634197e-02,
          1.21239491e-01, 2.59485632e-01, 1.40758216e-01, 6.48488700e-02,
          1.37756858e-02, 1.82848573e-02, 2.79211849e-02, 3.81122492e-02,
          1.80933505e-01, 2.70964503e-01, 2.70964503e-01, 2.39103287e-01,
          3.54722776e-02, 3.76229696e-02, 3.46371830e-02, 3.83461155e-02,
          1.26302913e-01, 2.63661057e-01, 2.63661057e-01, 2.05313832e-01,
          7.69218951e-02, 4.94517572e-02, 8.33494589e-02, 7.16033056e-02,
          9.63444933e-02, 1.43578812e-01, 2.63661057e-01, 2.63661057e-01,
          2.15008914e-01, 8.22331905e-02, 1.04375616e-01, 1.13677964e-01,
          6.72738999e-02, 5.09865396e-02, 4.82323393e-02, 1.58080369e-01,
          2.63661057e-01, 2.44770288e-01, 1.22374929e-01, 1.53169736e-01,
          2.56587476e-01, 2.21648008e-01, 1.47719294e-01, 7.56495968e-02,
          1.41821489e-01, 2.63661057e-01, 2.63661057e-01, 1.57292023e-01,
          4.50403281e-02, 1.01060390e-01, 9.08259451e-02, 1.67926088e-01,
          2.41846740e-01, 2.55331129e-01, 2.55331129e-01, 2.55331129e-01,
          1.22190855e-01, 3.77442278e-02, 1.48022762e-02, 1.91642586e-02,
          4.27564085e-02, 8.14995095e-02, 1.28903329e-01, 1.73145771e-01,
          1.94459364e-01, 9.14576277e-02, 1.31975517e-01, 2.47324899e-01,
          2.19448328e-01, 1.77706063e-01, 1.28978789e-01, 1.33190483e-01,
          2.55331129e-01, 2.55331129e-01, 2.54838169e-01, 1.38172030e-01,
          7.89243132e-02, 4.19874750e-02, 5.34685962e-02, 9.38097239e-02,
          1.19124651e-01, 1.98842540e-01, 2.55331129e-01, 1.75511643e-01,
          8.00698921e-02, 5.05446494e-02, 6.61960617e-02, 6.27143010e-02,
          8.27186331e-02, 3.13507318e-01, 3.13507318e-01, 2.49084592e-01,
          8.88387933e-02, 2.82134674e-02, 3.12015079e-02, 4.43510860e-02,
          4.62943651e-02, 8.60615149e-02, 3.43006290e-02, 6.77963197e-02,
          7.90632516e-02, 4.06742990e-02, 1.60462990e-01, 1.90743968e-01,
          1.61552683e-01, 1.79328218e-01, 1.76891297e-01, 3.13507318e-01,
          3.13507318e-01, 3.13507318e-01, 1.64121747e-01, 3.34982350e-02,
          4.06208150e-02, 3.53873111e-02, 6.24018945e-02, 1.28762946e-01,
          1.85854241e-01, 2.80568749e-01, 2.45014831e-01, 8.94572064e-02,
          1.41296417e-01, 4.51465733e-02, 5.96762672e-02, 7.17459917e-02,
          2.19406202e-01, 4.91819195e-02, 1.66022137e-01, 2.76179522e-01,
          2.76179522e-01, 2.16576874e-01, 6.03342615e-02, 4.56024259e-02,
          3.82289588e-02, 1.51004151e-01, 1.90712750e-01, 2.76179522e-01,
          2.76179522e-01, 2.76179522e-01, 1.67660505e-01, 7.52021819e-02,
          8.12615305e-02, 1.08123697e-01, 2.36130595e-01, 1.81182519e-01,
          2.76179522e-01, 1.84131920e-01, 2.27842093e-01, 1.33278400e-01,
          3.88888158e-02, 7.21516386e-02, 4.34130654e-02, 1.84433758e-01,
          3.77864316e-02, 9.47755054e-02, 7.52864182e-02, 1.20726734e-01,
          1.91356778e-01, 1.55275270e-01, 8.60738680e-02, 5.29541224e-02,
          1.00424573e-01, 1.52738124e-01, 1.90472677e-01, 2.71198541e-01,
          2.37634450e-01, 2.71198541e-01, 2.71198541e-01, 2.33949840e-01,
          1.24306992e-01, 1.16719194e-01, 1.92524776e-01, 2.71198541e-01,
          2.71198541e-01, 2.71198541e-01, 5.64145744e-02, 2.83731613e-02,
          1.94055606e-02, 9.76085383e-03, 5.83815090e-02, 1.55198313e-02,
          3.00920140e-02, 9.06124637e-02, 6.18738085e-02, 1.19882382e-01,
          3.57686393e-02, 1.20269032e-02, 2.05967855e-02, 7.59502649e-02,
          1.43047571e-01, 2.59531766e-01, 2.71198541e-01, 1.83329135e-01,
          1.70943856e-01, 9.08883065e-02, 7.63881728e-02, 4.85493168e-02,
          2.88168248e-02, 9.70427617e-02, 2.57991344e-01, 2.57991344e-01,
          2.57991344e-01, 2.57991344e-01, 1.58222809e-01, 3.59426551e-02,
          3.31088565e-02, 3.88830677e-02, 7.87517726e-02, 1.84558555e-01,
          2.57991344e-01, 2.57991344e-01, 1.89419240e-01, 3.50459851e-02,
          2.01237090e-02, 2.63812076e-02, 2.77428683e-02, 1.23119168e-01,
          2.57991344e-01, 2.55541205e-01, 2.49601364e-01, 2.57991344e-01,
          1.45122483e-01, 3.45298722e-02, 3.95168066e-02, 1.06592057e-02,
          3.75813060e-02, 1.30903646e-01, 2.21473068e-01, 2.57991344e-01,
          7.34216645e-02, 1.46125585e-01, 1.05978213e-01, 9.67682973e-02,
          1.04139566e-01, 2.63171375e-01, 3.10206085e-01, 3.10206085e-01,
          1.28846809e-01, 2.03680620e-02, 2.58476194e-02, 1.35871023e-02,
          2.28493214e-02, 5.94906732e-02, 1.73121020e-01, 3.10206085e-01,
          3.10206085e-01, 1.09948620e-01, 3.70022207e-02, 7.04867765e-02,
          5.18907718e-02, 2.89315376e-02, 2.57018879e-02, 7.91475177e-02,
          3.10206085e-01, 2.26209328e-01, 1.16727874e-01, 1.93054527e-02,
          2.46659610e-02, 2.56932210e-02, 7.42330961e-03, 1.44013697e-02,
          1.12861432e-01, 3.10206085e-01, 3.10206085e-01, 1.88793406e-01,
          3.07744294e-02, 1.13849686e-02, 1.28327217e-02, 8.24014191e-03,
          2.36110073e-02, 6.37451187e-02, 2.83567786e-01, 2.99694955e-01,
          1.38309598e-01, 3.45254876e-02, 8.53807200e-03, 1.48629723e-02,
          1.32062426e-02, 2.48614457e-02, 1.50542464e-02, 4.53929342e-02,
          9.31061506e-02, 7.55515620e-02, 6.54819906e-02, 4.77689728e-02,
          3.92084531e-02, 2.92516011e-03, 3.22066322e-02, 1.99705794e-01,
          3.36448967e-01, 3.36448967e-01, 3.36448967e-01, 1.07369281e-01,
          5.10617793e-02, 2.83860900e-02, 2.55427714e-02, 4.82927486e-02,
          1.90420419e-01, 3.36448967e-01, 3.36448967e-01, 3.36448967e-01,
          8.89558643e-02, 3.40363048e-02, 4.77645025e-02, 3.40321846e-02,
          7.45478496e-02, 2.11179927e-02, 5.29207736e-02, 8.62229466e-02,
          8.51837024e-02, 8.01351517e-02, 4.09738049e-02, 3.22323218e-02,
          2.07710415e-02, 9.44068581e-02, 1.18190385e-01, 1.60498440e-01,
          1.10347077e-01, 1.42883003e-01, 3.27115208e-01, 1.46609694e-01,
          1.04197323e-01, 6.41774610e-02, 6.64622039e-02, 1.42208248e-01,
          3.27728480e-01, 3.27728480e-01, 3.27728480e-01, 3.27728480e-01,
          1.85233399e-01, 8.35139900e-02, 3.20470780e-02, 3.81174721e-02,
          4.25804444e-02, 1.08560935e-01, 3.27728480e-01, 3.27728480e-01,
          1.68888614e-01, 2.51049623e-02, 1.42663345e-02, 1.34184416e-02,
          3.36908288e-02, 8.66200551e-02, 1.28967836e-01, 1.04314461e-01,
          2.35661983e-01, 3.48584861e-01, 8.67611021e-02, 2.56512463e-02,
          2.34844685e-02, 1.49404230e-02, 2.18095183e-02, 3.95266227e-02,
          9.34135914e-02, 3.48584861e-01, 3.48584861e-01, 2.66965866e-01,
          3.44496593e-02, 2.95255668e-02, 2.47835480e-02, 2.13908497e-02,
          2.85370369e-02, 7.01835304e-02, 2.42904693e-01, 3.48584861e-01,
          3.48584861e-01, 2.01824233e-01, 4.80485037e-02, 4.42839675e-02,
          2.16424372e-02, 2.42424943e-02, 6.01220727e-02, 2.43294969e-01,
          7.69415572e-02, 4.51492742e-02, 5.84776141e-02, 2.50651594e-02,
          1.32707953e-01, 4.82908301e-02, 2.41617590e-01, 2.43671715e-01,
          1.87406853e-01, 7.96545744e-02, 5.81238940e-02, 8.70395526e-02,
          2.17283387e-02, 1.28783166e-01, 2.45742008e-01, 4.33083683e-01,
          4.33083683e-01, 4.33083683e-01, 7.46346191e-02, 8.18518996e-02,
          1.16371982e-01, 1.15537923e-02, 1.27198994e-01, 3.05134989e-03,
          6.11398742e-03, 1.26937563e-02, 6.55778870e-02, 1.22482464e-01,
          8.47524926e-02, 1.09461173e-01, 2.63617020e-02, 1.73201486e-01,
          1.98595878e-02, 5.95295876e-02, 6.89886585e-02, 1.82279944e-01,
          5.80411516e-02, 2.90908981e-02, 2.08658054e-02, 9.40467604e-03,
          5.30617349e-02, 1.32591516e-01, 3.22630078e-01, 3.22630078e-01,
          3.22630078e-01, 1.67283624e-01, 6.27945215e-02, 4.73147221e-02,
          3.34498659e-02, 6.45201653e-02, 1.53879955e-01, 3.22630078e-01,
          3.22630078e-01, 3.22630078e-01, 3.09912115e-02, 1.27858976e-02,
          1.45085705e-02, 1.16947172e-02, 6.84986487e-02, 1.06379911e-02,
          7.19713420e-02, 9.18946192e-02, 1.10043161e-01, 1.02992415e-01,
          2.53398996e-02, 3.22891958e-02, 2.09745839e-02, 7.97495171e-02,
          1.47978328e-02, 1.56435460e-01, 3.22630078e-01, 3.22630078e-01,
          2.44248256e-01, 1.23819262e-01, 6.76264167e-02, 2.51903832e-02,
          2.25903075e-02, 3.69529352e-02, 1.84091479e-01, 3.01310658e-01,
          3.01310658e-01, 3.01310658e-01, 1.63249165e-01, 3.66084799e-02,
          8.40259437e-03, 1.00845397e-02, 1.52123459e-02, 5.93636036e-02,
          2.33558148e-01, 3.01310658e-01, 1.88403949e-01, 8.87204036e-02,
          4.84022945e-02, 1.75016690e-02, 6.23844899e-02, 8.20825994e-03,
          7.21809492e-02, 2.49889836e-01, 3.01310658e-01, 3.01310658e-01,
          1.17143393e-01, 3.36644240e-02, 2.62320917e-02, 9.82224941e-02,
          3.96686681e-02, 4.27775383e-02, 1.13212019e-01, 3.01310658e-01,
          3.31153482e-01, 3.30868423e-01, 1.24320742e-02, 8.97657406e-03,
          1.50475912e-02, 1.84354149e-02, 2.65575536e-02, 6.57042563e-02,
          3.31153482e-01, 3.31153482e-01, 3.31153482e-01, 8.36418644e-02,
          1.36720063e-02, 1.83204282e-02, 1.25916963e-02, 1.83894597e-02,
          3.47197168e-02, 1.19064428e-01, 3.31153482e-01, 1.58311263e-01,
          1.31871374e-02, 3.16142999e-02, 1.28534988e-01, 5.38667776e-02,
          3.59845050e-02, 3.78616117e-02, 2.79759586e-01, 3.14696789e-01,
          2.61822164e-01, 2.59587094e-02, 1.39457397e-02, 6.86574653e-02,
          2.20562741e-02, 3.12712491e-02, 3.88578698e-02, 8.30036476e-02 ]
      - [ 6.23152889e-02, 2.78933793e-02, 2.28094384e-02, 1.53903589e-02,
          7.66334012e-02, 1.68736875e-01, 3.17489743e-01, 1.13461524e-01,
          7.55280256e-02, 5.20505868e-02, 6.37397543e-02, 4.53490727e-02,
          1.62280370e-02, 4.59842905e-02, 1.57586485e-02, 2.98032239e-02,
          3.20256539e-02, 5.29727414e-02, 1.22379631e-01, 4.08705473e-02,
          1.55882677e-02, 2.65632216e-02, 1.51986495e-01, 4.21184868e-01,
          4.21184868e-01, 4.21184868e-01, 2.15092093e-01, 7.99831823e-02,
          6.78553656e-02, 4.81892638e-02, 3.15263122e-02, 8.28755945e-02,
          1.55244380e-01, 2.55557925e-01, 2.66089410e-01, 1.41160101e-01,
          1.39169097e-01, 1.45429194e-01, 1.28739119e-01, 5.93116395e-02,
          1.58719763e-01, 8.48649442e-02, 1.00088835e-01, 1.21447168e-01,
          1.55617535e-01, 8.53695497e-02, 4.49130684e-02, 6.07237108e-02,
          8.40346888e-02, 2.70495832e-01, 2.70495832e-01, 2.70495832e-01,
          2.70495832e-01, 2.70495832e-01, 1.55563429e-01, 1.89965442e-01,
          1.61691651e-01, 7.79232234e-02, 2.15195909e-01, 1.81122690e-01,
          2.13413343e-01, 1.38070866e-01, 1.55284584e-01, 8.95083472e-02,
          4.78303432e-02, 5.81140071e-02, 2.86218785e-02, 2.53989190e-01,
          1.95338383e-01, 1.92251846e-01, 1.71449512e-01, 1.59862980e-01,
          1.14010118e-01, 3.26963924e-02, 1.61071699e-02, 6.53666258e-02,
          1.90782011e-01, 1.92585245e-01, 2.89358437e-01, 2.89358437e-01,
          2.89358437e-01, 2.89358437e-01, 1.27354264e-01, 1.47491954e-02,
          5.86613752e-02, 1.24706566e-01, 9.96812880e-02, 2.62796998e-01,
          2.89358437e-01, 2.89358437e-01, 7.71642849e-02, 1.76707320e-02,
          1.03624072e-02, 8.66041984e-03, 7.67617226e-02, 5.34921251e-02,
          7.67894760e-02, 1.53660193e-01, 2.19967872e-01, 2.89358437e-01,
          4.89736684e-02, 1.04113510e-02, 1.28958737e-02, 4.89583947e-02,
          3.18947658e-02, 3.80919985e-02, 1.41889140e-01, 2.89358437e-01,
          2.38577113e-01, 7.18854368e-02, 2.61047445e-02, 2.76840311e-02,
          6.70959726e-02, 1.06050037e-01, 1.54797405e-01, 2.38577113e-01,
          2.38577113e-01, 1.54560477e-01, 1.01021647e-01, 1.37063444e-01,
          1.16172642e-01, 1.82759106e-01, 2.38577113e-01, 2.21221402e-01,
          2.38577113e-01, 1.78196520e-01, 2.14273050e-01, 8.52377936e-02,
          2.25698464e-02, 7.59801595e-03, 3.93721424e-02, 7.20092952e-02,
          6.56679198e-02, 8.95512179e-02, 1.92318603e-01, 2.38577113e-01,
          2.38577113e-01, 2.18532860e-01, 6.32048622e-02, 1.21373519e-01,
          2.38577113e-01, 2.38577113e-01, 2.38577113e-01, 1.59205183e-01,
          4.45941463e-02, 3.78728025e-02, 2.20289826e-02, 2.95149460e-02,
          1.55604899e-01, 2.74289012e-01, 2.74289012e-01, 2.40090430e-01,
          9.75059867e-02, 3.60768922e-02, 2.00167820e-02, 1.65258721e-02,
          2.03590915e-02, 4.34056520e-02, 1.38860002e-01, 2.42945015e-01,
          2.40452737e-01, 1.03145897e-01, 1.18993446e-01, 1.32326007e-01,
          1.01529382e-01, 6.09023049e-02, 2.72511840e-01, 2.74289012e-01,
          2.74289012e-01, 2.56887734e-01, 2.11352333e-01, 6.19699769e-02,
          4.25104983e-02, 3.63542177e-02, 3.77802923e-02, 5.65133430e-02,
          1.06804051e-01, 2.74289012e-01, 2.74289012e-01, 2.12288171e-01,
          5.38899265e-02, 2.51591094e-02, 2.39473451e-02, 1.87130887e-02,
          4.22973447e-02, 6.69331253e-02, 1.53216153e-01, 2.58198321e-01,
          1.90611020e-01, 6.70241937e-02, 2.01911982e-02, 1.15694357e-02,
          6.24948228e-03, 3.03566083e-02, 1.51188793e-02, 3.92110683e-02,
          1.12898283e-01, 1.35479078e-01, 2.75938690e-01, 8.91166106e-02,
          3.77124995e-02, 3.79098989e-02, 1.64843947e-02, 5.47775365e-02,
          2.48607680e-01, 3.62489194e-01, 3.62489194e-01, 3.62489194e-01,
          8.23564157e-02, 9.61245596e-03, 6.20727753e-03, 1.66261867e-02,
          7.82999769e-03, 6.36295900e-02, 3.62489194e-01, 3.62489194e-01,
          1.29150331e-01, 3.57683338e-02, 9.45887621e-03, 5.18706860e-03,
          2.79927887e-02, 7.60921976e-03, 2.05861218e-02, 5.11069670e-02,
          9.78584066e-02, 2.67259926e-01, 1.85631052e-01, 4.14950550e-02,
          1.81204807e-02, 2.97959689e-02, 1.48372445e-03, 9.57078207e-03,
          3.33023034e-02, 1.31527364e-01, 4.12273884e-01, 1.21692903e-01,
          1.32567240e-02, 5.52053424e-03, 1.86315235e-02, 2.17622370e-02,
          2.46243309e-02, 1.22868158e-01, 4.12273884e-01, 4.12273884e-01,
          4.12273884e-01, 8.63993019e-02, 2.09581275e-02, 1.89111345e-02,
          2.71410458e-02, 3.00167222e-02, 7.08049312e-02, 3.32708120e-01,
          2.04444110e-01, 3.35131437e-01, 1.68234870e-01, 1.73939914e-02,
          2.23220568e-02, 8.55478179e-03, 1.02858506e-02, 7.90146366e-03,
          6.39040098e-02, 2.21875101e-01, 3.35131437e-01, 3.35131437e-01,
          2.12827791e-02, 2.74130516e-02, 6.00917675e-02, 9.91735905e-02,
          1.05101600e-01, 5.88161573e-02, 3.35131437e-01, 3.35131437e-01,
          2.43661925e-01, 1.88909750e-02, 1.72868054e-02, 6.29879255e-03,
          1.18457340e-02, 1.44238044e-02, 6.70780763e-02, 1.21669091e-01,
          3.35131437e-01, 2.95684546e-01, 1.21506657e-02, 3.01568490e-02,
          1.06444685e-02, 1.58656966e-02, 1.17749199e-02, 2.13003997e-02,
          2.96729237e-01, 2.96729237e-01, 2.60706335e-01, 1.17337011e-01,
          2.96729237e-01, 1.92897096e-01, 2.55837202e-01, 2.96729237e-01,
          2.96729237e-01, 1.75788730e-01, 1.10025436e-01, 8.23139697e-02,
          8.40134472e-02, 1.46700516e-01, 9.22195762e-02, 2.96729237e-01,
          2.96729237e-01, 2.96729237e-01, 4.48005684e-02, 1.45443417e-02,
          2.27330383e-02, 7.82887638e-03, 4.80532311e-02, 1.85018871e-02,
          2.97196060e-02, 1.89821813e-02, 4.48703319e-02, 3.98611948e-02,
          8.55218247e-03, 1.02803698e-02, 9.74022504e-03, 8.13118219e-02,
          1.36679122e-02, 1.95884611e-02, 1.77331865e-02, 5.76223135e-02,
          3.72410744e-01, 1.08861506e-01, 3.51111889e-02, 3.86708006e-02,
          5.08858003e-02, 2.54287999e-02, 1.41866714e-01, 4.11593169e-01,
          4.11593169e-01, 4.11593169e-01, 9.73379984e-02, 2.25795303e-02,
          1.18049532e-02, 4.27600034e-02, 1.31668542e-02, 4.93100956e-02,
          3.02044630e-01, 4.11593169e-01, 3.15749198e-02, 7.73241976e-03,
          8.55993386e-03, 1.22819301e-02, 8.29385072e-02, 1.81832798e-02,
          2.62623932e-02, 1.95890665e-02, 5.92197180e-02, 4.12416980e-02,
          2.79990509e-02, 3.48602012e-02, 2.50590909e-02, 9.72297415e-02,
          3.61062028e-02, 3.42670940e-02, 2.35332791e-02, 7.71330819e-02,
          4.19936180e-01, 9.21494514e-02, 2.60523725e-02, 1.79339200e-02,
          5.63641712e-02, 8.57541263e-02, 4.77881134e-02, 1.03827305e-01,
          4.19936180e-01, 4.19936180e-01, 3.49471033e-01, 6.97427541e-02,
          2.80845035e-02, 7.24644139e-02, 1.39030904e-01, 1.17099069e-01,
          6.35594651e-02, 3.57268989e-01, 3.30523141e-02, 2.12533977e-02,
          3.85574512e-02, 3.81429344e-02, 1.23708747e-01, 7.69594014e-02,
          5.00510260e-02, 1.53733976e-02, 5.85895330e-02, 1.80137549e-02,
          6.53310772e-03, 2.42809244e-02, 4.62441742e-02, 2.37552404e-01,
          1.70554340e-01, 1.16334356e-01, 2.42860708e-02, 3.60237211e-02,
          3.49718690e-01, 3.49718690e-01, 2.80388564e-01, 3.53277214e-02,
          9.79305804e-02, 1.06054656e-01, 1.76614657e-01, 1.03925481e-01,
          2.37454802e-01, 1.72520310e-01, 3.15959036e-01, 1.96607485e-01,
          1.67462733e-02, 1.00229681e-01, 7.92994350e-02, 1.66467369e-01,
          1.31740466e-01, 9.34299007e-02, 7.32898116e-02, 1.80641618e-02,
          2.92553678e-02, 4.03644964e-02, 2.64048517e-01, 2.11063504e-01,
          1.93850175e-01, 1.17366880e-01, 1.21669859e-01, 1.35784850e-01,
          1.30966725e-02, 1.14816260e-02, 2.54693301e-03, 5.76698333e-02,
          1.22179769e-01, 1.54214069e-01, 1.74013361e-01, 1.85705304e-01,
          1.81625068e-01, 7.66065568e-02, 8.02248493e-02, 3.21536362e-02,
          2.31093749e-01, 6.84845895e-02, 1.50739357e-01, 7.23149627e-02,
          1.68283224e-01, 2.67542064e-01, 7.05711097e-02, 5.04159667e-02,
          2.29635257e-02, 2.97773212e-01, 1.08510472e-01, 1.57099843e-01,
          6.00998662e-02, 2.42132932e-01, 2.97773212e-01, 5.37617058e-02,
          4.45144027e-02, 1.98902283e-02, 2.00965896e-01, 4.34831791e-02,
          5.31022251e-02, 4.75802794e-02, 2.97773212e-01, 2.97773212e-01,
          1.01813078e-01, 5.81187867e-02, 4.00385149e-02, 2.97773212e-01,
          1.55361474e-01, 1.68851629e-01, 7.32944533e-02, 2.97773212e-01,
          1.08950868e-01, 2.86866371e-02, 4.12041545e-02, 2.51842737e-02,
          3.82230252e-01, 1.46525472e-01, 1.41629279e-01, 4.68731374e-02,
          1.09095894e-01, 2.56644487e-02, 6.16687164e-02, 1.14124417e-01,
          6.97504058e-02, 3.82230252e-01, 2.63858736e-01, 2.08234191e-01,
          9.63425413e-02, 5.37081845e-02, 2.13257998e-01, 7.74223655e-02,
          5.52649535e-02, 3.08475010e-02, 3.82230252e-01, 1.34540752e-01,
          1.35513321e-01, 3.27294432e-02, 1.90833360e-01, 6.01287298e-02,
          7.65254572e-02, 7.22602680e-02, 2.54062545e-02, 3.82230252e-01,
          1.32618278e-01, 1.53561950e-01, 6.03714995e-02, 6.35862201e-02,
          1.20284576e-02, 2.24096682e-02, 4.85095978e-02, 4.44569103e-02,
          3.67889166e-01, 1.19553007e-01, 1.00674324e-01, 4.40134257e-02,
          2.02418379e-02, 1.39315594e-02, 2.07415875e-02, 4.22803573e-02,
          1.05472483e-01, 3.67889166e-01, 3.67889166e-01, 1.72631904e-01,
          5.01376502e-02, 2.11265422e-02, 1.43013960e-02, 1.90488733e-02,
          3.58997546e-02, 3.02335862e-02, 3.67889166e-01, 1.33787706e-01,
          1.01818107e-01, 6.25019446e-02, 2.71034390e-02, 9.60684102e-03,
          3.15916687e-02, 8.15805197e-02, 1.71506613e-01, 3.67889166e-01,
          3.67889166e-01, 1.73898265e-01, 5.36525920e-02, 1.62199643e-02,
          8.55957195e-02, 4.21229266e-02, 5.41854165e-02, 8.71253833e-02,
          2.80196100e-01, 2.80196100e-01, 1.57376260e-01, 9.00427923e-02,
          9.75397676e-02, 1.67092621e-01, 5.85793704e-02, 4.37949076e-02,
          2.08101682e-02, 9.74747688e-02, 1.19139165e-01, 1.38614401e-01,
          2.04982921e-01, 2.29051769e-01, 8.39873180e-02, 7.50216991e-02,
          8.30645561e-02, 1.72695994e-01, 2.80196100e-01, 2.64032036e-01,
          1.56443521e-01, 4.40147631e-02, 6.67899624e-02, 2.64057755e-01,
          2.67279655e-01, 7.11746141e-02, 4.56735082e-02, 2.80196100e-01,
          9.88724008e-02, 1.63110584e-01, 1.93632543e-01, 2.79045701e-01 ]
      - [ 6.74168840e-02, 2.54678149e-02, 5.41841686e-02, 4.48920652e-02,
          1.02128357e-01, 1.74116313e-01, 3.06701034e-01, 1.07465327e-01,
          7.29766637e-02, 6.04267269e-02, 3.87147292e-02, 4.01223712e-02,
          2.37323213e-02, 7.15864152e-02, 3.49329598e-02, 5.11582121e-02,
          4.76339683e-02, 6.90872595e-02, 1.14376873e-01, 4.09507453e-02,
          2.84372512e-02, 1.65359136e-02, 1.61737666e-01, 4.71545190e-01,
          4.71545190e-01, 4.02500421e-01, 1.42072320e-01, 9.72376615e-02,
          6.08418621e-02, 5.05032055e-02, 3.09199262e-02, 5.91089576e-02,
          1.01968154e-01, 2.34147444e-01, 2.03466088e-01, 1.20216139e-01,
          1.55575678e-01, 5.66104017e-02, 7.54791871e-02, 7.78691918e-02,
          1.94775656e-01, 9.96473730e-02, 1.48522750e-01, 1.25475079e-01,
          1.70941740e-01, 2.49526218e-01, 9.95820165e-02, 2.50464350e-01,
          1.11339562e-01, 2.82112569e-01, 2.82112569e-01, 2.82112569e-01,
          2.82112569e-01, 2.82112569e-01, 1.82012171e-01, 1.01748265e-01,
          1.31387085e-01, 7.80322999e-02, 1.33018598e-01, 7.20546544e-02,
          1.28220335e-01, 1.32764488e-01, 1.33918509e-01, 1.23333156e-01,
          5.95048331e-02, 8.68490487e-02, 5.61703295e-02, 2.22000048e-01,
          7.37135857e-02, 1.31271720e-01, 1.54592082e-01, 1.75659299e-01,
          1.26627028e-01, 7.34890997e-02, 9.19094235e-02, 6.49501979e-02,
          1.23950668e-01, 1.75702512e-01, 2.68954813e-01, 2.68954813e-01,
          2.68954813e-01, 2.68954813e-01, 1.96388498e-01, 2.81330422e-02,
          1.01725720e-01, 1.19843766e-01, 1.38837308e-01, 2.68954813e-01,
          2.68954813e-01, 2.68954813e-01, 5.94232492e-02, 2.50284988e-02,
          8.17595702e-03, 1.86830144e-02, 9.32101160e-02, 9.48896930e-02,
          1.55663058e-01, 1.32038906e-01, 1.59678981e-01, 2.68954813e-01,
          1.26440898e-01, 1.72184557e-02, 5.54503575e-02, 7.78326467e-02,
          8.29697773e-02, 1.80013195e-01, 1.68719530e-01, 2.68954813e-01,
          2.34869480e-01, 2.11502269e-01, 1.78983305e-02, 4.86356467e-02,
          3.33507322e-02, 3.40022668e-02, 1.46141037e-01, 2.08560228e-01,
          2.34869480e-01, 2.34869480e-01, 1.79789543e-01, 4.36124541e-02,
          1.09541930e-01, 5.44693135e-02, 1.43590122e-01, 1.92516163e-01,
          2.34869480e-01, 2.34869480e-01, 2.34869480e-01, 1.20291002e-01,
          2.23099627e-02, 3.12661268e-02, 2.48214174e-02, 1.47177521e-02,
          6.93248957e-02, 1.18298516e-01, 2.34869480e-01, 2.34869480e-01,
          2.34869480e-01, 1.79275602e-01, 3.85144576e-02, 7.93379769e-02,
          2.34869480e-01, 2.34869480e-01, 2.21340954e-01, 2.12012023e-01,
          4.37791534e-02, 3.62254083e-02, 2.27855574e-02, 1.75607018e-02,
          1.37251407e-01, 2.86977589e-01, 2.86977589e-01, 1.92618430e-01,
          8.11930150e-02, 5.86396940e-02, 3.98411229e-02, 2.05375068e-02,
          9.77041293e-03, 5.38849086e-02, 8.62476155e-02, 2.07436472e-01,
          1.92800030e-01, 9.70134363e-02, 1.40708014e-01, 1.25441104e-01,
          1.18839882e-01, 5.83817512e-02, 2.61646569e-01, 2.86977589e-01,
          2.86977589e-01, 2.65660226e-01, 2.30280548e-01, 7.52750933e-02,
          7.23252520e-02, 3.30559835e-02, 2.02001128e-02, 1.18921123e-01,
          1.12868436e-01, 2.86977589e-01, 2.86977589e-01, 2.15637490e-01,
          7.88397640e-02, 4.56444547e-02, 4.17303853e-02, 1.93348601e-02,
          7.10691437e-02, 1.07288785e-01, 1.62928283e-01, 1.80360377e-01,
          1.40347198e-01, 4.97402996e-02, 2.68317349e-02, 3.09974886e-02,
          1.41044920e-02, 6.26016632e-02, 2.76861880e-02, 5.21539263e-02,
          6.07134104e-02, 7.78977945e-02, 1.99517012e-01, 1.07885122e-01,
          4.25471552e-02, 3.58821861e-02, 1.52858049e-01, 2.07959086e-01,
          3.40738028e-01, 3.40738028e-01, 3.40738028e-01, 3.40738028e-01,
          1.46798342e-01, 5.36356978e-02, 3.38487960e-02, 6.11927398e-02,
          6.08125851e-02, 1.36187673e-01, 3.40738028e-01, 3.40738028e-01,
          4.84556295e-02, 2.99723707e-02, 1.47806508e-02, 6.84018107e-03,
          4.81270812e-02, 1.71849634e-02, 3.30707468e-02, 4.76748720e-02,
          6.70956895e-02, 1.90841138e-01, 1.05105802e-01, 2.12459434e-02,
          9.58930794e-03, 2.06872579e-02, 9.49657429e-03, 2.67006736e-02,
          5.03521822e-02, 2.11439952e-01, 3.92404169e-01, 2.21021652e-01,
          6.36046752e-02, 1.05552357e-02, 3.46688516e-02, 1.38002941e-02,
          4.16559540e-02, 2.58053184e-01, 3.92404169e-01, 3.92404169e-01,
          3.92404169e-01, 7.53331259e-02, 6.86076749e-03, 1.47696892e-02,
          1.41578401e-02, 1.85166690e-02, 5.90520576e-02, 3.70112002e-01,
          1.89208046e-01, 2.14784235e-01, 1.38867840e-01, 1.16643524e-02,
          6.17410522e-03, 1.48882216e-03, 8.78511835e-03, 1.80844069e-02,
          1.05484284e-01, 1.61165893e-01, 3.50042552e-01, 3.50042552e-01,
          3.43644693e-02, 2.85359807e-02, 8.30037370e-02, 9.11021307e-02,
          2.51073632e-02, 6.19553402e-02, 3.50042552e-01, 3.50042552e-01,
          2.38989115e-01, 1.35061173e-02, 7.31259119e-03, 7.92371389e-03,
          9.79870930e-03, 1.86990239e-02, 8.24918300e-02, 1.83477893e-01,
          3.50042552e-01, 3.50042552e-01, 3.55822705e-02, 2.20843256e-02,
          1.14593636e-02, 1.30238794e-02, 8.29387736e-03, 1.78802982e-02,
          3.00460905e-01, 2.44533569e-01, 2.29201168e-01, 1.06509298e-01,
          3.00460905e-01, 2.26936802e-01, 2.40414575e-01, 3.00460905e-01,
          3.00460905e-01, 1.20166704e-01, 9.25986543e-02, 3.73082310e-02,
          3.50536183e-02, 2.19270825e-01, 1.48948416e-01, 3.00460905e-01,
          3.00460905e-01, 3.00460905e-01, 3.57559063e-02, 1.43080633e-02,
          1.75774600e-02, 1.20862238e-02, 7.04938024e-02, 1.24822436e-02,
          1.62538532e-02, 1.51506364e-02, 3.28501500e-02, 4.18135300e-02,
          7.71236373e-03, 6.33183215e-03, 6.32390846e-03, 1.16186522e-01,
          2.34628376e-02, 3.26461792e-02, 6.15146831e-02, 8.22337866e-02,
          1.77562132e-01, 1.02576412e-01, 3.48575227e-02, 2.81075481e-02,
          1.04664817e-01, 9.94098634e-02, 3.51427972e-01, 3.52020770e-01,
          3.52020770e-01, 3.52020770e-01, 2.46904552e-01, 6.07766397e-02,
          3.50132994e-02, 5.87185472e-02, 4.37045470e-02, 1.09100886e-01,
          3.52020770e-01, 3.52020770e-01, 4.31367420e-02, 2.01057438e-02,
          1.17846634e-02, 8.49918835e-03, 9.24258381e-02, 1.53954038e-02,
          3.55163366e-02, 8.71699378e-02, 1.34219214e-01, 1.07733458e-01,
          6.13562688e-02, 1.91080105e-02, 1.35448072e-02, 7.58392215e-02,
          1.39152762e-02, 3.46110649e-02, 6.67401552e-02, 1.99262783e-01,
          3.89230698e-01, 2.18579948e-01, 4.70352843e-02, 9.24827252e-03,
          3.35495770e-02, 3.43572833e-02, 3.93363722e-02, 2.24156529e-01,
          3.89230698e-01, 3.89230698e-01, 3.89230698e-01, 4.58241627e-02,
          7.48987775e-03, 4.00843211e-02, 9.35059860e-02, 5.60088530e-02,
          4.91792448e-02, 3.57016802e-01, 1.40163466e-01, 3.25780660e-02,
          1.50247449e-02, 1.42945694e-02, 9.24378335e-02, 5.51811792e-02,
          3.27139720e-02, 2.71324404e-02, 1.66756675e-01, 1.14807665e-01,
          2.87623107e-02, 1.26683991e-02, 2.47571282e-02, 1.44636169e-01,
          1.75912291e-01, 8.25832859e-02, 1.94725730e-02, 6.50040954e-02,
          4.10476029e-01, 4.10476029e-01, 2.02215195e-01, 2.05346718e-02,
          7.26572201e-02, 1.41548082e-01, 9.57293957e-02, 5.57894669e-02,
          1.57112241e-01, 2.87837237e-01, 4.10476029e-01, 3.06657553e-01,
          2.33676545e-02, 7.55840838e-02, 7.45833442e-02, 7.76276588e-02,
          6.61316290e-02, 8.18903297e-02, 8.92643705e-02, 4.18833867e-02,
          1.71011481e-02, 3.07899024e-02, 1.60749927e-01, 2.43251294e-01,
          1.36316717e-01, 5.23498096e-02, 5.41061983e-02, 8.68621245e-02,
          2.94035412e-02, 3.69407348e-02, 6.57993043e-03, 5.85054979e-02,
          9.53998119e-02, 1.03651419e-01, 1.23804867e-01, 1.11290187e-01,
          1.71105281e-01, 6.79615512e-02, 1.05208628e-01, 8.94512329e-03,
          2.17175648e-01, 1.20799150e-02, 1.02143154e-01, 7.35551268e-02,
          1.69456929e-01, 2.54615247e-01, 4.71729077e-02, 6.85618743e-02,
          3.61652635e-02, 2.77752489e-01, 4.79730107e-02, 7.74021670e-02,
          6.77819997e-02, 2.48407111e-01, 2.77752489e-01, 1.18121289e-01,
          1.86719969e-01, 6.46751076e-02, 2.05429778e-01, 2.85997745e-02,
          1.17432706e-01, 9.78442580e-02, 2.77752489e-01, 2.77752489e-01,
          1.47278294e-01, 2.16426805e-01, 7.78818056e-02, 2.77752489e-01,
          5.51403947e-02, 1.49065405e-01, 1.74738646e-01, 2.77752489e-01,
          1.00156389e-01, 2.69620158e-02, 7.33257830e-02, 6.18993416e-02,
          4.22522157e-01, 4.02133800e-02, 8.61030221e-02, 4.89290580e-02,
          9.98042226e-02, 4.51367833e-02, 4.49263416e-02, 1.05364665e-01,
          9.34697166e-02, 4.22522157e-01, 4.75442819e-02, 1.47482261e-01,
          8.42945576e-02, 4.92409095e-02, 1.65763915e-01, 7.07878247e-02,
          1.61808953e-01, 4.60310392e-02, 4.22522157e-01, 4.55244854e-02,
          1.28246590e-01, 8.78817588e-02, 1.65863186e-01, 7.31265694e-02,
          8.56975690e-02, 1.46057144e-01, 4.61463369e-02, 4.22522157e-01,
          4.37513404e-02, 1.38456151e-01, 8.13887790e-02, 6.69786036e-02,
          2.22406387e-02, 4.12763692e-02, 5.57466410e-02, 5.99173866e-02,
          3.40845048e-01, 1.12288758e-01, 7.13951290e-02, 2.71249861e-02,
          2.10431907e-02, 2.59309374e-02, 4.95949276e-02, 4.63884026e-02,
          1.53552875e-01, 3.40845048e-01, 3.40845048e-01, 1.95339307e-01,
          5.35385534e-02, 2.29024626e-02, 5.05128950e-02, 8.66597667e-02,
          8.04902166e-02, 7.44592771e-02, 3.40845048e-01, 9.62952003e-02,
          8.79266039e-02, 5.87660000e-02, 5.51258437e-02, 4.24380861e-02,
          8.92875567e-02, 8.48903880e-02, 3.16254646e-01, 3.40845048e-01,
          3.32707793e-01, 1.85285419e-01, 8.87784883e-02, 4.51913439e-02,
          9.64205638e-02, 7.35939965e-02, 4.46128212e-02, 1.02114104e-01,
          2.62968630e-01, 2.62968630e-01, 1.31413862e-01, 6.92376196e-02,
          9.78732854e-02, 1.67475238e-01, 1.08162612e-01, 6.48297742e-02,
          2.31288038e-02, 9.42871943e-02, 1.65986821e-01, 1.87830955e-01,
          1.62743896e-01, 2.08064765e-01, 9.28189829e-02, 9.62222666e-02,
          7.33807907e-02, 2.28881553e-01, 2.62968630e-01, 2.45270774e-01,
          1.22885235e-01, 6.40202686e-02, 9.13456008e-02, 2.17081770e-01,
          2.45214447e-01, 1.01049565e-01, 4.95591313e-02, 2.62968630e-01,
          2.03554332e-01, 2.27789029e-01, 1.80510461e-01, 2.58515954e-01 ]
      - [ 7.12661073e-02, 2.84388904e-02, 3.99299376e-02, 4.15087715e-02,
          1.00129135e-01, 1.99368328e-01, 3.25580597e-01, 1.11312956e-01,
          7.79969767e-02, 6.35826886e-02, 2.45767981e-02, 1.46263940e-02,
          1.45392958e-02, 6.70198500e-02, 3.66109125e-02, 6.68374151e-02,
          5.98299913e-02, 6.12770244e-02, 9.41917151e-02, 3.18793952e-02,
          1.79959890e-02, 1.96299329e-02, 2.10641250e-01, 4.55657065e-01,
          4.55657065e-01, 4.27226186e-01, 1.30635649e-01, 8.33501741e-02,
          3.85725088e-02, 3.69168669e-02, 2.75002494e-02, 6.38147071e-02,
          1.25292808e-01, 1.82281449e-01, 1.93276867e-01, 1.36302218e-01,
          1.59027532e-01, 5.98192513e-02, 2.10868996e-02, 3.05004772e-02,
          1.52650476e-01, 1.28564447e-01, 2.11245880e-01, 1.66270182e-01,
          1.31821230e-01, 2.89834470e-01, 1.65285066e-01, 2.19739631e-01,
          9.46142673e-02, 2.25568026e-01, 2.89834470e-01, 2.89834470e-01,
          2.89834470e-01, 2.89834470e-01, 1.55733272e-01, 1.08602270e-01,
          7.71081224e-02, 7.19481558e-02, 1.23838529e-01, 1.12877376e-01,
          8.63095373e-02, 1.14010207e-01, 1.67625472e-01, 1.50030509e-01,
          1.02592349e-01, 5.70850186e-02, 8.20548460e-02, 1.62934974e-01,
          7.59856924e-02, 1.16067350e-01, 1.65844128e-01, 2.04471558e-01,
          1.32281005e-01, 9.84760672e-02, 1.11826725e-01, 4.40672562e-02,
          6.47050366e-02, 1.52252257e-01, 2.77581185e-01, 2.77581185e-01,
          2.77581185e-01, 2.40223601e-01, 1.33807972e-01, 9.47035477e-02,
          4.13882285e-02, 4.02487665e-02, 1.18533134e-01, 2.77581185e-01,
          2.77581185e-01, 2.77581185e-01, 5.24817742e-02, 2.00037640e-02,
          1.49564790e-02, 2.06744354e-02, 4.85759191e-02, 7.61517808e-02,
          1.65788829e-01, 1.55921325e-01, 1.53298274e-01, 2.50178874e-01,
          8.31553936e-02, 6.34099394e-02, 4.29810546e-02, 2.62749791e-02,
          8.98737386e-02, 2.37379283e-01, 2.43190095e-01, 2.77581185e-01,
          2.36200258e-01, 1.85386628e-01, 7.05312341e-02, 2.45879497e-02,
          2.09290590e-02, 4.59085293e-02, 1.84434667e-01, 2.08787262e-01,
          2.36200258e-01, 2.36200258e-01, 2.34792784e-01, 4.02873307e-02,
          6.38739765e-02, 7.95328394e-02, 1.43951610e-01, 1.68597832e-01,
          2.03922883e-01, 2.36200258e-01, 2.36200258e-01, 1.18977897e-01,
          4.83638048e-02, 2.62593180e-02, 1.68322697e-02, 3.03909089e-02,
          8.85031000e-02, 1.14057414e-01, 2.36200258e-01, 2.36200258e-01,
          2.36200258e-01, 1.64470688e-01, 4.77733724e-02, 1.03456005e-01,
          2.16745779e-01, 2.20406711e-01, 2.06659332e-01, 2.36200258e-01,
          3.19153480e-02, 2.16632057e-02, 1.64013226e-02, 1.89547464e-02,
          1.68552741e-01, 2.78563708e-01, 2.78563708e-01, 2.38188088e-01,
          7.92554915e-02, 4.14815992e-02, 2.62590833e-02, 1.35116987e-02,
          2.15299428e-02, 3.78198139e-02, 8.43958482e-02, 1.85855165e-01,
          2.29875818e-01, 1.23787791e-01, 1.29020602e-01, 1.15704313e-01,
          9.22727808e-02, 6.61551654e-02, 2.67873377e-01, 2.78563708e-01,
          2.78563708e-01, 2.78563708e-01, 2.35398516e-01, 6.05003573e-02,
          5.46213351e-02, 2.73553282e-02, 4.80581373e-02, 6.55382276e-02,
          9.18856487e-02, 2.78563708e-01, 2.78563708e-01, 2.31603101e-01,
          5.72687127e-02, 5.16222157e-02, 3.27603631e-02, 3.57714854e-02,
          4.49139625e-02, 1.12316243e-01, 1.38463646e-01, 2.41370395e-01,
          1.58426479e-01, 6.03301041e-02, 3.65111753e-02, 2.72306763e-02,
          2.12655291e-02, 5.25132269e-02, 3.66114154e-02, 4.78299893e-02,
          6.12100624e-02, 9.88377407e-02, 1.89281851e-01, 7.24685118e-02,
          7.81293735e-02, 7.67848045e-02, 5.53431921e-02, 1.71659678e-01,
          3.40994030e-01, 3.40994030e-01, 3.40994030e-01, 3.40994030e-01,
          1.11019202e-01, 9.70305502e-02, 4.58132178e-02, 3.56513374e-02,
          5.35010770e-02, 1.83906436e-01, 3.40994030e-01, 3.40994030e-01,
          5.96228316e-02, 2.16203518e-02, 1.95175670e-02, 1.38396081e-02,
          3.87141183e-02, 2.91370805e-02, 2.91701891e-02, 4.13575619e-02,
          8.25408399e-02, 1.91423610e-01, 7.56630972e-02, 2.03952212e-02,
          1.50985280e-02, 1.59086436e-02, 2.03914344e-02, 2.60486137e-02,
          5.35206608e-02, 2.39718407e-01, 3.73030961e-01, 1.89379722e-01,
          8.48989859e-02, 3.97382751e-02, 1.71064828e-02, 2.61648297e-02,
          4.27163988e-02, 3.43362063e-01, 3.73030961e-01, 3.73030961e-01,
          3.73030961e-01, 9.87898856e-02, 3.55956629e-02, 8.30385368e-03,
          1.71543006e-02, 2.15101819e-02, 4.79974449e-02, 3.73030961e-01,
          1.93006083e-01, 2.06165388e-01, 1.01826377e-01, 1.47191286e-02,
          6.47155195e-03, 3.99108138e-03, 1.10113323e-02, 2.00847108e-02,
          1.30844310e-01, 1.66185066e-01, 3.49801421e-01, 3.49801421e-01,
          7.20981956e-02, 3.22064832e-02, 5.22716977e-02, 5.60799837e-02,
          3.74369919e-02, 6.76791817e-02, 3.49801421e-01, 3.49801421e-01,
          2.03296676e-01, 1.31292464e-02, 3.83587391e-03, 5.40337665e-03,
          8.94469302e-03, 1.11979451e-02, 1.33263797e-01, 2.11977661e-01,
          3.49801421e-01, 3.49801421e-01, 5.51300235e-02, 8.05529207e-03,
          1.36963977e-02, 1.15238549e-02, 1.05771385e-02, 2.45267097e-02,
          3.06636065e-01, 2.84024298e-01, 1.93704590e-01, 1.29169166e-01,
          3.06636065e-01, 2.47179523e-01, 1.95698947e-01, 3.06636065e-01,
          3.06636065e-01, 1.35788843e-01, 1.00795053e-01, 5.27155288e-02,
          8.58632177e-02, 1.14990808e-01, 1.02454506e-01, 3.06636065e-01,
          3.06636065e-01, 3.06636065e-01, 7.13198930e-02, 2.48554889e-02,
          8.63750838e-03, 1.99791957e-02, 6.50075227e-02, 2.55106911e-02,
          1.84103344e-02, 1.21840807e-02, 6.22796118e-02, 5.28631173e-02,
          2.22583357e-02, 1.14034265e-02, 1.12075042e-02, 9.78256986e-02,
          3.57077979e-02, 4.70665321e-02, 4.52791676e-02, 8.90949368e-02,
          1.99912921e-01, 4.58162799e-02, 7.20080212e-02, 5.36935255e-02,
          3.92754003e-02, 6.88985288e-02, 3.48821610e-01, 3.48821610e-01,
          3.48821610e-01, 3.48821610e-01, 1.82298154e-01, 1.39940247e-01,
          4.96328957e-02, 3.40672433e-02, 3.80404592e-02, 1.73667520e-01,
          3.48821610e-01, 3.48821610e-01, 4.56307754e-02, 1.55178625e-02,
          1.57558732e-02, 7.48287048e-03, 5.47994524e-02, 3.10552809e-02,
          5.32765538e-02, 8.13999400e-02, 1.36848122e-01, 9.47795138e-02,
          4.89119552e-02, 3.96168381e-02, 1.70864463e-02, 8.17651823e-02,
          5.44669330e-02, 5.04656397e-02, 9.77000669e-02, 2.28514299e-01,
          3.69348377e-01, 2.07878143e-01, 7.62775168e-02, 3.20270471e-02,
          3.22285965e-02, 3.38894241e-02, 4.62705716e-02, 3.04523021e-01,
          3.69348377e-01, 3.69348377e-01, 3.69348377e-01, 6.28213882e-02,
          3.25545967e-02, 4.98517007e-02, 7.37998188e-02, 5.50475083e-02,
          4.34477255e-02, 3.69348377e-01, 1.17128193e-01, 3.38118821e-02,
          2.09202096e-02, 3.32991369e-02, 1.18624717e-01, 6.43777400e-02,
          4.03647646e-02, 4.37156521e-02, 1.82666257e-01, 1.16695203e-01,
          3.25828940e-02, 1.38845285e-02, 5.26862256e-02, 1.67426988e-01,
          1.44871935e-01, 6.52193651e-02, 2.12195367e-02, 7.96198994e-02,
          4.04007673e-01, 4.04007673e-01, 2.00976014e-01, 3.10663320e-02,
          5.57375476e-02, 9.71624851e-02, 6.70764297e-02, 3.67318168e-02,
          2.27215797e-01, 3.44428480e-01, 4.04007673e-01, 3.09910506e-01,
          4.34037186e-02, 3.40001769e-02, 4.76512648e-02, 5.83834276e-02,
          6.61352575e-02, 8.34142491e-02, 1.20078400e-01, 4.86914814e-02,
          2.83888020e-02, 5.13728335e-02, 1.59785703e-01, 1.94222257e-01,
          9.49841440e-02, 5.21714762e-02, 7.27395639e-02, 1.35548607e-01,
          5.45726307e-02, 3.39024775e-02, 1.27762081e-02, 4.27619368e-02,
          6.00111149e-02, 8.39786157e-02, 9.51939002e-02, 1.24337368e-01,
          2.75500447e-01, 7.45005533e-02, 8.40965584e-02, 8.01531076e-02,
          2.75500447e-01, 9.19487700e-02, 1.20207146e-01, 6.88560978e-02,
          2.72713244e-01, 2.54188299e-01, 6.88826963e-02, 6.89781234e-02,
          4.36670557e-02, 2.75500447e-01, 1.13290124e-01, 8.65681693e-02,
          5.37912771e-02, 2.52166182e-01, 2.75500447e-01, 6.25080094e-02,
          5.40667363e-02, 2.20196173e-02, 2.30417714e-01, 5.41191585e-02,
          1.33551627e-01, 1.44585133e-01, 2.75500447e-01, 2.75500447e-01,
          5.12995161e-02, 5.21570817e-02, 2.32717507e-02, 2.44587302e-01,
          5.61200827e-02, 8.79282281e-02, 5.80713749e-02, 2.75500447e-01,
          1.48951128e-01, 1.00926891e-01, 8.97010639e-02, 3.86167169e-02,
          4.00066525e-01, 9.47216079e-02, 6.35741726e-02, 4.92079481e-02,
          1.52246147e-01, 5.61804026e-02, 5.63504808e-02, 1.40391231e-01,
          1.89188868e-01, 4.00066525e-01, 2.69298613e-01, 1.64412946e-01,
          7.38736242e-02, 9.66933817e-02, 1.32602751e-01, 7.42961764e-02,
          8.54398385e-02, 3.79009284e-02, 3.76393110e-01, 3.73359770e-02,
          5.29945791e-02, 2.93749999e-02, 1.27398744e-01, 5.93147501e-02,
          7.20546842e-02, 1.14079565e-01, 1.41888618e-01, 4.00066525e-01,
          8.74222368e-02, 1.09075725e-01, 2.19618734e-02, 4.93839458e-02,
          9.42124799e-03, 1.00902263e-02, 4.39531505e-02, 1.61436826e-01,
          3.44768882e-01, 1.85938925e-01, 7.75161982e-02, 2.16909032e-02,
          1.65684111e-02, 2.88945213e-02, 2.11447421e-02, 4.78267856e-02,
          2.10634947e-01, 3.44768882e-01, 3.44768882e-01, 1.34466916e-01,
          3.30747478e-02, 2.27217805e-02, 1.82262808e-02, 1.98758543e-02,
          4.27945703e-02, 1.26490116e-01, 3.44768882e-01, 1.61270186e-01,
          6.44876584e-02, 2.03229431e-02, 1.59655418e-02, 1.52373640e-02,
          2.33074538e-02, 7.43293688e-02, 2.68179685e-01, 3.44768882e-01,
          3.44768882e-01, 1.31177887e-01, 3.28258350e-02, 1.79885272e-02,
          1.11585848e-01, 3.15441526e-02, 5.41193262e-02, 1.00808419e-01,
          2.80223012e-01, 2.80223012e-01, 1.04968138e-01, 8.44840258e-02,
          1.31734833e-01, 2.20550522e-01, 6.64091706e-02, 4.02053744e-02,
          2.47148722e-02, 1.03743084e-01, 9.29409936e-02, 1.35684595e-01,
          2.01613888e-01, 2.75217801e-01, 7.87245557e-02, 3.79646979e-02,
          7.34433457e-02, 2.26779938e-01, 2.80223012e-01, 2.40096420e-01,
          7.94348791e-02, 6.51713759e-02, 1.12401903e-01, 2.51198471e-01,
          1.89904600e-01, 8.02492276e-02, 7.79570565e-02, 2.80223012e-01,
          1.02598578e-01, 1.24018647e-01, 2.23953083e-01, 2.80223012e-01 ]
      - [ 6.01506904e-02, 2.80772708e-02, 4.26750556e-02, 5.17191887e-02,
          1.00780249e-01, 1.94729298e-01, 3.20574820e-01, 1.19315952e-01,
          7.35277608e-02, 4.33114357e-02, 2.15095617e-02, 1.35859922e-02,
          2.42136791e-02, 5.69371879e-02, 2.51892377e-02, 7.62184635e-02,
          6.78853765e-02, 5.67753538e-02, 9.47954282e-02, 2.36579403e-02,
          1.85652729e-02, 3.49472612e-02, 1.52836859e-01, 4.47655886e-01,
          4.47655886e-01, 4.47655886e-01, 1.44167840e-01, 6.54595047e-02,
          3.44690867e-02, 2.30655260e-02, 3.79063152e-02, 4.33223061e-02,
          1.03380419e-01, 2.30368868e-01, 2.22465366e-01, 1.28462136e-01,
          1.01930216e-01, 6.91939741e-02, 3.07552200e-02, 5.15840799e-02,
          1.50110945e-01, 9.95935351e-02, 2.22335830e-01, 2.28858829e-01,
          1.20948650e-01, 2.82076865e-01, 2.09314257e-01, 1.11938521e-01,
          1.53589860e-01, 2.82076865e-01, 2.82076865e-01, 2.82076865e-01,
          2.82076865e-01, 2.82076865e-01, 1.44514948e-01, 1.23253658e-01,
          7.46958852e-02, 8.51807967e-02, 1.04768910e-01, 1.03749372e-01,
          1.25913203e-01, 1.34991914e-01, 1.14646576e-01, 1.61792025e-01,
          1.14189610e-01, 6.43311888e-02, 6.50629550e-02, 1.78813785e-01,
          9.96320024e-02, 1.27686664e-01, 1.25132412e-01, 1.81237221e-01,
          1.97416067e-01, 8.75523686e-02, 5.18870912e-02, 6.78317398e-02,
          1.02652512e-01, 1.58946499e-01, 2.71637708e-01, 2.71637708e-01,
          2.71637708e-01, 2.71637708e-01, 1.11014068e-01, 5.44242486e-02,
          7.79782459e-02, 8.14269483e-02, 1.23125225e-01, 2.71637708e-01,
          2.71637708e-01, 2.71637708e-01, 5.31997494e-02, 2.00893357e-02,
          2.03632731e-02, 1.61060560e-02, 6.06517643e-02, 9.24790949e-02,
          1.74742788e-01, 1.13961525e-01, 1.68640867e-01, 2.71637708e-01,
          7.01204091e-02, 5.88698462e-02, 5.50704226e-02, 4.54874933e-02,
          7.76186138e-02, 2.34006420e-01, 1.94789171e-01, 2.71637708e-01,
          2.33104348e-01, 1.84623092e-01, 3.58260646e-02, 4.36641201e-02,
          3.50234434e-02, 3.40804569e-02, 1.58267796e-01, 2.10092902e-01,
          2.33104348e-01, 2.33104348e-01, 2.20190138e-01, 4.52037193e-02,
          8.27062652e-02, 9.02720317e-02, 1.15544036e-01, 2.01513141e-01,
          2.33104348e-01, 2.33104348e-01, 2.33104348e-01, 1.01196282e-01,
          4.37067188e-02, 3.66040990e-02, 2.00128350e-02, 9.39535908e-03,
          6.76593706e-02, 1.18548140e-01, 2.33104348e-01, 2.33104348e-01,
          2.33104348e-01, 1.97754547e-01, 4.85761166e-02, 1.11274429e-01,
          2.09959880e-01, 2.33104348e-01, 2.14970648e-01, 2.21839800e-01,
          4.05965447e-02, 2.14224327e-02, 1.77762415e-02, 1.69582181e-02,
          1.35745332e-01, 2.80366659e-01, 2.80366659e-01, 2.49178216e-01,
          8.08080956e-02, 4.74322475e-02, 1.86321475e-02, 1.94338113e-02,
          1.09534794e-02, 3.86072211e-02, 8.90675336e-02, 2.18294770e-01,
          2.24785924e-01, 1.14445373e-01, 1.40765920e-01, 1.18289568e-01,
          1.01270393e-01, 4.66496870e-02, 2.50849575e-01, 2.80366659e-01,
          2.80366659e-01, 2.80366659e-01, 2.13485628e-01, 7.66779557e-02,
          3.74733470e-02, 4.00518961e-02, 2.56669819e-02, 8.19247589e-02,
          1.11730888e-01, 2.80366659e-01, 2.80366659e-01, 2.23433450e-01,
          5.43741435e-02, 4.60817441e-02, 4.10652123e-02, 2.85209492e-02,
          4.86761183e-02, 9.92994606e-02, 1.87888533e-01, 1.96925461e-01,
          1.44231409e-01, 6.11379109e-02, 4.26434726e-02, 2.36860663e-02,
          1.61638111e-02, 5.07707074e-02, 3.59638743e-02, 5.69504909e-02,
          4.77960035e-02, 8.87258947e-02, 1.81105062e-01, 7.65502900e-02,
          7.86678717e-02, 5.31510971e-02, 8.22649896e-02, 1.61246806e-01,
          3.42852801e-01, 3.42852801e-01, 3.42852801e-01, 3.41018885e-01,
          1.71535790e-01, 6.09229207e-02, 3.05415913e-02, 3.98484543e-02,
          6.16625883e-02, 1.85194120e-01, 3.42852801e-01, 3.42852801e-01,
          5.50670214e-02, 2.15253737e-02, 1.87012069e-02, 7.56029086e-03,
          3.65800075e-02, 2.32348461e-02, 3.72481160e-02, 3.43816429e-02,
          9.62992907e-02, 2.02571332e-01, 8.05194080e-02, 3.39072309e-02,
          9.86429863e-03, 1.10369511e-02, 1.49272308e-02, 4.16499190e-02,
          4.40042093e-02, 2.21378222e-01, 3.91235858e-01, 1.90367803e-01,
          8.38654712e-02, 1.58313513e-02, 1.97415911e-02, 2.75041610e-02,
          5.30324914e-02, 2.18541041e-01, 3.91235858e-01, 3.91235858e-01,
          3.91235858e-01, 1.14319414e-01, 1.53477592e-02, 1.17537715e-02,
          1.34178121e-02, 2.60536000e-02, 4.25030962e-02, 3.91235858e-01,
          1.89866036e-01, 2.15865463e-01, 1.32136956e-01, 1.23670250e-02,
          3.55437724e-03, 2.58924253e-03, 1.16100339e-02, 1.64543856e-02,
          1.06355347e-01, 1.58235818e-01, 3.52103174e-01, 3.52103174e-01,
          4.51690108e-02, 3.38075422e-02, 6.62364140e-02, 5.69798499e-02,
          2.86395438e-02, 6.45787194e-02, 3.52103174e-01, 3.52103174e-01,
          2.11572453e-01, 1.42255202e-02, 1.39046358e-02, 7.16344547e-03,
          1.16546229e-02, 1.45241851e-02, 1.15993068e-01, 1.92649633e-01,
          3.52103174e-01, 3.52103174e-01, 3.96508053e-02, 2.05821805e-02,
          1.66722517e-02, 1.77393779e-02, 1.82616524e-02, 2.70629786e-02,
          3.02091777e-01, 2.79896349e-01, 2.22866431e-01, 9.63705480e-02,
          3.02091777e-01, 2.27967069e-01, 2.40756363e-01, 3.02091777e-01,
          3.02091777e-01, 1.50338396e-01, 7.52432048e-02, 6.55567348e-02,
          7.56185353e-02, 1.48807198e-01, 1.13271743e-01, 3.02091777e-01,
          3.02091777e-01, 3.02091777e-01, 7.11908191e-02, 1.95077360e-02,
          2.24373564e-02, 2.24382319e-02, 4.96650226e-02, 1.21094147e-02,
          2.08115727e-02, 2.29897629e-02, 6.68907762e-02, 5.11203036e-02,
          2.43124608e-02, 3.04847956e-02, 3.17167006e-02, 8.51271451e-02,
          3.24586965e-02, 3.09572835e-02, 4.55122478e-02, 8.18935558e-02,
          2.06421077e-01, 8.93126726e-02, 5.81933931e-02, 3.99201475e-02,
          5.72855249e-02, 6.52024597e-02, 3.48129213e-01, 3.48129213e-01,
          3.48129213e-01, 3.48129213e-01, 2.64163345e-01, 8.81489813e-02,
          2.82240529e-02, 5.11925481e-02, 5.83205074e-02, 1.55881882e-01,
          3.48129213e-01, 3.48129213e-01, 4.67775725e-02, 2.71644089e-02,
          2.15692502e-02, 1.97462775e-02, 6.74387217e-02, 3.60126831e-02,
          3.77128720e-02, 7.40207732e-02, 1.12858161e-01, 8.07775706e-02,
          5.68099953e-02, 3.29335220e-02, 2.79172342e-02, 9.23983902e-02,
          6.63880780e-02, 4.40912209e-02, 8.43899101e-02, 1.86271310e-01,
          3.82918805e-01, 2.12519571e-01, 7.60992467e-02, 2.18135323e-02,
          3.33604626e-02, 4.98721078e-02, 5.36340773e-02, 2.20205531e-01,
          3.82918805e-01, 3.82918805e-01, 3.82918805e-01, 8.01039562e-02,
          2.62406766e-02, 4.06484976e-02, 6.55164346e-02, 5.39770685e-02,
          5.57188578e-02, 3.82918805e-01, 1.13408603e-01, 3.22918445e-02,
          2.81942915e-02, 4.04025204e-02, 1.09777398e-01, 7.91620538e-02,
          4.52276468e-02, 3.94789129e-02, 1.60353184e-01, 1.16497926e-01,
          3.75664607e-02, 3.12116705e-02, 5.08489311e-02, 1.56880125e-01,
          1.35475650e-01, 7.54832849e-02, 3.03282142e-02, 7.40398616e-02,
          3.94429266e-01, 3.94429266e-01, 1.80887207e-01, 3.57616544e-02,
          7.65066817e-02, 7.12825134e-02, 7.14099258e-02, 7.83632025e-02,
          2.52606571e-01, 2.84193933e-01, 3.94429266e-01, 2.61175841e-01,
          4.89656664e-02, 6.75773397e-02, 7.20304921e-02, 1.07716732e-01,
          1.15133509e-01, 1.08104706e-01, 8.54866579e-02, 5.70342876e-02,
          3.93212587e-02, 5.39804511e-02, 1.60311520e-01, 1.50226295e-01,
          1.11720540e-01, 1.25530854e-01, 1.29891232e-01, 4.08501588e-02,
          2.84798201e-02, 2.35860478e-02, 1.88959967e-02, 4.94607352e-02,
          8.20877552e-02, 1.72048017e-01, 1.90425485e-01, 1.57591537e-01,
          2.64868975e-01, 8.63021538e-02, 9.55602303e-02, 4.94509637e-02,
          2.16521755e-01, 3.47531848e-02, 1.08998142e-01, 1.40671298e-01,
          2.64868975e-01, 1.82265267e-01, 7.93457329e-02, 1.03653677e-01,
          5.88977635e-02, 2.64868975e-01, 1.39931336e-01, 1.16212428e-01,
          1.42592341e-01, 1.95678294e-01, 2.64868975e-01, 7.92124495e-02,
          8.32046643e-02, 8.11474696e-02, 2.64868975e-01, 1.55703545e-01,
          1.14220589e-01, 1.15132913e-01, 2.64868975e-01, 2.64868975e-01,
          1.07323796e-01, 8.27079415e-02, 5.77412508e-02, 2.64868975e-01,
          5.20457104e-02, 8.11964124e-02, 1.42858058e-01, 2.64868975e-01,
          7.63794184e-02, 3.07312869e-02, 7.85417259e-02, 1.13323651e-01,
          3.49517792e-01, 1.74485341e-01, 1.25747025e-01, 9.59398076e-02,
          9.26642120e-02, 3.57906520e-02, 3.54687236e-02, 1.25553206e-01,
          2.15966940e-01, 3.49517792e-01, 3.17812175e-01, 1.77552581e-01,
          8.20651427e-02, 6.25369623e-02, 1.58016816e-01, 5.15539199e-02,
          6.95279315e-02, 1.04386583e-01, 3.49517792e-01, 5.24624623e-02,
          9.61139202e-02, 8.74658376e-02, 1.56559080e-01, 7.04378113e-02,
          6.18155673e-02, 1.07535027e-01, 2.27151588e-01, 3.49517792e-01,
          1.48834720e-01, 1.38957128e-01, 6.24213740e-02, 7.13386089e-02,
          1.95281617e-02, 2.72386242e-02, 7.56656677e-02, 1.09843627e-01,
          3.20798784e-01, 2.17827246e-01, 1.28717378e-01, 2.57151294e-02,
          2.08515804e-02, 3.13857608e-02, 4.06866409e-02, 7.84364641e-02,
          1.75869629e-01, 3.20798784e-01, 3.20798784e-01, 2.16793731e-01,
          4.28893603e-02, 3.69729064e-02, 2.58133505e-02, 5.36584780e-02,
          8.05268139e-02, 1.31109640e-01, 3.20798784e-01, 2.04325199e-01,
          1.23684913e-01, 4.75861467e-02, 2.36305967e-02, 2.59397496e-02,
          4.65477481e-02, 1.09730579e-01, 2.55046457e-01, 3.20798784e-01,
          3.20798784e-01, 1.83811814e-01, 6.23197146e-02, 2.60473378e-02,
          4.55285758e-02, 3.37832123e-02, 5.05483672e-02, 1.17033675e-01,
          2.64850467e-01, 2.60654092e-01, 1.83025301e-01, 1.40373677e-01,
          1.31832913e-01, 5.76327592e-02, 2.38627344e-02, 4.05908152e-02,
          2.98471097e-02, 9.37196314e-02, 1.30458802e-01, 2.64850467e-01,
          2.64850467e-01, 2.37043783e-01, 5.13737723e-02, 2.12475564e-02,
          8.15977678e-02, 1.65416360e-01, 2.64850467e-01, 2.64850467e-01,
          1.60024524e-01, 9.72169414e-02, 9.06684622e-02, 1.04521632e-01,
          9.80135128e-02, 1.11525878e-01, 5.90155125e-02, 2.64850467e-01,
          1.43844008e-01, 2.64850467e-01, 2.64850467e-01, 2.28562310e-01 ]
   decision_functions:
      -
         sv_count: 2
         rho: 0.
         alpha: [ 1.0244961152452610e+00, -1.0244961152452610e+00 ]
         index: [ 0, 1 ]
      -
         sv_count: 2
         rho: 0.
         alpha: [ 1.0296960720273471e+00, -1.0296960720273471e+00 ]
         index: [ 0, 2 ]
      -
         sv_count: 2
         rho: 0.
         alpha: [ 1.0311520438913433e+00, -1.0311520438913433e+00 ]
         index: [ 0, 3 ]
      -
         sv_count: 2
         rho: 0.
         alpha: [ 1.0295120745048609e+00, -1.0295120745048609e+00 ]
         index: [ 0, 4 ]
      -
         sv_count: 2
         rho: 0.
         alpha: [ 3.1711475221440666e+00, -3.1711475221440666e+00 ]
         index: [ 1, 2 ]
      -
         sv_count: 2
         rho: 0.
         alpha: [ 2.8221172284699634e+00, -2.8221172284699634e+00 ]
         index: [ 1, 3 ]
      -
         sv_count: 2
         rho: 0.
         alpha: [ 2.9827254118106370e+00, -2.9827254118106370e+00 ]
         index: [ 1, 4 ]
      -
         sv_count: 2
         rho: 0.
         alpha: [ 5.6732855837098963e+00, -5.6732855837098963e+00 ]
         index: [ 2, 3 ]
      -
         sv_count: 2
         rho: 0.
         alpha: [ 5.0481431455270931e+00, -5.0481431455270931e+00 ]
         index: [ 2, 4 ]
      -
         sv_count: 2
         rho: 0.
         alpha: [ 6.8281781123425755e+00, -6.8281781123425755e+00 ]
         index: [ 3, 4 ]
