<?xml version="1.0"?>
<opencv_storage>
<opencv_ml_svm>
  <format>3</format>
  <svmType>C_SVC</svmType>
  <kernel>
    <type>RBF</type>
    <gamma>2.9999999999999999e-01</gamma></kernel>
  <C>100.</C>
  <term_criteria><epsilon>1.1920928955078125e-07</epsilon>
    <iterations>1000</iterations></term_criteria>
  <var_count>648</var_count>
  <class_count>10</class_count>
  <class_labels type_id="opencv-matrix">
    <rows>10</rows>
    <cols>1</cols>
    <dt>i</dt>
    <data>
      0 1 2 3 4 5 6 7 8 9</data></class_labels>
  <sv_total>75</sv_total>
  <support_vectors>
    <_>
      5.12536354e-02 1.13319904e-01 3.65226381e-02 1.62490401e-02
      3.00270915e-01 3.50750657e-03 0. 2.78005414e-02 1.08429706e-02
      9.22725052e-02 1.51098028e-01 6.22890629e-02 5.85218295e-02
      3.00270915e-01 6.89360052e-02 4.39224541e-02 9.65195596e-02
      4.43162657e-02 2.72018522e-01 1.96099043e-01 1.93568304e-01
      1.30012915e-01 3.00270915e-01 1.65899110e-03 3.84277254e-02
      3.93594801e-02 2.13209778e-01 3.00270915e-01 2.77124614e-01
      1.61639765e-01 1.01848617e-01 3.00270915e-01 1.42271006e-02
      1.57227263e-01 1.67076305e-01 3.00270915e-01 3.49575654e-02
      1.50951818e-02 8.30850936e-03 1.77106783e-02 3.12963009e-01
      6.86885342e-02 6.77022338e-02 1.21899918e-01 3.77344526e-02
      1.78521667e-02 5.31966938e-03 1.59184802e-02 0. 2.42683977e-01
      8.46279319e-03 1.01072071e-02 1.98735297e-02 1.83920711e-02
      3.12963009e-01 6.16305694e-02 5.11385538e-02 4.18071523e-02
      3.12963009e-01 5.01498841e-02 1.73595995e-01 2.48364106e-01
      3.12963009e-01 3.12963009e-01 2.93361545e-01 2.32832685e-01
      2.28213817e-02 2.66738415e-01 2.65924744e-02 1.85388289e-02
      7.67283514e-02 3.12963009e-01 5.71002997e-02 6.56461390e-03
      1.96438320e-02 0. 1.28399596e-01 0. 5.06941974e-03 1.69411523e-03
      5.71002997e-02 5.94286770e-02 1.41994888e-03 4.24902886e-03 0.
      1.57078132e-01 0. 2.19674874e-02 7.34116649e-03 5.94286770e-02
      3.55643004e-01 3.55643004e-01 1.28478244e-01 2.70619988e-03
      1.60056606e-01 2.44714618e-02 6.02332614e-02 1.12942092e-01
      3.55643004e-01 3.55643004e-01 2.02579588e-01 1.94271915e-02 0.
      2.68108845e-01 6.57556280e-02 2.32234702e-01 2.78583288e-01
      3.55643004e-01 3.36659327e-02 1.92180779e-02 1.47695569e-02
      8.49791616e-03 2.03155931e-02 2.04750919e-04 2.91918661e-03
      3.16495565e-03 2.04910021e-02 8.29804614e-02 2.56826393e-02
      1.21755544e-02 6.52215909e-03 2.11348515e-02 7.92867388e-04
      1.20248599e-02 1.54968929e-02 7.63361901e-02 2.72083759e-01
      2.69109130e-01 2.30495766e-01 1.97648436e-01 2.01000705e-01
      3.91458347e-02 1.75483171e-02 1.70261376e-02 1.57092720e-01
      2.82754153e-01 2.82754153e-01 2.72375971e-01 2.31308132e-01
      2.82754153e-01 2.73943543e-01 2.76399046e-01 2.74498373e-01
      2.82754153e-01 4.85960133e-02 6.51423726e-03 4.59430832e-03
      3.34784924e-03 2.93459017e-02 3.64212459e-03 1.60523318e-02
      2.74922084e-02 9.41593498e-02 4.77418080e-02 3.67820114e-02
      2.32656319e-02 2.01629009e-03 1.88111626e-02 2.16208445e-03
      1.53989007e-03 9.37913824e-03 6.24813959e-02 3.59817713e-01
      6.70805052e-02 4.24653478e-02 2.95521878e-02 1.43101439e-01
      2.59082049e-01 3.21079850e-01 3.59817713e-01 3.59817713e-01
      3.59817713e-01 2.89212435e-01 1.55766174e-01 8.55813101e-02
      2.68680193e-02 1.80739630e-02 3.12044956e-02 1.10530727e-01
      3.59817713e-01 6.54966757e-02 5.49232848e-02 1.09055536e-02
      2.14623244e-04 9.92448442e-03 3.62455705e-03 5.47401328e-03
      1.52030466e-02 6.83190152e-02 5.61406277e-02 2.98735723e-02
      1.59517210e-03 0. 1.92468967e-02 1.21542020e-02 2.12361496e-02
      3.52591798e-02 8.65585878e-02 2.83660859e-01 2.83660859e-01
      2.70598412e-01 2.25313157e-01 2.58316845e-01 7.48799220e-02
      1.36736169e-01 9.08917561e-02 2.83660859e-01 2.83660859e-01
      2.05970570e-01 1.54520541e-01 1.56492323e-01 2.83660859e-01
      2.36050442e-01 2.83660859e-01 1.94709003e-01 2.83660859e-01
      1.13849431e-01 1.14777096e-01 9.83702317e-02 9.40781683e-02
      9.24973264e-02 1.90916825e-02 7.14858202e-03 6.70250971e-03
      6.33232892e-02 2.34328419e-01 1.45097122e-01 1.11688353e-01
      1.03617840e-01 1.80070668e-01 1.25318915e-01 1.09745853e-01
      1.13482401e-01 2.51998901e-01 2.38215894e-01 1.81442752e-01
      1.62074819e-01 2.35249788e-01 2.51998901e-01 1.19390815e-01
      5.45064695e-02 5.58123887e-02 1.63241401e-01 2.51998901e-01
      2.30229959e-01 1.62498072e-01 1.80088386e-01 2.51998901e-01
      2.51998901e-01 1.29336983e-01 1.99266449e-01 2.51998901e-01
      1.80820093e-01 2.18410771e-02 1.12593202e-02 8.76232143e-03
      4.50904332e-02 7.75045827e-02 8.65760818e-02 1.31175488e-01
      2.64438301e-01 3.29813272e-01 8.25513303e-02 4.13038768e-02
      2.32813135e-02 8.13222304e-03 5.19888895e-03 8.72183312e-03
      3.23043428e-02 2.24624321e-01 3.80447865e-01 9.47287679e-02
      1.97960772e-02 1.46179097e-02 7.93228075e-02 1.06676564e-01
      8.09776261e-02 2.05548108e-01 3.80447865e-01 3.80447865e-01
      1.50022805e-01 2.68714242e-02 2.13839039e-02 1.36729656e-02
      6.89768931e-03 1.34650012e-02 1.07336894e-01 3.80447865e-01
      2.95020014e-01 1.70449525e-01 1.19719245e-01 1.02191187e-01
      1.36673555e-01 3.47698815e-02 6.03092164e-02 3.84345800e-02
      1.50966495e-01 1.85907617e-01 8.54283050e-02 6.81576580e-02
      7.36481920e-02 3.27968001e-01 1.05842702e-01 1.33351579e-01
      7.96719790e-02 1.36439070e-01 3.27968001e-01 1.49758309e-01
      9.74677652e-02 1.27792895e-01 3.27968001e-01 6.22162931e-02
      8.07503238e-02 5.80173098e-02 3.27968001e-01 1.69001281e-01
      5.53178713e-02 5.65543212e-02 1.37878865e-01 3.27968001e-01
      1.48428485e-01 1.20275967e-01 4.31760848e-02 1.00810826e-01
      2.11169079e-01 1.49242833e-01 1.30179420e-01 1.89838171e-01
      2.78270245e-01 1.12032704e-01 5.75462431e-02 5.64523116e-02
      1.53651804e-01 2.78270245e-01 1.88199475e-01 1.28365934e-01
      1.41031966e-01 2.78270245e-01 2.14564607e-01 1.01475991e-01
      1.68062806e-01 2.78270245e-01 1.91242293e-01 5.38211800e-02
      2.09791884e-02 6.76488504e-02 1.63147852e-01 9.93192196e-02
      1.25133082e-01 1.01409554e-01 2.64314950e-01 2.78270245e-01
      9.90673900e-02 2.84008216e-02 2.50683390e-02 6.71820268e-02
      5.33292778e-02 6.51859194e-02 1.18774764e-01 2.78270245e-01
      3.40758055e-01 6.54199794e-02 1.27275381e-02 9.31518432e-03
      5.26880622e-02 6.79963753e-02 4.68398556e-02 1.33986697e-01
      3.40758055e-01 3.40758055e-01 9.79707241e-02 1.52518991e-02
      1.25304973e-02 9.37782228e-03 6.24775002e-03 9.84070357e-03
      7.65368044e-02 3.40758055e-01 3.40758055e-01 5.94898313e-02
      7.86364824e-03 1.14942144e-03 2.36761756e-03 4.63857315e-03
      6.82335580e-03 4.62661274e-02 3.40758055e-01 3.40758055e-01
      4.51343134e-02 2.30909511e-03 1.96310692e-04 5.44166984e-03
      2.77137756e-02 3.20409909e-02 9.91948843e-02 3.40758055e-01
      3.10956687e-01 1.03985824e-01 6.51622117e-02 9.42457467e-02
      3.10956687e-01 5.52795976e-02 6.36390522e-02 5.23514263e-02
      3.10956687e-01 1.17859803e-01 3.69607545e-02 4.11979333e-02
      1.13912731e-01 3.10956687e-01 1.10226721e-01 8.41966569e-02
      3.47019359e-02 7.27756247e-02 2.56691128e-01 6.04038276e-02
      3.16588283e-02 7.81470761e-02 2.35473722e-01 1.55185416e-01
      1.18154258e-01 1.86689779e-01 3.10956687e-01 7.83866495e-02
      8.89080837e-02 6.94590881e-02 2.12539971e-01 3.10956687e-01
      1.29105896e-01 6.90564364e-02 1.11872748e-01 1.55817166e-01
      3.46170634e-01 8.89393091e-02 2.38376446e-02 1.06548488e-01
      2.53764153e-01 1.73650175e-01 2.36380890e-01 1.91311911e-01
      3.76248121e-01 3.76248121e-01 1.71317503e-01 3.95085327e-02
      3.58671024e-02 9.55786109e-02 7.94124603e-02 1.17719062e-01
      2.08974302e-01 3.76248121e-01 7.85714984e-02 1.74483061e-02
      1.19835474e-02 1.63676422e-02 1.98532101e-02 1.04786577e-02
      4.08318602e-02 3.63640822e-02 1.23257056e-01 1.98286623e-01
      5.25659658e-02 2.60609314e-02 7.66555779e-03 7.40113296e-03
      1.60907384e-03 1.59138571e-02 5.34317046e-02 2.61026829e-01
      4.44426388e-01 1.17484562e-01 1.57831013e-02 1.84428913e-03
      5.80538937e-04 6.84711570e-03 1.25983162e-02 8.43090564e-02
      4.44426388e-01 4.44426388e-01 8.25629979e-02 6.63223397e-03
      8.97747348e-04 1.26260538e-02 5.96860573e-02 7.32941106e-02
      1.99062675e-01 4.44426388e-01 1.66901946e-01 5.18424958e-02
      2.16077026e-02 6.83960831e-03 1.91459944e-03 2.32591713e-03
      9.27510951e-03 4.68524210e-02 1.83860451e-01 1.27704039e-01
      3.56270261e-02 1.92509424e-02 1.07724490e-02 1.98738258e-02
      3.80152464e-02 5.98530248e-02 8.45482051e-02 1.75394654e-01
      2.98526108e-01 8.21588412e-02 4.57648076e-02 1.11265086e-01
      2.98526108e-01 2.23982349e-01 1.76241323e-01 2.74022788e-01
      2.98526108e-01 1.22435652e-01 1.34019881e-01 1.00113951e-01
      2.98526108e-01 2.98526108e-01 1.82506874e-01 9.98368934e-02
      1.63457304e-01 2.38060638e-01 1.04394585e-01 5.22225611e-02
      2.04595979e-02 4.08690199e-02 6.58741742e-02 8.71274546e-02
      7.82400370e-02 1.21113122e-01 1.76380917e-01 1.27656534e-01
      1.04910709e-01 4.19436693e-02 1.41273424e-01 2.01621786e-01
      6.24682046e-02 3.45905013e-02 7.21993521e-02 1.57213479e-01
      3.09844494e-01 7.42500275e-02 5.99942692e-02 7.65293762e-02
      1.10731095e-01 4.26830910e-02 1.38194248e-01 1.42304853e-01
      3.36191803e-01 3.36191803e-01 2.44607240e-01 1.34377405e-01
      4.46370728e-02 4.70985770e-02 1.40119307e-02 5.37939146e-02
      2.28125304e-01 3.36191803e-01 1.27486899e-01 3.98228057e-02
      3.54095101e-02 5.58894947e-02 1.61732614e-01 1.04615435e-01
      5.63597940e-02 2.77547501e-02 1.20593078e-01 3.36191803e-01
      1.05290756e-01 7.16803968e-02 7.34925196e-02 1.21288516e-01
      1.20526537e-01 8.61957967e-02 9.81626585e-02 3.11719358e-01
      2.74344772e-01 2.08710328e-01 9.88423452e-02 3.41637060e-02
      1.08312145e-02 1.90195646e-02 4.31557260e-02 1.84231892e-01
      2.74344772e-01 2.74344772e-01 1.42548114e-01 8.53432566e-02
      5.11937104e-02 8.58192369e-02 1.45610765e-01 2.38133594e-01
      2.74344772e-01 2.74344772e-01 2.74344772e-01 1.34560198e-01
      1.08275734e-01 7.25300089e-02 4.32458371e-02 9.77141857e-02
      9.25903469e-02 1.79216668e-01 2.02255338e-01 2.74344772e-01
      1.83321193e-01 8.95654112e-02 9.13631544e-02 9.11592916e-02
      6.62925467e-02 1.15566976e-01 1.34205237e-01 2.04862863e-01
      2.66207725e-01 1.43936157e-01 5.36080562e-02 1.03924386e-01
      1.63346425e-01 2.18907475e-01 2.07888126e-01 2.66207725e-01
      2.66207725e-01 2.66207725e-01 2.66207725e-01 1.08204223e-01
      2.66207725e-01 2.66207725e-01 1.56560898e-01 8.79824385e-02
      1.78329617e-01 2.66207725e-01 1.20666422e-01 7.50345290e-02
      3.94130535e-02 3.75895388e-02 1.30018592e-01 4.41767201e-02
      6.19735047e-02 3.55652347e-02 1.70088544e-01 1.30004048e-01
      8.61817077e-02 7.48894215e-02 1.10756621e-01 2.66207725e-01
      4.73105349e-02 2.47782040e-02 1.25022335e-02 1.01517715e-01</_>
    <_>
      4.99659888e-02 1.13431387e-01 3.65585759e-02 1.62650272e-02
      3.04811209e-01 3.51095758e-03 0. 2.78278925e-02 9.51556489e-03
      9.23632979e-02 1.51246682e-01 6.23503514e-02 5.85794076e-02
      3.04811209e-01 6.90038279e-02 4.39656712e-02 9.66145247e-02
      4.43598703e-02 2.52574921e-01 1.73341170e-01 2.09130988e-01
      1.11180924e-01 3.04811209e-01 0. 3.12998109e-02 6.06685877e-02
      1.71317339e-01 3.04811209e-01 2.61032939e-01 2.00620428e-01
      7.31354877e-02 3.04811209e-01 8.03790390e-02 9.84478295e-02
      2.26040944e-01 3.04811209e-01 3.50072496e-02 1.51166357e-02
      8.32031760e-03 1.77358482e-02 3.13383371e-01 6.87861592e-02
      6.77984506e-02 1.22073166e-01 3.77880819e-02 1.84431747e-02
      5.32722985e-03 1.59411039e-02 0. 2.43028894e-01 8.47482029e-03
      1.01215709e-02 1.99017748e-02 1.89838465e-02 3.13383371e-01
      1.32513627e-01 1.30151957e-01 3.88413742e-02 3.13383371e-01
      1.43058792e-01 1.28746524e-01 2.80728251e-01 3.13383371e-01
      3.13383371e-01 3.13383371e-01 1.80065051e-01 2.83775423e-02
      2.62321711e-01 2.63171792e-02 1.70279313e-02 5.51636368e-02
      2.48146906e-01 5.97812571e-02 6.65358780e-03 1.99100748e-02 0.
      1.30139872e-01 0. 5.13812806e-03 1.71707664e-03 5.97812571e-02
      6.13971539e-02 1.43919419e-03 4.30661812e-03 0. 1.59207106e-01 0.
      2.22652238e-02 7.44066574e-03 6.13971539e-02 3.72749001e-01
      3.69470268e-01 1.29834980e-01 2.88377907e-02 1.48311749e-01
      1.83628015e-02 3.59890424e-02 1.12962350e-01 3.72749001e-01
      3.72749001e-01 1.48589805e-01 3.76353301e-02 1.31080886e-02
      2.42324740e-01 1.04577936e-01 1.70848891e-01 2.63431847e-01
      3.72749001e-01 3.29525433e-02 1.68883298e-02 1.67450383e-02
      8.14522896e-03 1.98829267e-02 0. 2.36105593e-03 4.74253343e-03
      1.73186827e-02 8.89743492e-02 2.36303583e-02 1.53181078e-02
      4.89594974e-03 2.22088844e-02 6.07808866e-03 7.29496544e-03
      1.96736529e-02 6.91516548e-02 2.61975884e-01 2.77251929e-01
      2.16159672e-01 2.22673237e-01 1.75717548e-01 3.87130715e-02
      1.57760158e-02 1.88139547e-02 1.39355451e-01 2.80237913e-01
      2.80237913e-01 2.80237913e-01 2.52275705e-01 2.80237913e-01
      2.73741990e-01 2.76204020e-01 2.80237913e-01 2.80237913e-01
      6.06414527e-02 1.29130259e-02 1.12318369e-02 3.04949889e-03
      2.97865570e-02 1.33241313e-02 1.18053975e-02 3.00435200e-02
      6.40351921e-02 7.44949058e-02 5.12890480e-02 1.65661033e-02
      2.47298903e-03 1.83846802e-02 2.39763642e-03 1.52492814e-03
      6.31456310e-03 3.52686532e-02 3.64374965e-01 6.51128367e-02
      5.72209805e-02 3.36166210e-02 1.38473228e-01 2.65973330e-01
      2.92408764e-01 3.64374965e-01 3.64374965e-01 3.64374965e-01
      2.93619543e-01 1.44078761e-01 7.95874521e-02 2.62226090e-02
      1.63750760e-02 1.90700721e-02 1.16398580e-01 3.64374965e-01
      7.17419162e-02 4.78529781e-02 1.08639356e-02 2.40972568e-03
      8.77026375e-03 2.99117947e-03 3.49207898e-03 1.42905898e-02
      7.03101084e-02 5.61221056e-02 2.34370008e-02 3.42731643e-03
      1.09532976e-03 1.71156991e-02 1.49158463e-02 1.60942804e-02
      3.22785452e-02 9.46503729e-02 2.83431917e-01 2.83431917e-01
      2.83431917e-01 2.15158477e-01 2.56804615e-01 6.86651766e-02
      1.26515180e-01 8.87297466e-02 2.83431917e-01 2.83431917e-01
      2.06888378e-01 1.73318774e-01 1.53176725e-01 2.83431917e-01
      2.36051172e-01 2.83431917e-01 1.85321406e-01 2.83431917e-01
      1.08143561e-01 1.20666496e-01 9.46515873e-02 1.03444114e-01
      8.13693032e-02 1.96732488e-02 6.19515125e-03 7.71218119e-03
      5.69384694e-02 2.37411186e-01 1.42965555e-01 1.18334956e-01
      1.12765923e-01 1.70684010e-01 1.24618299e-01 1.10022157e-01
      1.18866436e-01 2.54631132e-01 2.17760637e-01 2.14755118e-01
      1.66218683e-01 2.23179951e-01 2.54631132e-01 1.09611101e-01
      4.26956192e-02 4.67188805e-02 1.79357395e-01 2.54631132e-01
      2.54631132e-01 1.57113433e-01 1.84193283e-01 2.54631132e-01
      2.22885296e-01 1.22811094e-01 1.87648281e-01 2.54631132e-01
      1.85421869e-01 1.97140276e-02 1.48354191e-02 9.90750827e-03
      4.30017449e-02 7.73770362e-02 7.84130991e-02 1.46356851e-01
      2.53539324e-01 3.42093378e-01 8.20481330e-02 3.83202955e-02
      2.13151071e-02 7.92644080e-03 4.57224064e-03 5.44689503e-03
      3.38713154e-02 2.10102126e-01 3.80692214e-01 9.16235596e-02
      1.29787531e-02 1.60173345e-02 7.53530785e-02 9.17820632e-02
      7.72885829e-02 2.23846883e-01 3.80692214e-01 3.80692214e-01
      1.32920355e-01 2.96419505e-02 1.86595954e-02 1.36651266e-02
      6.34426158e-03 1.26731517e-02 1.11101583e-01 3.80692214e-01
      2.99531072e-01 1.66550308e-01 1.29585803e-01 9.73024666e-02
      1.36704981e-01 3.11714448e-02 5.54905199e-02 3.94851938e-02
      1.44138753e-01 1.84538186e-01 8.67220387e-02 7.67799467e-02
      7.19456375e-02 3.31154197e-01 1.04221165e-01 1.25788078e-01
      7.79107437e-02 1.37357205e-01 3.31154197e-01 1.59979016e-01
      1.12072766e-01 1.13514848e-01 3.31154197e-01 5.68374395e-02
      8.01649541e-02 6.34310171e-02 3.31154197e-01 1.57847002e-01
      6.80501536e-02 6.66992217e-02 1.20621659e-01 3.31154197e-01
      1.33087307e-01 1.13756925e-01 5.07170670e-02 9.39454883e-02
      1.89201832e-01 1.75532967e-01 1.31336495e-01 1.74956143e-01
      2.81737715e-01 1.02543466e-01 4.38113213e-02 4.86369617e-02
      1.68768778e-01 2.81737715e-01 2.25430816e-01 1.19966887e-01
      1.42387345e-01 2.81737715e-01 1.84896410e-01 9.29538906e-02
      1.53698877e-01 2.81737715e-01 1.71201795e-01 5.58112115e-02
      2.07511131e-02 4.12862599e-02 1.94235533e-01 9.80300084e-02
      8.59546214e-02 1.09834224e-01 2.81737715e-01 2.81737715e-01
      1.10400803e-01 1.35332728e-02 1.98210888e-02 8.12576488e-02
      4.07200120e-02 4.56042439e-02 8.60845074e-02 2.81737715e-01
      3.42009932e-01 6.36458918e-02 7.66409468e-03 1.03282714e-02
      5.00511155e-02 5.78832924e-02 4.52993438e-02 1.44726828e-01
      3.42009932e-01 3.42009932e-01 8.58429149e-02 1.71788167e-02
      1.08170286e-02 9.29446984e-03 5.96427498e-03 1.02411108e-02
      7.79476687e-02 3.42009932e-01 3.42009932e-01 4.76665832e-02
      7.41696975e-04 1.04399060e-03 2.51537748e-03 9.03342268e-04
      6.25775289e-03 2.99485829e-02 3.42009932e-01 3.42009932e-01
      2.74853315e-02 1.48943625e-04 4.45913378e-04 4.37723938e-03
      2.50327028e-02 3.99506278e-02 8.63056704e-02 3.42009932e-01
      3.14701766e-01 1.11800849e-01 7.55811781e-02 8.34023952e-02
      3.14701766e-01 5.11863418e-02 6.68227598e-02 5.39809726e-02
      3.14701766e-01 1.09556243e-01 4.60825041e-02 4.81132157e-02
      1.00052021e-01 3.14701766e-01 9.79643017e-02 8.19202513e-02
      3.90798934e-02 6.85458109e-02 2.53999174e-01 5.93206026e-02
      3.46986353e-02 7.44888783e-02 2.34565020e-01 1.36444688e-01
      1.64678290e-01 1.68022409e-01 3.14701766e-01 5.95411696e-02
      8.87742043e-02 7.66656920e-02 2.03055233e-01 3.14701766e-01
      1.04069702e-01 9.77310240e-02 1.04346588e-01 1.57795310e-01
      3.11659306e-01 8.70300159e-02 2.36863010e-02 5.97858839e-02
      3.07338774e-01 1.75665125e-01 1.62691832e-01 2.08975226e-01
      3.86404276e-01 3.86404276e-01 1.83785573e-01 1.31388158e-02
      2.70474609e-02 1.18729115e-01 6.19447380e-02 8.24199468e-02
      1.48768410e-01 3.86404276e-01 6.81234375e-02 1.21697886e-02
      8.94088019e-03 6.43973099e-03 1.86238717e-02 1.57007240e-02
      1.92630589e-02 4.57584821e-02 1.24771900e-01 2.15635389e-01
      2.27016844e-02 9.64698382e-03 5.47456834e-03 7.29533564e-03
      3.97594646e-03 7.46303238e-03 2.75010150e-02 3.01370859e-01
      4.47536528e-01 8.92409682e-02 1.20224524e-03 1.65235158e-03
      1.08012930e-03 2.86655471e-04 1.14310691e-02 4.51187678e-02
      4.47536528e-01 4.47536528e-01 4.57271673e-02 9.10146686e-04
      1.75361126e-03 9.86699946e-03 5.43700792e-02 8.93295631e-02
      1.68730080e-01 4.47536528e-01 1.94173411e-01 2.62070522e-02
      1.19829001e-02 7.36120436e-03 1.92412443e-03 8.59966385e-04
      9.57746990e-03 1.21941743e-02 2.05001280e-01 1.43426582e-01
      1.60864089e-02 1.19356606e-02 1.29127745e-02 1.87497642e-02
      4.04501893e-02 6.62314147e-02 6.47722334e-02 1.73415288e-01
      3.00755382e-01 8.07065666e-02 5.09010218e-02 1.06836699e-01
      3.00755382e-01 1.97810575e-01 2.45448217e-01 2.44288296e-01
      3.00755382e-01 9.12143663e-02 1.33752093e-01 1.12631634e-01
      2.96648324e-01 3.00755382e-01 1.45972565e-01 1.42676532e-01
      1.51475579e-01 2.44471282e-01 8.27480927e-02 5.30788973e-02
      3.09415143e-02 4.24470901e-02 6.14492036e-02 7.08987266e-02
      1.03701897e-01 1.17084391e-01 1.81266531e-01 9.61210802e-02
      1.10477120e-01 6.43864498e-02 1.47040948e-01 2.00972959e-01
      3.67925949e-02 5.07934354e-02 7.32204393e-02 1.69987947e-01
      2.69755930e-01 5.83150722e-02 4.73792925e-02 3.87273729e-02
      1.03606746e-01 6.18747957e-02 5.88543192e-02 1.75115183e-01
      3.71522278e-01 3.71522278e-01 1.10496983e-01 5.68940453e-02
      3.65505964e-02 4.70992140e-02 2.23807432e-02 2.35367734e-02
      1.12268932e-01 3.71522278e-01 1.35055825e-01 3.84457745e-02
      3.58242095e-02 5.65440580e-02 1.51880920e-01 8.94900933e-02
      4.14976329e-02 3.68796587e-02 1.64696410e-01 3.71522278e-01
      9.39671695e-02 7.25198910e-02 7.43532330e-02 1.12782717e-01
      1.02186240e-01 9.75478292e-02 8.42711180e-02 3.71522278e-01
      2.96740264e-01 1.18443213e-01 6.19986951e-02 3.67386602e-02
      1.34400353e-02 1.24627529e-02 4.61493768e-02 5.76923601e-02
      2.96740264e-01 2.96740264e-01 7.35400617e-02 5.78627028e-02
      6.00720085e-02 9.26285833e-02 1.70432806e-01 2.64161736e-01
      2.42276415e-01 2.96740264e-01 2.96740264e-01 1.28553361e-01
      1.12590618e-01 6.25465140e-02 6.06203675e-02 9.58207175e-02
      1.19903661e-01 1.57240197e-01 2.38680139e-01 2.96740264e-01
      1.13125421e-01 8.24715942e-02 6.20940700e-02 1.46343499e-01
      9.48253572e-02 1.03388377e-01 1.47442773e-01 1.92057118e-01
      2.39006206e-01 1.46999240e-01 8.25121403e-02 1.09456919e-01
      1.57830968e-01 1.81184053e-01 2.61290461e-01 2.67964453e-01
      2.67964453e-01 2.67964453e-01 2.67964453e-01 1.69085890e-01
      2.67964453e-01 2.67964453e-01 8.51825848e-02 1.23982795e-01
      1.81614369e-01 2.67964453e-01 1.58323929e-01 3.02432198e-02
      3.21015194e-02 4.01787534e-02 1.77182347e-01 5.69824874e-02
      3.01605947e-02 4.49350290e-02 9.94330868e-02 1.23294048e-01
      4.51289080e-02 6.65626153e-02 1.16834618e-01 2.67964453e-01
      2.34855842e-02 1.10275913e-02 1.07854381e-02 5.43827787e-02</_>
    <_>
      4.97585386e-02 1.12960435e-01 3.47770266e-02 1.28638521e-02
      3.09563488e-01 3.49638099e-03 0. 2.77123582e-02 9.47605819e-03
      9.19798166e-02 1.50618732e-01 6.08238876e-02 5.57433628e-02
      3.09563488e-01 6.87173381e-02 4.37831357e-02 9.62134078e-02
      4.41756956e-02 3.09563488e-01 2.17252076e-01 1.38169676e-01
      7.66966790e-02 3.09563488e-01 0. 3.92590743e-03 4.08440679e-02
      1.49679959e-01 3.09563488e-01 2.83975631e-01 1.38847440e-01
      7.42366984e-02 3.09563488e-01 1.58345196e-02 1.53979525e-01
      1.64822921e-01 3.09563488e-01 3.39804515e-02 1.46732498e-02
      8.07627477e-03 1.72156394e-02 3.14676136e-01 6.67685941e-02
      6.58098608e-02 1.18492633e-01 3.66797224e-02 1.75315663e-02
      5.17097674e-03 1.54735353e-02 0. 2.35900626e-01 8.22624564e-03
      9.82469600e-03 1.93180367e-02 1.80563796e-02 3.14676136e-01
      6.84268326e-02 5.77627756e-02 4.07924540e-02 3.14676136e-01
      3.46894599e-02 2.37842783e-01 2.61094779e-01 3.14676136e-01
      3.14676136e-01 3.14676136e-01 1.80884108e-01 2.61588152e-02
      2.76719451e-01 8.00526142e-03 3.71681601e-02 8.09820071e-02
      2.57158041e-01 5.94799928e-02 6.73162565e-03 2.01435946e-02 0.
      1.31666243e-01 0. 5.19839162e-03 1.73721556e-03 5.94799928e-02
      6.16616160e-02 1.45607407e-03 4.35712887e-03 0. 1.61074400e-01 0.
      2.25263666e-02 7.52793439e-03 6.16616160e-02 3.69963378e-01
      3.69963378e-01 1.11216478e-01 5.44596463e-03 1.50051236e-01
      2.52442490e-02 3.03755049e-02 1.13895014e-01 3.69963378e-01
      3.69963378e-01 1.61257744e-01 4.01887000e-02 0. 2.58683056e-01
      1.34690821e-01 1.46698266e-01 2.63187528e-01 3.69963378e-01
      3.85920815e-02 1.99273899e-02 1.23177897e-02 5.78167802e-03
      2.18237638e-02 0. 5.27104770e-04 3.42234108e-03 1.55640552e-02
      9.23462287e-02 2.60734838e-02 1.08456705e-02 5.21643599e-03
      2.49669123e-02 1.04448316e-03 1.17407329e-02 1.50416084e-02
      7.12464824e-02 2.76283324e-01 2.66007096e-01 2.32661650e-01
      2.00721428e-01 2.01286823e-01 3.64155062e-02 1.63732804e-02
      1.82944462e-02 1.37819588e-01 2.86901623e-01 2.86901623e-01
      2.86353976e-01 2.22237080e-01 2.86901623e-01 2.61383802e-01
      2.86901623e-01 2.54341274e-01 2.86901623e-01 6.21499605e-02
      7.09199114e-03 5.28164161e-03 3.34929442e-03 3.32455300e-02
      2.88283336e-03 2.27055699e-02 2.84623988e-02 7.20151290e-02
      8.17092136e-02 3.97927687e-02 1.69270188e-02 2.45839288e-03
      1.99873652e-02 6.65269268e-04 3.51227494e-03 8.75758473e-03
      3.60518992e-02 3.64522845e-01 5.51624633e-02 5.01352437e-02
      2.69182846e-02 1.50502399e-01 2.47245178e-01 3.13628882e-01
      3.64522845e-01 3.64522845e-01 3.64522845e-01 2.85463035e-01
      1.37745529e-01 8.21272805e-02 2.48895623e-02 1.54438037e-02
      2.21472364e-02 1.14339292e-01 3.64522845e-01 7.85691813e-02
      5.08774444e-02 8.39214772e-03 4.39989119e-04 8.72652605e-03
      3.52841220e-03 2.98230723e-03 1.46847973e-02 6.22529499e-02
      6.25083894e-02 2.45076884e-02 3.23236990e-03 0. 1.80778969e-02
      1.72364973e-02 1.39584765e-02 3.30669768e-02 8.62482414e-02
      2.84236580e-01 2.84236580e-01 2.80940741e-01 2.09969267e-01
      2.46470124e-01 8.23023915e-02 1.19117431e-01 9.42129418e-02
      2.75768667e-01 2.84236580e-01 2.07794324e-01 1.74764052e-01
      1.43492594e-01 2.84236580e-01 2.60775328e-01 2.73467809e-01
      1.98918447e-01 2.84236580e-01 1.12547465e-01 1.16019763e-01
      1.00887448e-01 9.32564959e-02 9.10452232e-02 1.85802914e-02
      6.50023203e-03 7.51914317e-03 5.57682104e-02 2.35655308e-01
      1.44240528e-01 1.17912538e-01 9.79802683e-02 1.92464530e-01
      1.18420862e-01 1.15985721e-01 1.05843604e-01 2.57819504e-01
      2.20185578e-01 2.17456356e-01 1.77287817e-01 2.13843986e-01
      2.57819504e-01 1.02534384e-01 5.08760586e-02 4.92323972e-02
      1.75702274e-01 2.57819504e-01 2.57819504e-01 1.59321964e-01
      1.61370084e-01 2.57819504e-01 2.14566126e-01 1.28127202e-01
      1.81613162e-01 2.57819504e-01 1.79367989e-01 1.76006481e-02
      1.32425446e-02 7.77961314e-03 4.66654859e-02 7.28655010e-02
      8.34862292e-02 1.34101272e-01 2.66171306e-01 3.40779692e-01
      8.10213834e-02 3.68768945e-02 2.22376529e-02 7.38647487e-03
      4.47630556e-03 5.98031888e-03 3.30541842e-02 2.13253200e-01
      3.82007986e-01 9.41583961e-02 1.22227445e-02 1.15425168e-02
      8.10287967e-02 9.13807005e-02 7.56436884e-02 2.09356233e-01
      3.82007986e-01 3.82007986e-01 1.38706625e-01 2.74848025e-02
      2.01475881e-02 1.30151846e-02 5.93102863e-03 1.17201833e-02
      1.04252011e-01 3.82007986e-01 3.08853418e-01 1.71310440e-01
      1.25094980e-01 9.51760784e-02 1.30691975e-01 3.75539958e-02
      5.21140844e-02 4.03369702e-02 1.32013425e-01 1.96063831e-01
      8.59519541e-02 7.74113610e-02 6.72204867e-02 3.29000443e-01
      1.14876837e-01 1.17244959e-01 8.21921304e-02 1.21530220e-01
      3.29000443e-01 1.63464651e-01 1.09909974e-01 1.21459447e-01
      3.29000443e-01 5.53646833e-02 7.99204186e-02 5.24072163e-02
      3.29000443e-01 1.62123933e-01 6.81559592e-02 6.95718527e-02
      1.29327074e-01 3.29000443e-01 1.32991910e-01 1.10368498e-01
      4.33089286e-02 1.04884021e-01 1.91409573e-01 1.77850559e-01
      1.39035225e-01 1.68575585e-01 2.81739801e-01 9.54149589e-02
      5.18914722e-02 5.10641374e-02 1.65301144e-01 2.81739801e-01
      2.32541919e-01 1.21119700e-01 1.24366850e-01 2.81739801e-01
      1.77406430e-01 9.71189141e-02 1.50354922e-01 2.81739801e-01
      1.76002011e-01 5.33309989e-02 2.11320203e-02 4.57832105e-02
      1.90373152e-01 8.73737931e-02 1.00262202e-01 1.18683085e-01
      2.81739801e-01 2.81739801e-01 1.08419456e-01 1.42423175e-02
      1.97018050e-02 8.09734985e-02 3.57952528e-02 5.07246815e-02
      9.45433527e-02 2.81739801e-01 3.42598051e-01 6.53385222e-02
      7.16852536e-03 7.33632315e-03 5.37841171e-02 5.76387756e-02
      4.37647663e-02 1.35761738e-01 3.42598051e-01 3.42598051e-01
      8.93715024e-02 1.58002079e-02 1.18064033e-02 9.14408732e-03
      5.43338526e-03 9.46930144e-03 7.31383786e-02 3.42598051e-01
      3.42598051e-01 4.66675386e-02 8.10253085e-04 8.55744584e-04
      2.77122972e-03 7.63264776e-04 5.46023250e-03 2.84553412e-02
      3.42598051e-01 3.42598051e-01 2.74814460e-02 4.09107684e-04
      7.46536301e-04 7.23514659e-03 2.24361699e-02 4.07282226e-02
      8.20238963e-02 3.42598051e-01 3.12723935e-01 1.14052080e-01
      7.29829445e-02 9.02755931e-02 3.12723935e-01 4.77856323e-02
      6.66104034e-02 4.47048694e-02 3.12723935e-01 1.12199634e-01
      4.64846678e-02 4.85685095e-02 1.07913606e-01 3.12723935e-01
      9.56060588e-02 7.99888745e-02 3.26406434e-02 7.72724003e-02
      2.67478526e-01 6.05466552e-02 2.90130768e-02 8.17595273e-02
      2.49289110e-01 1.18454359e-01 1.59887299e-01 1.60062179e-01
      3.12723935e-01 6.21449016e-02 9.01920050e-02 6.42384067e-02
      2.12892562e-01 3.12723935e-01 9.05850455e-02 9.49934721e-02
      1.02771088e-01 1.55661732e-01 3.27099591e-01 8.31524432e-02
      2.39809789e-02 6.97480440e-02 3.08515251e-01 1.59618899e-01
      1.94547400e-01 2.32094347e-01 3.88059527e-01 3.88059527e-01
      1.82353050e-01 1.46589540e-02 2.82655247e-02 1.20226935e-01
      5.45719489e-02 9.46781337e-02 1.69559896e-01 3.88059527e-01
      5.76381385e-02 8.35921615e-03 5.80069702e-03 1.04547886e-03
      3.55464146e-02 1.60159022e-02 3.06648873e-02 5.76903448e-02
      9.74919125e-02 1.94289565e-01 1.40744699e-02 7.31362961e-03
      2.31268606e-03 7.42799789e-03 3.06803943e-03 1.47464378e-02
      3.69005911e-02 2.54647195e-01 4.51616138e-01 8.82461593e-02
      1.44592160e-03 1.18753721e-03 1.53320143e-03 0. 9.63545404e-03
      4.30180207e-02 4.51616138e-01 4.51616138e-01 4.77239937e-02
      1.72875007e-03 1.82502589e-03 1.58711653e-02 4.90928590e-02
      9.19565037e-02 1.62846997e-01 4.51616138e-01 1.87125370e-01
      2.87338551e-02 1.34130437e-02 6.58626528e-03 3.96189559e-03
      2.52143829e-04 4.51043155e-03 5.02234744e-03 1.68404117e-01
      1.59018263e-01 4.29229252e-02 2.08850652e-02 1.21109476e-02
      9.77838133e-03 3.05941664e-02 6.01367354e-02 5.98753765e-02
      1.71963587e-01 3.03513676e-01 8.24256912e-02 4.29543257e-02
      1.17753424e-01 3.03513676e-01 1.71830803e-01 2.40467057e-01
      2.37165242e-01 3.03513676e-01 9.54563022e-02 1.35266215e-01
      9.56418440e-02 3.03513676e-01 3.03513676e-01 1.26665950e-01
      1.40039206e-01 1.52069047e-01 2.41212770e-01 8.04642513e-02
      5.20449691e-02 2.92262640e-02 5.06712273e-02 6.06051385e-02
      6.21877350e-02 1.02408677e-01 1.24590456e-01 1.90010175e-01
      8.96976441e-02 9.85634029e-02 5.81574105e-02 1.50761053e-01
      2.27271751e-01 3.30449939e-02 5.21803871e-02 7.77469799e-02
      1.70584112e-01 2.15566829e-01 4.69166934e-02 3.89642119e-02
      4.78195399e-03 2.04243258e-01 7.41124675e-02 1.25097051e-01
      2.40926579e-01 3.48859996e-01 3.48859996e-01 7.80468062e-02
      5.22609912e-02 1.35372141e-02 4.37361859e-02 1.83723159e-02
      6.80322349e-02 1.60203621e-01 3.48859996e-01 1.24224968e-01
      5.77381216e-02 6.04577959e-02 4.34722868e-04 1.94784462e-01
      7.44811520e-02 9.58025306e-02 7.54357427e-02 1.94031000e-01
      3.48859996e-01 1.25173211e-01 1.07707530e-01 9.66943894e-03
      6.22713901e-02 6.87529817e-02 1.02129042e-01 1.02519788e-01
      3.48859996e-01 2.78608203e-01 1.35869786e-01 6.96887448e-02
      2.99254060e-02 1.74396709e-02 5.33648068e-03 2.45593935e-02
      2.14251280e-02 2.78608203e-01 2.78608203e-01 1.94887951e-01
      1.03120171e-01 5.69130927e-02 3.98293547e-02 1.20747782e-01
      2.26314321e-01 2.14432105e-01 2.78608203e-01 2.39142969e-01
      2.15926230e-01 1.39960825e-01 2.81669293e-02 1.24731185e-02
      4.71398495e-02 9.79193226e-02 1.37399197e-01 2.78608203e-01
      2.08178774e-01 2.78608203e-01 1.72607183e-01 6.38791099e-02
      3.16711441e-02 6.20734245e-02 8.18292648e-02 1.47122100e-01
      2.74232805e-01 2.25827754e-01 1.41396761e-01 8.17052945e-02
      1.36682585e-01 1.38901308e-01 1.56784043e-01 2.56789923e-01
      2.74617195e-01 2.74617195e-01 2.72991955e-01 2.59934306e-01
      1.56127378e-01 2.74617195e-01 2.74617195e-01 7.66082555e-02
      1.28049344e-01 1.94602966e-01 2.74617195e-01 1.10795140e-01
      6.55081645e-02 2.91760918e-02 8.13436732e-02 1.12071186e-01
      5.60507588e-02 3.23088765e-02 7.78082982e-02 1.23602077e-01
      1.01549476e-01 7.25528747e-02 2.93064620e-02 1.67637303e-01
      2.74617195e-01 2.46925410e-02 1.32030370e-02 2.26343349e-02
      6.36812523e-02</_>
    <_>
      2.34445520e-02 5.90200461e-02 2.46835705e-02 2.02743635e-02
      7.06365258e-02 1.59533583e-02 1.58165246e-02 1.49148451e-02
      1.85356587e-02 6.27500042e-02 8.63153413e-02 5.77817112e-02
      2.93172915e-02 8.84011090e-02 2.56198440e-02 3.31967399e-02
      4.95086573e-02 6.21181652e-02 3.20340753e-01 3.17981601e-01
      1.44361779e-01 1.24761187e-01 3.32833193e-02 1.45116160e-02
      4.60898429e-02 4.83141728e-02 2.41177008e-01 3.52427453e-01
      3.52427453e-01 1.42350227e-01 1.43052369e-01 3.68707553e-02
      5.96129112e-02 3.27651829e-01 3.52427453e-01 3.52427453e-01
      4.01012935e-02 1.98147595e-02 3.15887518e-02 1.19697275e-02
      1.10365339e-01 3.39302458e-02 5.03570214e-02 7.97757283e-02
      5.24396040e-02 1.53239816e-02 2.85560228e-02 5.82528636e-02 0.
      9.89952758e-02 5.17116301e-03 8.05025361e-03 1.05650518e-02
      1.38658304e-02 3.38001430e-01 1.85247585e-01 4.70133200e-02
      3.97973582e-02 1.73646316e-01 1.93275213e-01 3.38001430e-01
      3.38001430e-01 3.38001430e-01 3.10765475e-01 3.38001430e-01
      3.38001430e-01 1.22807980e-01 1.76479489e-01 5.25184460e-02
      9.63467136e-02 4.37711589e-02 7.75403008e-02 3.30886878e-02
      1.35614676e-02 1.74448360e-02 0. 1.01718549e-02 4.54079673e-05
      4.80656978e-04 8.49002681e-04 3.11498139e-02 3.93076427e-02
      3.04937596e-03 1.38710579e-03 0. 2.04874408e-02 1.35615049e-03
      1.52409449e-02 6.92784134e-03 4.25282754e-02 3.15561742e-01
      3.15561742e-01 2.75454938e-01 1.47625074e-01 4.86943908e-02
      4.22184728e-02 1.19783208e-01 1.61729380e-01 3.15561742e-01
      3.15561742e-01 2.29615271e-01 1.50138929e-01 8.95515084e-02
      1.63560823e-01 2.01754496e-01 3.15561742e-01 3.15561742e-01
      3.15561742e-01 4.74975482e-02 5.30239642e-02 3.21557075e-02
      3.54659967e-02 7.97381997e-03 2.27704411e-03 7.40329875e-03
      8.98196362e-03 3.80953886e-02 1.24799974e-01 9.42159966e-02
      3.62767354e-02 4.49419841e-02 1.12957144e-02 2.63667759e-02
      6.28529415e-02 8.62458199e-02 1.68630749e-01 2.13543490e-01
      2.73064166e-01 2.47306690e-01 2.73064166e-01 1.06631517e-01
      8.95917714e-02 4.21505682e-02 4.84175608e-02 9.83176976e-02
      2.73064166e-01 2.73064166e-01 2.73064166e-01 2.73064166e-01
      2.38423914e-01 2.73064166e-01 2.52861381e-01 2.50156134e-01
      2.73064166e-01 6.97901174e-02 3.45938094e-02 1.21073574e-02
      1.17355259e-02 3.54592614e-02 6.31171912e-02 1.29759938e-01
      1.18366770e-01 1.21964954e-01 5.20646349e-02 1.18705422e-01
      7.52083287e-02 3.36593874e-02 2.78015397e-02 1.13777081e-02
      1.92399547e-02 6.81267912e-03 1.18084541e-02 1.81878820e-01
      2.35917330e-01 2.04877466e-01 2.91589916e-01 2.91589916e-01
      2.91589916e-01 2.91589916e-01 2.39146546e-01 2.36998886e-01
      2.27415413e-01 2.91589916e-01 2.91589916e-01 2.91589916e-01
      1.27749234e-01 5.12306802e-02 6.62649572e-02 1.01381280e-02
      1.78952981e-02 1.25927031e-01 1.05479144e-01 6.40839040e-02
      5.69255315e-02 1.89841427e-02 1.46162743e-02 2.68239900e-02
      3.37566547e-02 9.97799188e-02 1.22051753e-01 4.79841940e-02
      3.39297540e-02 3.45074497e-02 6.21626452e-02 5.55510633e-02
      6.96525127e-02 7.55179748e-02 1.44562796e-01 2.93881595e-01
      2.93881595e-01 2.93881595e-01 2.93881595e-01 2.93881595e-01
      1.15693398e-01 8.57772082e-02 5.98170087e-02 1.62181586e-01
      2.07979083e-01 1.27367124e-01 1.41635165e-01 2.61650056e-01
      2.93881595e-01 2.89212346e-01 1.80797353e-01 1.17164649e-01
      2.13352963e-01 1.15671866e-01 1.48871943e-01 1.23565145e-01
      2.07508981e-01 7.46917352e-02 5.32338433e-02 2.29149479e-02
      2.44652573e-02 4.81240787e-02 2.11738423e-01 2.31865570e-01
      1.67029262e-01 2.69516855e-01 1.31823570e-01 1.79428101e-01
      1.21683255e-01 1.19849831e-01 1.84313312e-01 1.30237818e-01
      1.17482178e-01 1.02933608e-01 2.69516855e-01 2.69516855e-01
      2.14017287e-01 4.19240482e-02 1.97961107e-02 2.60105152e-02
      2.28345767e-01 2.01887980e-01 1.50325492e-01 2.69516855e-01
      2.69516855e-01 2.69516855e-01 7.04434812e-02 4.43723723e-02
      6.41976297e-02 7.21297935e-02 1.01264253e-01 8.65816846e-02
      1.60436794e-01 1.52024373e-01 1.53806135e-01 1.48637950e-01
      8.32593143e-02 8.26950371e-02 9.80568826e-02 2.26504773e-01
      2.69947231e-01 1.61590993e-01 5.46879582e-02 1.78019274e-02
      2.40086056e-02 6.71808794e-03 9.41000320e-03 1.26283884e-01
      2.69947231e-01 2.69947231e-01 2.59254575e-01 2.24354237e-01
      1.06068246e-01 3.85186411e-02 3.16913575e-02 2.73207147e-02
      2.69947231e-01 2.69947231e-01 2.69947231e-01 2.69947231e-01
      2.69947231e-01 7.98687190e-02 1.79425459e-02 1.66924179e-01
      9.70121101e-02 1.83463603e-01 1.96403712e-01 2.19551921e-01
      2.48109430e-01 2.26220235e-01 6.40680939e-02 4.97891419e-02
      3.61962393e-02 8.96194801e-02 1.13386445e-01 6.86906725e-02
      7.82546476e-02 1.41549900e-01 3.39462370e-01 1.59287408e-01
      1.00331701e-01 6.17787056e-02 1.11135185e-01 2.12159082e-01
      2.22326487e-01 2.00717345e-01 2.63618439e-01 3.39462370e-01
      1.34144858e-01 4.71317619e-02 1.53307050e-01 9.39022228e-02
      6.35268167e-02 3.26676443e-02 3.52608860e-02 9.85812843e-02
      3.39462370e-01 1.68692634e-01 3.65703665e-02 5.29215671e-02
      3.23656835e-02 9.68238041e-02 8.21568966e-02 7.36934617e-02
      2.09469169e-01 3.17757010e-01 1.72274306e-01 3.33306529e-02
      1.42630599e-02 1.79987885e-02 1.72393784e-01 1.47359341e-01
      1.12171568e-01 2.83050209e-01 3.17757010e-01 2.27451175e-01
      5.08233793e-02 2.89789792e-02 4.16235738e-02 2.54327375e-02
      1.92195252e-02 5.35495067e-03 1.40825868e-01 3.17757010e-01
      2.71203190e-01 6.28873259e-02 5.64293452e-02 4.34242114e-02
      1.32041499e-01 8.36756080e-02 4.91649359e-02 1.65803716e-01
      3.17757010e-01 3.17757010e-01 1.01477169e-01 8.71471986e-02
      1.36068165e-01 7.26137757e-02 1.70957088e-01 1.75944626e-01
      1.35006249e-01 1.17999628e-01 5.54226562e-02 1.62703767e-02
      1.60881821e-02 1.59540866e-02 1.54698595e-01 2.44186044e-01
      2.44186044e-01 2.42321685e-01 1.88722238e-01 5.10132723e-02
      1.22574382e-02 9.50647742e-02 5.71957417e-02 2.43979663e-01
      2.44186044e-01 2.44186044e-01 2.11743653e-01 1.25624210e-01
      1.35220081e-01 4.44742814e-02 4.95083854e-02 1.52029216e-01
      2.44186044e-01 2.44186044e-01 2.44186044e-01 2.44186044e-01
      2.44186044e-01 1.53438792e-01 4.47291546e-02 1.23210609e-01
      1.39424592e-01 1.59034118e-01 1.63983077e-01 1.46182895e-01
      2.01175869e-01 4.14308697e-01 1.10094912e-01 3.57556343e-02
      1.18595496e-01 6.90287575e-02 4.37586792e-02 2.11677849e-02
      2.18916424e-02 6.82302415e-02 4.14308697e-01 1.28497601e-01
      2.27554869e-02 3.91277820e-02 2.07906626e-02 1.28652647e-01
      1.42041624e-01 1.05384618e-01 1.58390626e-01 4.14308697e-01
      1.65470079e-01 2.94784810e-02 8.56912658e-02 4.86234762e-02
      1.08103286e-02 6.21194253e-03 1.19414981e-02 6.59314990e-02
      4.14308697e-01 1.41653970e-01 1.35094812e-02 2.60526277e-02
      7.87779503e-03 2.75743846e-02 1.77953504e-02 2.71323277e-03
      1.14331037e-01 2.89729536e-01 2.43825570e-01 6.83949292e-02
      6.28990084e-02 4.98385057e-02 1.43890217e-01 7.70063922e-02
      4.19066772e-02 1.38747036e-01 2.89729536e-01 2.88908541e-01
      1.03893884e-01 9.10189822e-02 1.59027025e-01 5.27511649e-02
      3.09358072e-02 1.25837012e-03 5.84345162e-02 2.38063201e-01
      2.07438648e-01 1.67617008e-01 1.68188050e-01 1.39718831e-01
      2.89729536e-01 1.22734889e-01 3.57180350e-02 1.04707353e-01
      1.86810210e-01 2.14621335e-01 2.25454703e-01 2.43457198e-01
      2.89729536e-01 2.27386072e-01 2.08026290e-01 2.24458933e-01
      1.78011745e-01 1.00014828e-01 1.11148454e-01 3.75021063e-02
      4.25257348e-02 1.48060814e-01 2.36365587e-01 2.36365587e-01
      2.36365587e-01 2.36365587e-01 2.17629492e-01 1.24538898e-01
      3.69777568e-02 9.52872932e-02 1.13679871e-01 2.36365587e-01
      2.30511978e-01 1.82336614e-01 1.99237019e-01 4.38348427e-02
      9.05631259e-02 4.58394885e-02 4.68407013e-02 2.36365587e-01
      1.88373893e-01 2.36365587e-01 1.79681182e-01 2.36365587e-01
      1.05083548e-01 9.05355439e-02 4.68866080e-02 3.00382078e-02
      9.64164734e-02 1.16008237e-01 1.30373955e-01 1.05462678e-01
      1.48766369e-01 4.11322594e-01 1.65072486e-01 3.43405493e-02
      7.09324852e-02 4.55283411e-02 8.51422735e-03 5.11253718e-03
      2.21823379e-02 7.00244308e-02 4.11322594e-01 1.39841363e-01
      1.70660056e-02 2.15323642e-02 1.18261380e-02 4.98746037e-02
      9.79705825e-02 8.47768709e-02 9.46606398e-02 4.11322594e-01
      1.45852417e-01 1.31111652e-01 8.89593661e-02 1.31108612e-01
      1.90135147e-02 1.04019053e-01 1.32788748e-01 1.68199107e-01
      4.11322594e-01 1.15790404e-01 8.01155791e-02 6.64623678e-02
      1.44261762e-01 7.24209771e-02 4.28341255e-02 2.59109028e-03
      7.03222379e-02 2.65380353e-01 2.58792907e-01 2.29830429e-01
      2.35746413e-01 1.99288204e-01 2.78890550e-01 1.67507082e-01
      4.55334112e-02 1.32638305e-01 2.09536880e-01 2.64225870e-01
      2.78890550e-01 2.78890550e-01 2.78890550e-01 2.48903111e-02
      8.36847071e-03 9.96130332e-03 1.45359570e-02 4.56978045e-02
      6.91084117e-02 6.57265112e-02 8.37234035e-02 7.80219585e-02
      2.78890550e-01 6.09848164e-02 2.94077341e-02 2.15523280e-02
      2.60927342e-02 5.71210571e-02 8.35194662e-02 1.74046963e-01
      2.78890550e-01 2.75655895e-01 2.75655895e-01 2.61071056e-01
      2.75655895e-01 6.22629635e-02 1.28176853e-01 6.89202324e-02
      6.92147687e-02 2.75655895e-01 2.70965368e-01 2.75655895e-01
      2.55184621e-01 2.75655895e-01 1.53494313e-01 1.28101051e-01
      7.01465458e-02 3.94872949e-02 1.40571773e-01 2.75655895e-01
      1.52257279e-01 8.90485495e-02 4.97300066e-02 5.25500719e-03
      1.07802209e-02 1.97163261e-02 5.01575582e-02 2.75655895e-01
      1.38530999e-01 1.06937401e-01 9.21301991e-02 5.10648750e-02
      1.16601083e-02 2.77066864e-02 3.33235227e-02 4.14392389e-02
      6.71746209e-02 7.01500773e-02 1.47896275e-01 1.21535495e-01
      1.36784643e-01 3.73233497e-01 2.13240147e-01 2.03949854e-01
      1.45097464e-01 2.12298512e-01 3.28219794e-02 1.77133203e-01
      2.06233948e-01 2.61605978e-01 3.73233497e-01 1.69558346e-01
      1.24496996e-01 1.09525561e-01 2.37042591e-01 6.32619187e-02
      8.56332630e-02 7.29112923e-02 4.01389748e-02 6.87445626e-02
      6.92615584e-02 1.11668944e-01 1.38734490e-01 1.85888723e-01
      5.10740206e-02 1.66836664e-01 1.34043276e-01 1.46351516e-01
      1.75377578e-01 3.87896337e-02 6.66747391e-02 9.20218751e-02
      1.98188215e-01</_>
    <_>
      2.37061568e-02 5.96786216e-02 2.49590017e-02 2.05005929e-02
      7.14247152e-02 1.61313731e-02 1.59930140e-02 1.50812725e-02
      1.87424887e-02 6.34502023e-02 8.72784853e-02 5.84264621e-02
      2.96444241e-02 8.93875211e-02 2.59057228e-02 3.35671641e-02
      5.00610992e-02 6.28113076e-02 3.32185000e-01 3.33015084e-01
      1.20308042e-01 1.31833151e-01 3.17775831e-02 2.35940516e-02
      3.48409452e-02 4.90922518e-02 2.44168490e-01 3.57137293e-01
      3.57137293e-01 1.31829336e-01 1.42776906e-01 2.95704417e-02
      9.21067446e-02 2.78701305e-01 3.57137293e-01 3.57137293e-01
      3.99851091e-02 1.97573509e-02 3.14972289e-02 1.19350469e-02
      1.10045567e-01 3.38319428e-02 5.02111278e-02 7.95445889e-02
      5.22876680e-02 1.44965667e-02 2.51754839e-02 5.29409051e-02 0.
      1.11152485e-01 5.15618082e-03 9.60093085e-03 1.10604465e-02
      1.18879182e-02 3.26098889e-01 1.66894138e-01 5.52549884e-02
      2.00438388e-02 1.19117230e-01 3.08799446e-01 3.26098889e-01
      3.26098889e-01 3.26098889e-01 3.07855457e-01 3.26098889e-01
      3.26098889e-01 1.77624732e-01 1.55071974e-01 9.03321281e-02
      7.09606633e-02 5.60566634e-02 8.23956355e-02 3.12000681e-02
      1.07722087e-02 1.38015943e-02 0. 1.73302796e-02 0. 2.65616458e-03
      1.28838269e-03 2.77037080e-02 3.90195288e-02 2.10922910e-03
      5.34786843e-04 0. 2.04940252e-02 1.08493946e-03 1.76279508e-02
      7.45023880e-03 3.96051556e-02 3.15315545e-01 3.15315545e-01
      2.85306424e-01 1.56913191e-01 5.42545021e-02 4.06849235e-02
      1.24679133e-01 1.59852400e-01 3.15315545e-01 3.15315545e-01
      2.12898105e-01 1.65440783e-01 8.35017636e-02 1.66801840e-01
      1.88235655e-01 3.15315545e-01 3.15315545e-01 3.15315545e-01
      4.91313674e-02 5.55566475e-02 2.91205607e-02 3.70270796e-02
      7.56761478e-03 3.83062358e-03 5.63665759e-03 9.02302098e-03
      3.86276767e-02 1.28505021e-01 9.39325541e-02 3.58002409e-02
      4.52143773e-02 8.89422838e-03 3.48253362e-02 5.37918508e-02
      8.95153433e-02 1.72139823e-01 2.14385778e-01 2.78785050e-01
      2.48715669e-01 2.78785050e-01 1.02064334e-01 9.92076248e-02
      3.37936841e-02 4.73835580e-02 1.03199795e-01 2.78785050e-01
      2.78785050e-01 2.78785050e-01 2.78785050e-01 2.01259956e-01
      2.78785050e-01 2.22805798e-01 2.51574546e-01 2.78785050e-01
      6.53514415e-02 3.20003293e-02 1.31083550e-02 8.05594120e-03
      2.31885258e-02 9.05326381e-02 1.01333529e-01 1.23301096e-01
      1.26872480e-01 5.23716062e-02 1.05631500e-01 7.15854988e-02
      4.32018749e-02 2.34235432e-02 1.91772096e-02 1.23315295e-02
      8.71284679e-03 1.43763488e-02 1.90809667e-01 2.30475143e-01
      2.05530077e-01 2.89223790e-01 2.89223790e-01 2.89223790e-01
      2.89223790e-01 2.45533779e-01 2.62777090e-01 2.22360596e-01
      2.89223790e-01 2.89223790e-01 2.89223790e-01 1.19167678e-01
      7.83426017e-02 3.14630345e-02 1.01618757e-02 3.86818051e-02
      1.28242090e-01 9.55844074e-02 6.61690906e-02 5.84174581e-02
      1.90420654e-02 1.50136100e-02 2.78233662e-02 3.25184502e-02
      1.02657467e-01 1.20823480e-01 4.41432558e-02 3.74011993e-02
      3.27621587e-02 5.99427931e-02 5.53648733e-02 7.14272484e-02
      7.41903856e-02 1.45662978e-01 2.91143268e-01 2.91143268e-01
      2.91143268e-01 2.91143268e-01 2.91143268e-01 1.17616415e-01
      9.01038647e-02 5.00486456e-02 1.76828340e-01 1.96812719e-01
      1.26840353e-01 1.44360363e-01 2.63603896e-01 2.91143268e-01
      2.91143268e-01 1.87501237e-01 1.04125783e-01 2.30286792e-01
      1.13592178e-01 1.51196942e-01 1.22300982e-01 2.05836982e-01
      7.20296875e-02 5.72641343e-02 1.84293594e-02 2.30745580e-02
      5.00958711e-02 2.15874597e-01 2.31363863e-01 1.71595052e-01
      2.67821431e-01 1.13547631e-01 2.05638632e-01 1.05622724e-01
      1.17523141e-01 1.87783360e-01 1.24854609e-01 1.15919784e-01
      1.04664177e-01 2.67821431e-01 2.67821431e-01 2.22078770e-01
      3.74432541e-02 1.71970148e-02 2.90917791e-02 2.22613275e-01
      2.00951502e-01 1.57704502e-01 2.67821431e-01 2.67821431e-01
      2.67821431e-01 6.28181323e-02 3.61068361e-02 7.15907142e-02
      7.71755874e-02 9.93914679e-02 8.79032314e-02 1.45057887e-01
      1.35940790e-01 2.02957332e-01 1.11455821e-01 8.60516503e-02
      9.25619453e-02 9.89673957e-02 2.27209702e-01 2.68366188e-01
      1.62490293e-01 5.25745824e-02 2.73749307e-02 1.19045302e-02
      6.84558135e-03 1.70258023e-02 1.38636634e-01 2.70353794e-01
      2.70353794e-01 2.31507882e-01 2.28382900e-01 1.19175486e-01
      2.65115928e-02 2.94224545e-02 3.33590582e-02 2.70353794e-01
      2.70353794e-01 2.70353794e-01 2.70353794e-01 2.70353794e-01
      8.82710144e-02 1.29744913e-02 1.71889454e-01 9.89481509e-02
      1.72916666e-01 1.97887212e-01 2.21486092e-01 2.45752692e-01
      2.21491665e-01 6.44109547e-02 5.18067963e-02 3.11522540e-02
      9.69690308e-02 1.06498204e-01 6.81243315e-02 7.93174356e-02
      1.41117677e-01 3.39857548e-01 1.66348934e-01 1.03306763e-01
      5.47645278e-02 1.19577326e-01 2.03958109e-01 2.29160234e-01
      2.03323990e-01 2.65232354e-01 3.39857548e-01 1.33152738e-01
      4.04025093e-02 1.53350577e-01 9.71793383e-02 6.10200427e-02
      3.82536091e-02 2.88232956e-02 9.72933173e-02 3.39857548e-01
      1.69793904e-01 3.29951942e-02 5.21928035e-02 3.52001116e-02
      9.28399265e-02 8.10415745e-02 7.52441883e-02 2.12949514e-01
      3.17686170e-01 1.78706393e-01 3.00112870e-02 1.23491464e-02
      2.04136800e-02 1.67264596e-01 1.47300720e-01 1.18236095e-01
      2.72824585e-01 3.17686170e-01 2.31622502e-01 4.60274518e-02
      2.23227888e-02 4.76601161e-02 2.61501912e-02 1.72309987e-02
      6.83824252e-03 1.46277994e-01 3.17686170e-01 2.70100981e-01
      6.19710572e-02 6.44107983e-02 3.69980782e-02 1.32814944e-01
      8.34996104e-02 4.93401177e-02 1.69405416e-01 3.17686170e-01
      3.17686170e-01 9.64908451e-02 9.29264799e-02 1.32469714e-01
      7.73390383e-02 1.57552630e-01 1.89476311e-01 1.20793834e-01
      1.19361632e-01 5.98293394e-02 1.15372520e-02 1.45436302e-02
      1.85381863e-02 1.63365632e-01 2.43349865e-01 2.43349865e-01
      2.43349865e-01 1.81675419e-01 5.67892753e-02 9.47140716e-03
      9.71473902e-02 5.70041873e-02 2.43349865e-01 2.43349865e-01
      2.43349865e-01 2.10630864e-01 1.21617004e-01 1.40096262e-01
      3.90416458e-02 4.71544713e-02 1.52662233e-01 2.43349865e-01
      2.43349865e-01 2.43349865e-01 2.43349865e-01 2.43349865e-01
      1.71027645e-01 3.50635611e-02 1.24500908e-01 1.37231857e-01
      1.53404847e-01 1.68379530e-01 1.48675025e-01 2.04379797e-01
      4.11143869e-01 1.11085698e-01 2.94126011e-02 1.18995182e-01
      7.09256828e-02 4.22614068e-02 2.53540110e-02 1.68268010e-02
      6.82361498e-02 4.11143869e-01 1.28588080e-01 1.94608942e-02
      3.90223265e-02 2.24346183e-02 1.27082452e-01 1.32623106e-01
      1.08581603e-01 1.70366406e-01 4.11143869e-01 1.81582481e-01
      1.88889429e-02 8.41971710e-02 4.74566557e-02 1.03663104e-02
      7.12270150e-03 7.76534341e-03 7.79546425e-02 4.11143869e-01
      1.44957289e-01 1.25716850e-02 2.27875076e-02 7.93409161e-03
      2.83396710e-02 1.60310566e-02 3.93035403e-03 1.18026920e-01
      2.88654566e-01 2.40262434e-01 6.76009506e-02 7.08943978e-02
      4.22422178e-02 1.44883424e-01 7.67940730e-02 4.12641466e-02
      1.41892135e-01 2.88654566e-01 2.88654566e-01 9.89528373e-02
      9.71543714e-02 1.52934551e-01 5.55839390e-02 2.92578600e-02
      2.02284125e-03 5.73024936e-02 2.33867794e-01 2.06878588e-01
      1.72969997e-01 1.77921146e-01 1.26039580e-01 2.88654566e-01
      1.22619122e-01 3.46990600e-02 1.08531274e-01 1.76457211e-01
      2.22900972e-01 2.20134065e-01 2.56057411e-01 2.88654566e-01
      2.27674663e-01 2.03352734e-01 2.29828089e-01 1.77431107e-01
      9.58672687e-02 1.15420200e-01 3.30670848e-02 4.03372534e-02
      1.48359284e-01 2.35979393e-01 2.35979393e-01 2.35979393e-01
      2.35979393e-01 1.98312506e-01 1.38843119e-01 2.92010959e-02
      9.58557725e-02 1.12639032e-01 2.35979393e-01 2.25774318e-01
      1.85317501e-01 2.00194299e-01 4.10633720e-02 9.77143571e-02
      3.91309075e-02 4.54596803e-02 2.35979393e-01 1.94578737e-01
      2.35725209e-01 1.91745296e-01 2.35979393e-01 9.52545404e-02
      9.67485756e-02 4.37941439e-02 3.09209526e-02 1.00209117e-01
      1.16382949e-01 1.20326027e-01 1.09867655e-01 1.60743922e-01
      4.04454947e-01 1.83222950e-01 2.48490237e-02 7.00259358e-02
      4.47706506e-02 8.26092437e-03 5.73497918e-03 1.87038723e-02
      8.19390118e-02 4.04454947e-01 1.46014437e-01 1.66671425e-02
      1.83001794e-02 1.18732732e-02 5.21909893e-02 9.11878943e-02
      8.85610804e-02 9.30357501e-02 4.04454947e-01 1.62100792e-01
      1.34105012e-01 8.83168131e-02 1.30580321e-01 1.78685803e-02
      1.05189987e-01 1.33428872e-01 1.70188710e-01 4.04454947e-01
      1.37935609e-01 8.30202103e-02 6.27424344e-02 1.43874988e-01
      7.64857307e-02 4.01931666e-02 3.13204620e-03 6.87059462e-02
      2.58575946e-01 2.58658588e-01 2.37000808e-01 2.48041853e-01
      1.80882320e-01 2.79092848e-01 1.65073976e-01 4.43177335e-02
      1.37613058e-01 1.95756271e-01 2.74530768e-01 2.79092848e-01
      2.79092848e-01 2.79092848e-01 2.60927547e-02 3.48246074e-03
      8.10596161e-03 7.37445848e-03 4.62876074e-02 7.12643415e-02
      6.46907091e-02 8.42127874e-02 7.87606388e-02 2.79092848e-01
      4.07113396e-02 2.92228740e-02 1.69526096e-02 2.64297016e-02
      6.10789321e-02 8.13454911e-02 1.79672971e-01 2.79092848e-01
      2.74250299e-01 2.74250299e-01 2.63970286e-01 2.74250299e-01
      5.80849163e-02 1.38149962e-01 5.78118563e-02 6.74927235e-02
      2.74250299e-01 2.74250299e-01 2.74250299e-01 2.70496070e-01
      2.74250299e-01 1.38456389e-01 1.36188641e-01 6.53563142e-02
      4.10068519e-02 1.46261290e-01 2.74250299e-01 1.42574504e-01
      8.56716037e-02 5.14092445e-02 5.07893506e-03 1.19327661e-02
      1.67602152e-02 5.61158136e-02 2.74250299e-01 1.31813884e-01
      1.04920283e-01 8.92472565e-02 5.35725243e-02 1.31616406e-02
      2.46557631e-02 3.48314233e-02 3.98327298e-02 7.32460320e-02
      7.27361292e-02 1.37382582e-01 1.25513047e-01 1.32044315e-01
      3.60554904e-01 2.35844120e-01 2.07464576e-01 1.43755108e-01
      2.10082188e-01 3.05769332e-02 1.77433312e-01 2.04901308e-01
      2.61559784e-01 3.60554904e-01 2.03364104e-01 1.27575621e-01
      1.03642315e-01 2.34775811e-01 5.84330224e-02 8.26524496e-02
      7.10484833e-02 4.33881991e-02 7.08808228e-02 6.25408068e-02
      1.17779955e-01 1.30678400e-01 1.96190611e-01 4.47770990e-02
      1.62605152e-01 1.28476143e-01 1.58755332e-01 1.63259983e-01
      3.84497233e-02 6.76192194e-02 8.93124491e-02 2.07082644e-01</_>
    <_>
      1.52682839e-02 1.23014878e-02 1.27407033e-02 1.67314354e-02
      1.77473892e-02 7.68025918e-03 6.49789069e-03 2.22262461e-02
      2.27294974e-02 3.43688652e-02 2.85761859e-02 2.70453356e-02
      1.93518009e-02 4.24144305e-02 1.59953907e-02 1.32145854e-02
      6.88024089e-02 9.80031565e-02 2.42046133e-01 2.48911411e-01
      1.69951767e-01 2.62146801e-01 1.09248221e-01 1.41228661e-02
      1.56739149e-02 4.22006808e-02 1.58047676e-01 3.11433941e-01
      3.11433941e-01 2.06509307e-01 3.11433941e-01 2.09017545e-01
      2.22247094e-01 3.11433941e-01 3.11433941e-01 3.11433941e-01
      2.05155890e-02 1.21987276e-02 1.63858812e-02 1.82343461e-03
      4.66818102e-02 9.84077714e-03 1.93163212e-02 3.78843062e-02
      6.12962134e-02 3.15652527e-02 1.95636079e-02 1.49783250e-02
      1.25764050e-02 6.89981282e-02 2.79493537e-02 2.57748943e-02
      5.23857772e-03 2.28249282e-02 2.56153166e-01 9.63583365e-02
      5.46141863e-02 6.92656934e-02 1.69291839e-01 2.90107816e-01
      2.90107816e-01 2.90107816e-01 2.90107816e-01 2.90107816e-01
      2.90107816e-01 2.90107816e-01 2.90107816e-01 2.90107816e-01
      1.22158252e-01 1.23567276e-01 1.51601136e-01 2.40675792e-01
      4.55657952e-02 2.25999262e-02 1.21277943e-02 1.20133292e-02
      5.21304533e-02 4.10721973e-02 3.44346501e-02 1.06293131e-02
      4.50707786e-02 2.63589434e-02 2.09378432e-02 1.03249997e-02
      1.20657384e-02 1.09771520e-01 2.22912263e-02 2.31885687e-02
      2.20798254e-02 5.09194136e-02 2.79026151e-01 2.79026151e-01
      2.48605534e-01 1.50699824e-01 2.79026151e-01 2.32945234e-01
      2.79026151e-01 2.79026151e-01 2.79026151e-01 1.85355276e-01
      7.33410642e-02 2.08321083e-02 1.79564282e-02 1.80142343e-01
      2.37963170e-01 2.79026151e-01 2.79026151e-01 2.79026151e-01
      6.40879944e-02 7.38448575e-02 4.48372848e-02 6.95906952e-02
      2.86878832e-02 5.60366409e-03 7.55708246e-03 9.56119504e-03
      3.86391655e-02 1.74132288e-01 1.22666501e-01 6.41660988e-02
      1.03133418e-01 5.73789813e-02 6.45418167e-02 9.00572762e-02
      1.18417628e-01 1.95009232e-01 2.02237174e-01 2.60722935e-01
      1.39349386e-01 2.60722935e-01 2.60722935e-01 8.35894197e-02
      5.57149313e-02 8.76491815e-02 6.13661483e-02 2.60722935e-01
      2.60722935e-01 2.58701205e-01 2.60722935e-01 2.60722935e-01
      2.53197819e-01 2.14993566e-01 2.18667597e-01 2.60722935e-01
      6.97335899e-02 3.20491977e-02 2.74099018e-02 3.40692997e-02
      5.95941544e-02 9.99250636e-02 1.42773807e-01 1.21828921e-01
      1.14715531e-01 1.53605193e-01 1.26243412e-01 1.34952232e-01
      1.03601158e-01 1.50658786e-01 4.52786945e-02 4.34619300e-02
      5.27739562e-02 6.33975118e-02 2.23538429e-01 2.31343910e-01
      1.91299707e-01 2.31343910e-01 2.31343910e-01 2.31343910e-01
      1.99587286e-01 1.55446470e-01 2.04219341e-01 2.31343910e-01
      2.07107231e-01 2.05357701e-01 2.31343910e-01 2.31343910e-01
      2.15626284e-01 1.60593420e-01 2.31343910e-01 2.19693154e-01
      1.73917279e-01 1.10256687e-01 7.28661641e-02 4.67727371e-02
      1.02636568e-01 8.24425220e-02 9.92836058e-02 1.44970745e-01
      1.46731406e-01 4.97072563e-02 2.34378856e-02 5.67893684e-03
      5.22025442e-03 5.05104922e-02 8.16645250e-02 1.15131900e-01
      1.14000194e-01 7.98673555e-02 1.94454819e-01 2.21093133e-01
      9.06043276e-02 1.68773353e-01 2.74020493e-01 2.74020493e-01
      2.74020493e-01 2.74020493e-01 2.49976248e-01 7.45542124e-02
      1.02597907e-01 5.75189572e-03 7.63756037e-02 2.74020493e-01
      2.74020493e-01 2.74020493e-01 2.74020493e-01 1.55468091e-01
      1.10777572e-01 1.80853859e-01 7.93603435e-02 2.09885120e-01
      2.72318721e-01 5.94258234e-02 3.12168952e-02 5.16178869e-02
      3.32169682e-02 1.92406103e-01 2.92160839e-01 1.46834493e-01
      3.09192121e-01 2.84816831e-01 1.58648938e-01 1.19366020e-01
      1.21864356e-01 1.43332034e-01 4.01958264e-02 6.97918013e-02
      2.73519326e-02 1.62111089e-01 3.23696077e-01 1.65328324e-01
      1.49613144e-02 3.55657935e-02 6.17874134e-03 7.23550543e-02
      1.36405125e-01 6.97775111e-02 2.83232749e-01 3.23696077e-01
      1.96035355e-01 3.82188670e-02 4.74480316e-02 2.29497999e-02
      1.35697857e-01 1.49207056e-01 1.10465348e-01 1.48596942e-01
      1.49611697e-01 1.50270119e-01 1.07684560e-01 8.23264271e-02
      1.15391463e-01 1.45933568e-01 1.12395726e-01 1.12372421e-01
      1.35547489e-01 2.56601125e-01 1.35073826e-01 9.69534591e-02
      1.74458429e-01 1.32342637e-01 1.96692854e-01 1.76222026e-01
      1.46236956e-01 2.56601125e-01 2.56601125e-01 2.24496767e-01
      8.73297751e-02 5.87133877e-02 1.14524037e-01 2.15405300e-01
      9.70836058e-02 8.45407397e-02 1.86417639e-01 2.56601125e-01
      2.56601125e-01 2.06006125e-01 1.82306737e-01 1.92256361e-01
      9.71875563e-02 1.19210251e-01 4.89013977e-02 9.83639508e-02
      3.40706795e-01 2.32167408e-01 1.70175895e-01 2.82799125e-01
      1.32107973e-01 3.84081192e-02 5.74140288e-02 3.14258737e-03
      4.68917377e-02 3.41612548e-01 2.40162328e-01 1.93190619e-01
      2.00306982e-01 8.11010897e-02 3.42820399e-02 3.42090987e-02
      1.90923922e-02 1.01424314e-01 3.41612548e-01 2.51620412e-01
      7.40794912e-02 1.22781552e-01 6.28540963e-02 1.35096535e-02
      2.73403544e-02 6.33360073e-03 9.85412672e-02 3.41612548e-01
      2.15898335e-01 5.66772856e-02 6.15066662e-02 2.45548412e-02
      2.72115022e-02 4.73476015e-02 2.19835378e-02 1.31180584e-01
      3.52140635e-01 1.62759557e-01 1.52911916e-02 2.68859193e-02
      4.06601420e-03 5.61408177e-02 1.00300044e-01 5.87317273e-02
      2.35402286e-01 3.52140635e-01 1.82006001e-01 3.50758135e-02
      4.32588197e-02 1.70964878e-02 5.31203970e-02 1.11854880e-03
      4.56069373e-02 4.33022864e-02 3.52140635e-01 2.37494498e-01
      1.40002847e-01 1.12783946e-01 3.83264273e-02 2.64079332e-01
      4.14031185e-02 9.28037763e-02 6.99004084e-02 3.52140635e-01
      2.51495779e-01 1.61611199e-01 2.01023787e-01 1.78983271e-01
      1.26702487e-01 1.12454079e-01 9.59751308e-02 1.97966874e-01
      2.48480111e-01 1.50335819e-01 5.54530360e-02 4.31986451e-02
      7.51927868e-02 1.40427783e-01 6.56793416e-02 6.12849332e-02
      1.15493044e-01 2.48480111e-01 2.48480111e-01 1.30859002e-01
      1.16541713e-01 1.32834822e-01 2.48480111e-01 1.29504472e-01
      1.27305299e-01 1.22504331e-01 2.48480111e-01 2.19013914e-01
      8.32236856e-02 1.16369776e-01 2.07350686e-01 2.39414901e-01
      1.44767940e-01 1.36709675e-01 1.00883648e-01 2.48480111e-01
      2.48480111e-01 1.40215218e-01 1.32595018e-01 2.48480111e-01
      3.84126604e-02 3.17397565e-02 2.59032138e-02 9.34309065e-02
      3.72430474e-01 2.25577340e-01 5.79858273e-02 9.48266089e-02
      6.06754981e-02 1.25472220e-02 2.33993363e-02 1.59718283e-02
      9.64028984e-02 3.72430474e-01 1.86147377e-01 3.71540412e-02
      4.32398096e-02 2.21808068e-02 2.49495342e-01 1.51735395e-01
      1.28565982e-01 1.52929902e-01 3.72430474e-01 1.36831865e-01
      3.31687890e-02 7.55707398e-02 2.20206544e-01 7.85582960e-02
      1.40179485e-01 1.44573465e-01 2.29613051e-01 3.72430474e-01
      9.89645571e-02 4.87219979e-04 2.87393611e-02 6.87876940e-02
      5.48842885e-02 1.11614249e-03 4.46301736e-02 3.80680449e-02
      2.84528404e-01 2.27744758e-01 1.52929679e-01 1.23861670e-01
      4.36304249e-02 2.84528404e-01 4.25700136e-02 9.49273333e-02
      5.72995879e-02 2.84528404e-01 2.45555237e-01 1.79943264e-01
      2.17291653e-01 2.08854169e-01 5.06117605e-02 2.31882697e-03
      2.18963381e-02 4.62639658e-03 1.31651640e-01 1.47559032e-01
      1.84430078e-01 1.68342516e-01 8.96134004e-02 2.84528404e-01
      4.38268520e-02 7.50866383e-02 1.28430538e-02 1.42817289e-01
      1.49679437e-01 2.27511719e-01 2.84528404e-01 2.84528404e-01
      2.31153861e-01 1.18585348e-01 1.09804548e-01 9.55428332e-02
      2.50002742e-01 1.77703217e-01 7.65875950e-02 9.98888612e-02
      1.94572315e-01 2.16862857e-01 1.32711172e-01 1.16359822e-01
      8.18504617e-02 2.50002742e-01 2.32482091e-01 1.23063117e-01
      1.14300452e-01 2.50002742e-01 2.50002742e-01 1.91016614e-01
      1.25645757e-01 4.50452045e-02 7.27883354e-02 7.18930587e-02
      1.08166836e-01 1.07072107e-01 2.50002742e-01 2.50002742e-01
      1.98960528e-01 1.10880464e-01 4.78809737e-02 1.06180340e-01
      9.69434008e-02 1.81703418e-01 1.51980937e-01 2.50002742e-01
      2.78544515e-01 1.68189466e-01 1.41504064e-01 1.65528238e-01
      2.84457386e-01 1.26687557e-01 3.42380553e-02 7.94457123e-02
      2.39099607e-01 8.60762745e-02 1.53693587e-01 1.57123148e-01
      2.48972192e-01 2.84457386e-01 9.04178321e-02 5.35043888e-04
      2.93355286e-02 7.06389695e-02 2.84457386e-01 2.21962690e-01
      1.51620060e-01 1.45241737e-01 1.56153843e-01 2.97013558e-02
      4.17910181e-02 7.47486874e-02 2.84457386e-01 1.24381632e-01
      1.79832712e-01 1.71758533e-01 2.51478404e-01 1.91226304e-01
      1.90033168e-02 1.80083804e-03 1.73732415e-02 6.34336025e-02
      7.67688602e-02 4.73672291e-03 3.31213549e-02 4.06297669e-03
      1.87223062e-01 2.38436326e-01 3.06238204e-01 2.74717540e-01
      1.51835859e-01 3.13092738e-01 7.30691254e-02 1.24240480e-01
      1.84901375e-02 2.15280786e-01 2.47884840e-01 3.13092738e-01
      3.13092738e-01 3.13092738e-01 1.84229854e-02 1.31031871e-02
      6.66731223e-03 1.60213618e-03 4.65080030e-02 5.66143431e-02
      5.28085493e-02 4.94994633e-02 6.67551756e-02 2.00084135e-01
      4.18645814e-02 1.34421000e-02 3.27846385e-03 1.99283846e-02
      4.14393917e-02 8.55616331e-02 1.39832094e-01 3.13092738e-01
      2.81752616e-01 2.72206843e-01 1.84931964e-01 6.34387881e-02
      9.08975154e-02 9.72458273e-02 1.61906168e-01 1.49351075e-01
      2.81752616e-01 2.81752616e-01 2.81163305e-01 1.60700724e-01
      6.89970702e-02 1.35289162e-01 1.28706142e-01 2.71665096e-01
      2.13409618e-01 2.81752616e-01 2.03693897e-01 6.87912628e-02
      3.07952054e-02 1.08750882e-02 8.97504215e-04 6.01858599e-03
      5.47038130e-02 6.81726858e-02 2.31818870e-01 2.47163713e-01
      8.73076543e-02 4.31901291e-02 9.34857316e-03 7.59508752e-04
      9.82143171e-03 5.52749336e-02 8.25915262e-02 2.18834952e-01
      2.79425472e-01 2.79425472e-01 2.54356325e-01 2.43697673e-01
      2.34201744e-01 4.01404984e-02 7.31146559e-02 1.17700405e-01
      2.79425472e-01 1.99805483e-01 2.79425472e-01 2.79425472e-01
      2.79425472e-01 2.69281566e-01 2.65626777e-02 3.73985386e-03
      2.50480212e-02 1.02275215e-01 2.79425472e-01 1.08003013e-01
      6.85691088e-02 3.77790928e-02 2.11212393e-02 1.51858581e-02
      2.17344388e-02 5.79290427e-02 2.42554873e-01 1.06378585e-01
      8.71530250e-02 8.38744864e-02 8.76776278e-02 8.16584080e-02
      2.23446898e-02 7.53151532e-03 1.21496618e-02 6.73169941e-02</_>
    <_>
      7.09425360e-02 5.09850234e-02 3.27514857e-02 5.40865585e-03
      1.20338731e-01 1.14878314e-02 6.63205758e-02 3.62619273e-02
      6.27118871e-02 8.41699541e-02 1.48617566e-01 1.27883568e-01
      3.14773694e-02 1.99992120e-01 6.59634471e-02 1.40691042e-01
      1.04179874e-01 1.02098234e-01 1.76023707e-01 4.24511284e-02
      1.73358507e-02 8.11109617e-02 1.32088125e-01 5.96688651e-02
      1.58714548e-01 1.61692098e-01 1.85394838e-01 2.95614213e-01
      2.95614213e-01 2.95614213e-01 2.95614213e-01 2.48163864e-01
      1.11520655e-01 2.95614213e-01 2.95614213e-01 2.95614213e-01
      5.40776663e-02 3.88763398e-02 1.73719153e-02 3.47997225e-03
      1.81888118e-02 8.09744652e-03 9.83340386e-03 1.14595704e-02
      2.30344776e-02 1.15440711e-01 5.75846769e-02 7.87769537e-03
      3.63669940e-03 1.17781600e-02 2.36450951e-03 2.16498785e-02
      2.75521111e-02 4.10106741e-02 3.91887784e-01 3.33474308e-01
      2.59492069e-01 1.64546594e-01 6.38917536e-02 5.62396878e-03
      1.76242776e-02 3.46002914e-02 2.87547171e-01 3.91887784e-01
      2.64358312e-01 1.43600002e-01 1.02423288e-01 1.30927905e-01
      1.04175642e-01 2.22310871e-01 1.93248138e-01 3.91887784e-01
      8.60771760e-02 5.91525063e-02 1.46812750e-02 1.77597627e-02
      4.56984453e-02 2.20400915e-02 1.01817161e-01 1.05515607e-01
      5.63734174e-02 1.06824376e-02 4.57551517e-02 2.69553326e-02
      4.68563139e-02 1.36684850e-01 4.68723439e-02 5.05388379e-02
      8.82233828e-02 3.42901014e-02 3.55630875e-01 8.75524431e-02
      1.94702614e-02 4.88516726e-02 3.55630875e-01 3.55630875e-01
      3.55630875e-01 3.55630875e-01 3.55630875e-01 1.46973943e-02
      5.28893247e-02 3.31897140e-02 8.48299563e-02 2.49152839e-01
      1.95186317e-01 1.26106784e-01 1.33768961e-01 7.53552318e-02
      4.20883559e-02 1.35422135e-02 9.84814297e-03 2.11014915e-02
      2.77980193e-02 1.32912965e-02 3.57151106e-02 3.87839489e-02
      4.26640585e-02 1.17204614e-01 1.70387238e-01 1.68577448e-01
      9.76893231e-02 5.66426106e-02 2.56115012e-02 6.83204755e-02
      7.99039975e-02 1.28299624e-01 1.03802986e-01 1.74317583e-01
      2.02147260e-01 1.49049997e-01 4.35456894e-02 2.75060311e-02
      3.09922285e-02 4.09343913e-02 3.79248485e-02 3.93943310e-01
      3.93943310e-01 3.93943310e-01 3.93943310e-01 2.96766847e-01
      4.48110625e-02 1.85803220e-01 8.38380605e-02 1.12010859e-01
      2.23887652e-01 1.08184196e-01 8.64462033e-02 5.74325211e-02
      2.17844546e-02 5.15920669e-03 7.15944124e-03 9.36562568e-03
      8.97930712e-02 2.61146307e-01 7.88890794e-02 4.71035205e-02
      3.89728919e-02 5.54824285e-02 4.19140011e-02 7.26661608e-02
      5.43749332e-02 2.61146307e-01 2.61146307e-01 2.61146307e-01
      2.28452697e-01 2.61146307e-01 1.91873625e-01 6.16972148e-02
      1.35582104e-01 3.66340391e-02 1.69355080e-01 2.61146307e-01
      1.32892936e-01 8.87903124e-02 2.59181440e-01 2.61146307e-01
      2.53238589e-01 2.15562284e-01 5.42172864e-02 2.61146307e-01
      1.53651386e-01 2.55414061e-02 5.98756783e-03 1.97101049e-02
      1.59614399e-01 1.85954958e-01 2.18675479e-01 1.53828755e-01
      3.45838159e-01 4.06217109e-03 1.43848034e-02 9.07709263e-03
      2.35009603e-02 7.80287832e-02 7.21581653e-02 4.12605330e-02
      3.75854261e-02 2.17761025e-02 1.41940787e-01 2.11897995e-02
      9.97047126e-03 1.52561516e-01 3.45838159e-01 3.45838159e-01
      3.45838159e-01 1.03259727e-01 3.35141957e-01 3.44781205e-03
      1.44052401e-03 4.82031470e-03 1.96683817e-02 2.43158281e-01
      3.19366843e-01 1.27148226e-01 3.65525261e-02 1.26839336e-02
      2.98603550e-02 5.67195192e-02 6.88183382e-02 5.71901612e-02
      1.35582648e-02 8.85020103e-03 8.18683021e-03 1.11423172e-02
      9.40354168e-03 1.69025421e-01 2.77628511e-01 2.77628511e-01
      2.74398118e-01 1.03640683e-01 1.40811959e-02 5.98478913e-02
      2.53814403e-02 3.30615863e-02 1.22944698e-01 2.70834893e-01
      2.39295721e-01 2.77628511e-01 1.27138928e-01 3.60788256e-02
      1.24150235e-02 8.94902274e-03 2.05233935e-02 2.77628511e-01
      2.77628511e-01 2.77628511e-01 2.77628511e-01 2.77628511e-01
      1.72318831e-01 1.41202599e-01 9.46740657e-02 1.59308165e-01
      2.30405137e-01 2.14772895e-01 1.57017469e-01 2.24032477e-01
      1.48413360e-01 4.26585786e-02 9.43767428e-02 2.50544734e-02
      1.06956117e-01 2.41285861e-01 8.63414928e-02 6.00198880e-02
      1.84953764e-01 2.45123193e-01 1.75780028e-01 1.40119553e-01
      3.24341990e-02 2.36653149e-01 2.45123193e-01 2.02917352e-01
      1.63125128e-01 1.97195068e-01 2.45123193e-01 9.73757207e-02
      1.08852319e-01 6.84973672e-02 1.84066817e-01 1.91754714e-01
      8.38989317e-02 1.08613275e-01 1.80451185e-01 2.45123193e-01
      2.16284335e-01 7.73465708e-02 4.88715246e-02 1.31771460e-01
      5.96785881e-02 9.64539312e-03 4.83713858e-03 7.80072808e-02
      2.91686267e-01 2.91686267e-01 1.68130621e-01 4.40581851e-02
      1.40257567e-01 1.55105570e-03 4.32865229e-04 2.12001870e-03
      8.72139819e-03 1.27015531e-01 1.59436166e-01 6.47250786e-02
      2.04087812e-02 9.67795216e-03 2.37569004e-01 1.15888314e-02
      2.93982811e-02 8.88371095e-02 2.91686267e-01 2.91686267e-01
      1.59467265e-01 1.99039400e-01 2.91686267e-01 1.90759122e-01
      2.39027501e-03 1.16147450e-03 3.16696540e-02 2.91686267e-01
      2.40872264e-01 1.77425191e-01 1.95614323e-01 2.91686267e-01
      8.81114975e-02 1.70613125e-01 1.44141048e-01 2.04851210e-01
      9.46438462e-02 3.11192349e-02 1.59905218e-02 5.09627210e-03
      1.77658629e-02 2.64610589e-01 2.64610589e-01 2.64610589e-01
      2.64610589e-01 1.94273502e-01 1.08758412e-01 8.88536945e-02
      5.65069281e-02 1.25070706e-01 2.34093636e-01 1.38723895e-01
      7.37143755e-02 2.07577065e-01 2.28759572e-01 1.44312069e-01
      1.40994176e-01 1.00406796e-01 1.35538995e-01 2.64610589e-01
      1.72059342e-01 7.65877590e-02 1.89105511e-01 1.51873887e-01
      1.32398143e-01 1.43965691e-01 1.19157791e-01 2.64610589e-01
      2.80540019e-01 1.86603442e-01 1.52988926e-01 1.74091414e-01
      2.33510032e-01 9.44992155e-02 9.78716910e-02 6.70915395e-02
      2.19155043e-01 2.15366557e-01 8.02316964e-02 1.10078774e-01
      1.62863076e-01 2.82819957e-01 2.01288536e-01 6.65924922e-02
      5.01740314e-02 1.54059991e-01 2.82819957e-01 4.60749045e-02
      4.13098224e-02 3.25568393e-02 5.58574870e-02 8.03200603e-02
      4.71754447e-02 9.47394669e-02 2.82819957e-01 2.82819957e-01
      7.82160312e-02 1.15590848e-01 8.44784975e-02 1.82973847e-01
      1.77869171e-01 7.22836405e-02 1.38386071e-01 2.82819957e-01
      1.85028523e-01 1.32546630e-02 2.15555299e-02 5.43263443e-02
      2.52666980e-01 2.28465244e-01 9.77243930e-02 1.28527641e-01
      2.32390001e-01 1.42719507e-01 1.15704844e-02 4.50214837e-03
      3.26473936e-02 2.06962526e-01 1.49352625e-01 1.15130961e-01
      1.27678618e-01 2.10282028e-01 2.52666980e-01 2.15957150e-01
      1.52115956e-01 1.17478982e-01 1.90971702e-01 1.24562792e-01
      7.40013123e-02 1.28619343e-01 2.52666980e-01 2.52666980e-01
      2.12928891e-01 9.60606486e-02 1.93996519e-01 2.52666980e-01
      1.12505987e-01 9.43929404e-02 1.11701027e-01 2.52666980e-01
      2.79225022e-01 1.47577256e-01 7.42891431e-02 2.37438530e-01
      2.76239127e-01 1.68942526e-01 1.70533702e-01 1.32463947e-01
      1.77195951e-01 3.03799748e-01 1.76505968e-01 7.06014112e-02
      2.01128259e-01 1.71009824e-01 1.41682506e-01 1.68710977e-01
      1.49453700e-01 3.03799748e-01 1.25878945e-01 1.57351904e-02
      1.82761985e-03 1.50029808e-02 5.59965149e-02 7.90914372e-02
      9.66312438e-02 1.39079168e-01 1.53159544e-01 3.03799748e-01
      4.05326262e-02 2.80816597e-03 1.25920866e-02 1.94967352e-02
      3.98684740e-02 7.46657252e-02 1.39120743e-01 3.03799748e-01
      2.81803817e-01 3.67105603e-02 3.28945145e-02 2.82597449e-02
      4.65238243e-02 8.57406184e-02 5.13374507e-02 1.06595919e-01
      2.81803817e-01 2.81803817e-01 8.64942595e-02 1.22384608e-01
      9.52473059e-02 1.59414694e-01 2.03067198e-01 8.83674249e-02
      1.62814528e-01 2.81803817e-01 2.77430028e-01 1.07748201e-02
      5.46253379e-03 1.09024048e-02 1.29985847e-02 7.87000060e-02
      6.60269409e-02 1.28709868e-01 2.81803817e-01 2.81636894e-01
      1.19805783e-01 1.44049659e-01 8.53159726e-02 6.94876909e-02
      2.13310659e-01 1.61903560e-01 2.42276564e-01 2.81803817e-01
      2.51362741e-01 2.48436585e-01 1.85959429e-01 1.38254806e-01
      1.79403096e-01 1.23329639e-01 7.41850734e-02 1.24809861e-01
      2.51362741e-01 2.51362741e-01 2.33968019e-01 1.13082632e-01
      2.10880160e-01 2.51362741e-01 1.09988779e-01 9.16376188e-02
      1.05431765e-01 2.51362741e-01 2.51362741e-01 2.51362741e-01
      2.51362741e-01 1.30181387e-01 5.74802198e-02 5.33665381e-02
      3.91059294e-02 5.35130650e-02 1.51424885e-01 1.70243248e-01
      1.94372192e-01 1.41666502e-01 1.29452646e-01 9.06595439e-02
      8.62468686e-03 1.24333205e-03 1.74394599e-03 4.70012426e-02
      2.91303068e-01 3.61212008e-02 4.73104184e-03 1.09833144e-02
      1.00328662e-01 1.77396476e-01 2.27648988e-01 3.50167185e-01
      3.90604019e-01 3.90604019e-01 9.90301743e-02 9.34269652e-03
      1.92626417e-02 3.24281566e-02 9.18257236e-02 1.73873216e-01
      3.56945723e-01 3.90604019e-01 2.91364882e-02 1.09884394e-02
      2.79321824e-03 1.55218306e-03 5.80429286e-02 2.30639055e-02
      5.95013574e-02 5.16811498e-02 3.46816778e-02 1.15687087e-01
      4.84874398e-02 1.84820574e-02 3.07260528e-02 3.50044817e-02
      3.01808678e-02 6.61247224e-02 7.50362203e-02 1.31362900e-01
      2.94002652e-01 2.03437768e-02 1.18155191e-02 2.29981430e-02
      2.33114641e-02 1.47740379e-01 1.23935714e-01 2.32061610e-01
      2.94002652e-01 2.94002652e-01 2.21223101e-01 2.73685843e-01
      1.52910396e-01 1.11014113e-01 2.94002652e-01 2.94002652e-01
      2.94002652e-01 2.94002652e-01 5.48145436e-02 3.88497263e-02
      2.90552918e-02 3.56174968e-02 1.76744293e-02 3.88031788e-02
      4.37253378e-02 5.92744537e-02 1.04008667e-01 1.97657719e-01
      1.24849536e-01 6.79611340e-02 1.84418317e-02 1.10126361e-02
      3.95060480e-02 5.80160879e-02 8.09185430e-02 2.09489346e-01
      2.94270486e-01 2.94270486e-01 2.94270486e-01 2.81562179e-01
      1.01707876e-01 1.11382820e-01 9.07410756e-02 1.14697166e-01
      2.94270486e-01 2.94270486e-01 2.94270486e-01 2.94270486e-01
      2.67659694e-01 1.44445524e-01 1.91274844e-02 2.44821329e-03
      7.01362907e-04 8.49526376e-02 2.46652976e-01 1.35515273e-01
      9.18083340e-02 6.44368753e-02 2.18256917e-02 1.58150792e-02
      3.65233682e-02 3.36854272e-02 1.68440580e-01 6.87492043e-02
      5.87317236e-02 6.26072660e-02 1.50919899e-01 7.64238387e-02
      2.20354833e-02 1.25856623e-02 4.85729612e-03 5.14792018e-02</_>
    <_>
      6.54792562e-02 3.13415080e-02 4.07930426e-02 3.41527127e-02
      1.38887823e-01 2.29100697e-02 2.60432810e-02 9.85303242e-03
      7.20574111e-02 7.64246583e-02 1.01839662e-01 1.74466372e-01
      1.22456752e-01 2.60434479e-01 4.58819531e-02 5.36246188e-02
      5.80911189e-02 1.08072639e-01 1.35993376e-01 8.38110223e-02
      5.83342016e-02 2.66193952e-02 1.34595945e-01 5.56377918e-02
      1.05776891e-01 1.45706668e-01 2.24693894e-01 3.40821713e-01
      3.40821713e-01 3.40821713e-01 2.67177135e-01 2.26550996e-01
      7.26426467e-02 1.50734067e-01 2.53203779e-01 3.40821713e-01
      6.33847937e-02 2.66035702e-02 3.65545750e-02 1.53050171e-02
      2.53240224e-02 9.03596263e-03 1.02803875e-02 1.34867718e-02
      3.63790579e-02 1.08455896e-01 3.33681889e-02 1.66151952e-02
      1.48754613e-02 1.82326883e-02 2.13915296e-02 4.11697030e-02
      4.13114354e-02 7.90726170e-02 3.79001945e-01 3.32949191e-01
      3.33530962e-01 1.51068434e-01 5.85980043e-02 3.31421057e-03
      7.97756854e-03 1.85585450e-02 2.93365240e-01 3.79001945e-01
      2.09728301e-01 1.60450712e-01 9.51182395e-02 1.39593154e-01
      1.03085212e-01 2.23176211e-01 1.98254317e-01 3.79001945e-01
      8.96932930e-02 4.65741865e-02 1.44372070e-02 1.64021235e-02
      5.14398590e-02 3.86348255e-02 1.05679549e-01 1.11391224e-01
      1.17534369e-01 3.97015475e-02 3.00098490e-02 2.69286446e-02
      1.89973451e-02 1.46877095e-01 5.17657921e-02 5.83202057e-02
      6.61837086e-02 6.19236566e-02 3.51470441e-01 6.00119792e-02
      5.32075725e-02 4.26993221e-02 3.51470441e-01 3.51470441e-01
      3.51470441e-01 3.51470441e-01 3.51470441e-01 3.81961428e-02
      4.27813195e-02 1.06178373e-01 8.09549764e-02 2.19356462e-01
      2.11726204e-01 1.04655609e-01 1.60289690e-01 6.84395283e-02
      2.97823418e-02 2.13239864e-02 1.58268996e-02 7.17068836e-03
      2.84319352e-02 1.28407255e-02 2.19458807e-02 3.42727527e-02
      4.92844209e-02 9.27066281e-02 2.32305333e-01 2.47086152e-01
      6.57698661e-02 5.04099689e-02 1.78319942e-02 3.26108448e-02
      5.56882136e-02 9.03169140e-02 7.89684653e-02 1.98109999e-01
      1.78247377e-01 1.27900392e-01 7.03344196e-02 2.83704363e-02
      1.62400194e-02 5.23541756e-02 6.72931150e-02 3.92813653e-01
      3.92813653e-01 3.92813653e-01 3.92813653e-01 2.70612508e-01
      9.43946019e-02 1.43771604e-01 7.83407614e-02 1.14877537e-01
      2.13479862e-01 1.14362195e-01 1.12589911e-01 5.30719608e-02
      2.08335798e-02 3.71773238e-03 5.05282544e-03 5.39591862e-03
      9.41887349e-02 2.60501593e-01 6.76029176e-02 5.39070107e-02
      3.68074588e-02 6.09291717e-02 4.06875424e-02 7.54771531e-02
      5.87653071e-02 2.60501593e-01 2.60501593e-01 2.60501593e-01
      2.51247525e-01 2.60501593e-01 1.72236577e-01 7.09340870e-02
      1.36771619e-01 2.62923352e-02 1.67273372e-01 2.60501593e-01
      1.22623399e-01 9.51591209e-02 2.52112776e-01 2.60501593e-01
      2.58892655e-01 2.11422145e-01 5.53341694e-02 2.60501593e-01
      1.79737329e-01 1.86230373e-02 1.66791640e-02 1.92688163e-02
      1.74577951e-01 1.90588623e-01 2.19971493e-01 1.82224795e-01
      3.30070049e-01 1.09404391e-02 1.22921485e-02 3.21465135e-02
      2.42208242e-02 7.14375749e-02 7.58668408e-02 3.48160937e-02
      4.67361100e-02 1.95193794e-02 1.66042641e-01 1.92520358e-02
      2.06608959e-02 1.59628361e-01 3.55191559e-01 3.55191559e-01
      3.48246604e-01 1.19861118e-01 2.84467578e-01 6.89028855e-03
      4.56191786e-03 2.67379247e-02 2.36861408e-02 2.53129244e-01
      2.95911878e-01 1.06983155e-01 4.42036055e-02 1.28098717e-02
      2.45830789e-02 6.64780214e-02 6.50449693e-02 5.17504960e-02
      2.28269864e-02 8.73368979e-03 4.43904661e-03 1.46432677e-02
      1.82737522e-02 1.57841876e-01 2.76886612e-01 2.76886612e-01
      2.76886612e-01 9.50103179e-02 3.28316018e-02 4.89129350e-02
      2.59207450e-02 3.62618342e-02 1.26382858e-01 2.61832625e-01
      2.53019154e-01 2.76886612e-01 1.50354862e-01 2.53369510e-02
      1.26479035e-02 9.55632050e-03 2.79705096e-02 2.76886612e-01
      2.76886612e-01 2.76886612e-01 2.76886612e-01 2.76886612e-01
      1.74463674e-01 1.40978798e-01 8.96533653e-02 1.53495669e-01
      2.27199942e-01 2.20117629e-01 1.71233296e-01 2.21250638e-01
      1.33441359e-01 5.18097654e-02 9.49054658e-02 1.91085152e-02
      1.05805323e-01 2.47305319e-01 8.04387927e-02 6.46442473e-02
      1.82191953e-01 2.47305319e-01 1.81747451e-01 1.37686610e-01
      3.28519046e-02 2.19607681e-01 2.47305319e-01 2.04378068e-01
      1.62804812e-01 2.12977946e-01 2.34531119e-01 1.03526048e-01
      1.10687956e-01 5.89462742e-02 1.67465463e-01 2.06393674e-01
      7.06746876e-02 1.19324528e-01 1.93687454e-01 2.47305319e-01
      2.09824800e-01 7.24181309e-02 4.43485454e-02 1.20970830e-01
      6.75496608e-02 8.51278286e-03 8.95661954e-03 7.90173337e-02
      2.94591278e-01 2.94591278e-01 1.58854634e-01 4.90558557e-02
      1.15170799e-01 3.17540229e-03 1.79600623e-03 1.07945763e-02
      1.04546417e-02 1.29170269e-01 1.43539310e-01 5.30568659e-02
      2.38440894e-02 7.30679929e-03 2.61415660e-01 9.59619693e-03
      3.01306061e-02 9.80440155e-02 2.94591278e-01 2.94591278e-01
      1.47028983e-01 2.04483896e-01 2.94591278e-01 2.04755187e-01
      3.94979026e-03 3.17089423e-03 4.54053730e-02 2.85411775e-01
      2.10394114e-01 1.78127095e-01 1.99182898e-01 2.94591278e-01
      9.08474028e-02 1.65959850e-01 1.52697086e-01 1.96844608e-01
      1.09939985e-01 2.44418606e-02 1.56361461e-02 5.36759710e-03
      2.16585621e-02 2.61696905e-01 2.61696905e-01 2.61696905e-01
      2.61696905e-01 1.92464903e-01 1.11550145e-01 8.77889246e-02
      5.30707538e-02 1.19628847e-01 2.48718202e-01 1.36295870e-01
      7.09230751e-02 2.04495206e-01 2.51152426e-01 1.49109945e-01
      1.23042963e-01 1.01050578e-01 1.23554841e-01 2.61696905e-01
      1.82635441e-01 8.03458616e-02 1.84777170e-01 1.65297776e-01
      1.38524964e-01 1.22074477e-01 1.10832222e-01 2.61696905e-01
      2.82011867e-01 1.88965052e-01 1.53489143e-01 1.90172374e-01
      2.24293858e-01 9.98924524e-02 9.93076041e-02 5.80609180e-02
      1.98424339e-01 2.33727708e-01 6.78596944e-02 1.21149041e-01
      1.76180154e-01 2.82011867e-01 1.92318544e-01 6.36366308e-02
      4.45024334e-02 1.41036332e-01 2.82011867e-01 4.21620719e-02
      5.52243888e-02 3.41536514e-02 6.96313903e-02 7.17607513e-02
      5.62628992e-02 8.47722441e-02 2.82011867e-01 2.82011867e-01
      7.18295127e-02 1.23257227e-01 9.62056071e-02 2.05052063e-01
      1.48260742e-01 1.10547982e-01 1.07780024e-01 2.82011867e-01
      2.00930357e-01 1.21069355e-02 2.16054209e-02 6.00705743e-02
      2.55485862e-01 2.09715948e-01 9.05003101e-02 1.28028437e-01
      2.39342481e-01 1.52090162e-01 1.20631112e-02 5.51939057e-03
      4.30057645e-02 1.92230925e-01 1.29027933e-01 1.14509583e-01
      1.27047524e-01 2.19979376e-01 2.55485862e-01 2.06232533e-01
      1.32349655e-01 1.45338163e-01 1.92756429e-01 9.50058401e-02
      9.12047178e-02 1.13798283e-01 2.55485862e-01 2.55485862e-01
      1.98428661e-01 8.69312063e-02 2.30472401e-01 2.55485862e-01
      9.60000008e-02 9.72373188e-02 1.07814081e-01 2.55485862e-01
      2.96835661e-01 1.47586301e-01 6.87734261e-02 2.35442027e-01
      2.98528969e-01 1.75959751e-01 1.48093939e-01 1.32654116e-01
      1.62807137e-01 2.98528969e-01 1.90883204e-01 7.47770444e-02
      1.98372096e-01 1.84017807e-01 1.52857214e-01 1.39697060e-01
      1.38992339e-01 2.98528969e-01 1.43613458e-01 1.93216205e-02
      3.43381916e-03 1.45935109e-02 7.34280720e-02 8.03149194e-02
      8.21541622e-02 1.40912160e-01 1.42796338e-01 2.98528969e-01
      4.89262193e-02 6.31702226e-03 8.53058137e-03 2.45731343e-02
      4.01883572e-02 6.31697252e-02 1.34712815e-01 2.98528969e-01
      2.79044062e-01 3.22348066e-02 4.80846055e-02 2.93192901e-02
      6.03373013e-02 7.82210380e-02 6.04890324e-02 9.89468694e-02
      2.79044062e-01 2.79044062e-01 8.28258470e-02 1.27950966e-01
      1.06504232e-01 1.83063045e-01 1.72332391e-01 1.31596297e-01
      1.33006796e-01 2.79044062e-01 2.79044062e-01 1.39232529e-02
      1.00241583e-02 5.79644600e-03 1.01611372e-02 7.55896419e-02
      7.58837089e-02 1.28346920e-01 2.79044062e-01 2.75495440e-01
      1.37758553e-01 1.24619409e-01 9.08359066e-02 7.93407708e-02
      2.01269373e-01 1.96252450e-01 2.44105145e-01 2.79044062e-01
      2.52788752e-01 2.43402585e-01 1.58636615e-01 1.72328174e-01
      1.83910668e-01 9.33984593e-02 9.48878378e-02 1.10171266e-01
      2.52788752e-01 2.52788752e-01 2.22254649e-01 1.00385822e-01
      2.52788752e-01 2.52788752e-01 9.59242657e-02 9.48546827e-02
      1.03055745e-01 2.52788752e-01 2.52788752e-01 2.52788752e-01
      2.29044020e-01 1.58001512e-01 7.70892799e-02 4.63652797e-02
      4.84080873e-02 5.45185544e-02 1.57692075e-01 1.48885727e-01
      1.94967940e-01 1.07790202e-01 1.40935466e-01 9.58285630e-02
      8.46728403e-03 1.67759240e-03 2.74095475e-03 5.95035478e-02
      3.35992992e-01 4.41872366e-02 1.02405883e-02 9.52064246e-03
      1.45387098e-01 1.79033518e-01 1.94191828e-01 3.56634855e-01
      3.68825227e-01 3.84620965e-01 1.18078396e-01 1.94083396e-02
      4.19985689e-03 4.40998971e-02 8.95535722e-02 1.50561571e-01
      3.48486632e-01 3.84620965e-01 2.90964823e-02 8.79613310e-03
      1.21023264e-02 3.91065725e-04 6.66417032e-02 2.28147823e-02
      6.31190389e-02 5.11714444e-02 3.08261309e-02 1.23510607e-01
      4.65328060e-02 3.70445549e-02 6.72830315e-03 3.21707837e-02
      2.97666974e-02 6.47117868e-02 7.92225674e-02 1.33826301e-01
      2.93307930e-01 2.70716827e-02 1.97227616e-02 9.68871545e-03
      1.55000724e-02 1.41339779e-01 1.40827090e-01 2.34766483e-01
      2.93307930e-01 2.93307930e-01 2.54950315e-01 2.34689772e-01
      1.58606052e-01 1.25435844e-01 2.93307930e-01 2.93307930e-01
      2.93307930e-01 2.93307930e-01 6.36679009e-02 4.23683599e-02
      3.78600992e-02 6.68326067e-03 1.12918597e-02 3.83031145e-02
      3.55074406e-02 6.47025630e-02 1.08509958e-01 1.90564767e-01
      1.40970871e-01 5.06555848e-02 3.30488128e-03 8.82612821e-03
      4.17626500e-02 5.57693355e-02 9.97962505e-02 1.94200054e-01
      2.89876878e-01 2.89876878e-01 2.89876878e-01 2.89876878e-01
      1.53327659e-01 1.07514322e-01 1.10096425e-01 1.26842022e-01
      2.89876878e-01 2.82726049e-01 2.89876878e-01 2.39501715e-01
      2.89876878e-01 1.77694291e-01 2.17348076e-02 4.16910276e-03
      4.32604132e-03 1.08068332e-01 2.25846425e-01 1.79206312e-01
      7.39153847e-02 5.13093285e-02 3.67824286e-02 2.99900677e-02
      4.78135534e-02 7.37111047e-02 1.18063793e-01 7.11067915e-02
      7.15444311e-02 6.68744072e-02 1.13380067e-01 1.41352177e-01
      2.04443876e-02 1.77044552e-02 2.47675627e-02 2.47170869e-02</_>
    <_>
      3.81338820e-02 3.62766869e-02 3.03004794e-02 2.01742854e-02
      2.10533161e-02 3.08015570e-03 1.10376179e-02 2.19309144e-02
      4.48713638e-02 5.11260629e-02 2.30725035e-02 2.55616084e-02
      2.16158386e-02 3.56051810e-02 3.71268787e-03 1.75438207e-02
      2.97259632e-02 1.48114085e-01 4.30116624e-01 2.62125283e-01
      1.20184325e-01 1.94687977e-01 2.41762117e-01 2.21368577e-02
      8.93244892e-03 1.86960120e-02 3.96636277e-01 4.30116624e-01
      1.83761254e-01 4.95566614e-02 9.34264064e-02 1.13087989e-01
      2.85989344e-02 5.70353679e-02 7.28180408e-02 4.30116624e-01
      3.96775417e-02 1.94096901e-02 1.27701331e-02 1.28025552e-02
      2.05636416e-02 1.51702575e-03 1.78322401e-02 3.97297777e-02
      1.37787670e-01 5.05618379e-02 4.13930006e-02 2.38869581e-02
      6.05454482e-03 1.99163053e-02 2.14394275e-03 1.50479274e-02
      4.78648506e-02 7.01912493e-02 3.50318223e-01 2.95234267e-02
      8.90633184e-03 2.94167195e-02 1.22758910e-01 1.82848424e-01
      2.19100952e-01 2.18620867e-01 3.50318223e-01 3.50318223e-01
      2.49528170e-01 1.39319107e-01 1.87157229e-01 2.43969470e-01
      2.48302847e-01 1.64819419e-01 2.41118073e-01 3.50318223e-01
      5.07693067e-02 3.40885930e-02 3.19831818e-02 7.85914157e-03
      3.27915959e-02 1.68027226e-02 2.32181326e-02 4.50346284e-02
      5.26775569e-02 3.81507240e-02 9.86511074e-03 2.03961506e-02
      2.05574874e-02 4.83407155e-02 3.49548608e-02 4.63421382e-02
      6.10357635e-02 5.85744195e-02 2.95731604e-01 2.95731604e-01
      1.97401449e-01 1.89494729e-01 1.89967617e-01 2.95731604e-01
      2.37457588e-01 2.95731604e-01 2.95731604e-01 1.49945185e-01
      6.94593191e-02 5.44163771e-02 5.57650551e-02 1.48765832e-01
      2.95731604e-01 2.18516916e-01 2.95731604e-01 2.95731604e-01
      2.17455745e-01 9.44364518e-02 4.39912975e-02 7.50121474e-02
      1.22282773e-01 1.24747185e-02 3.49999196e-03 6.61760895e-03
      1.44569516e-01 3.31632823e-01 6.80809766e-02 1.86072923e-02
      3.70421484e-02 6.19318672e-02 1.33165075e-02 2.36372463e-02
      2.70191915e-02 3.31632823e-01 2.22751975e-01 8.42436254e-02
      4.23794836e-02 1.82125747e-01 3.31632823e-01 1.42326429e-01
      1.58339739e-02 8.61913618e-03 1.53518245e-01 3.31632823e-01
      6.96199387e-02 3.51995863e-02 1.87537909e-01 3.31632823e-01
      1.92988753e-01 9.96831879e-02 3.23777758e-02 3.31632823e-01
      2.39021882e-01 1.11557338e-02 3.97771876e-03 1.24310516e-02
      7.25744292e-02 8.15680698e-02 8.96811560e-02 8.24861452e-02
      2.95259178e-01 1.49910927e-01 9.16715562e-02 5.65219037e-02
      7.88205788e-02 1.21138103e-01 1.15745433e-01 7.67543986e-02
      9.35664922e-02 1.84576780e-01 2.57320136e-01 1.55738387e-02
      2.78196726e-02 7.43172467e-02 2.95259178e-01 2.95259178e-01
      1.58134893e-01 7.86403865e-02 2.95259178e-01 1.16650000e-01
      8.04451182e-02 8.43625069e-02 1.53169066e-01 2.95259178e-01
      2.95259178e-01 2.50561923e-01 1.80387259e-01 1.50985539e-01
      1.61314428e-01 1.06750682e-01 6.34563789e-02 6.22658357e-02
      6.42822161e-02 1.28678471e-01 8.75619575e-02 1.69547036e-01
      2.09074736e-01 4.50370573e-02 2.10782196e-02 1.67241972e-02
      1.60441175e-02 4.63065542e-02 1.12827800e-01 7.34022111e-02
      1.30886689e-01 1.20497137e-01 2.19029233e-01 1.35129079e-01
      1.11398548e-01 1.90662593e-01 2.63106346e-01 2.63106346e-01
      2.63106346e-01 2.63106346e-01 2.63106346e-01 9.98315513e-02
      5.22904061e-02 3.06519885e-02 1.20117277e-01 2.63106346e-01
      2.63106346e-01 2.41688535e-01 2.63106346e-01 2.02566519e-01
      1.18521802e-01 4.58808579e-02 2.42920779e-02 1.10517226e-01
      3.68862242e-01 9.60136503e-02 9.91798379e-03 5.12083201e-03
      8.41507390e-02 3.11046064e-01 3.87355685e-02 2.08371561e-02
      1.18287571e-01 3.68862242e-01 1.35901809e-01 6.03393205e-02
      1.83604658e-02 3.13201547e-01 1.24246813e-02 6.28552923e-04
      7.76942493e-03 9.34564173e-02 3.68862242e-01 1.74362436e-01
      5.02170622e-03 7.70522223e-04 6.93739904e-03 4.33216356e-02
      1.06174045e-03 1.18938601e-02 1.56085163e-01 3.68862242e-01
      3.25048506e-01 2.86855251e-02 1.65599596e-03 3.44671682e-02
      1.57597885e-01 1.01404432e-02 1.91651527e-02 5.64114638e-02
      3.36590141e-01 2.50213802e-01 1.04278468e-01 4.88483794e-02
      2.44571596e-01 6.61260933e-02 4.94384430e-02 5.60054965e-02
      1.08475558e-01 3.36590141e-01 3.01845402e-01 1.68839365e-01
      1.18421987e-01 8.81972983e-02 2.04620454e-02 1.67616899e-03
      1.13095557e-02 1.22975536e-01 3.36590141e-01 3.36590141e-01
      3.84143107e-02 1.25084808e-02 2.52924990e-02 4.90943082e-02
      9.83098242e-03 1.41867725e-02 1.01847552e-01 3.36590141e-01
      2.42377043e-01 7.41783604e-02 6.22335486e-02 6.09342307e-02
      1.18713848e-01 7.77849630e-02 6.73178136e-02 1.21066034e-01
      2.71959335e-01 2.70603150e-01 2.28002682e-01 2.55943894e-01
      1.58624798e-01 5.66672608e-02 3.16376537e-02 1.89868789e-02
      8.14268664e-02 3.37322325e-01 2.71043301e-01 1.47817120e-01
      2.07972229e-01 1.11277960e-01 5.16602658e-02 2.33041719e-02
      2.37384271e-02 1.33224204e-01 3.37322325e-01 2.05842227e-01
      1.00532919e-01 7.82563910e-02 5.26910983e-02 2.17053164e-02
      1.69101860e-02 1.14480918e-02 1.48183420e-01 3.37322325e-01
      2.26260096e-01 6.17627315e-02 4.91150469e-02 2.78227720e-02
      8.25058948e-03 5.16320230e-04 6.59953430e-03 7.79111311e-02
      3.94402713e-01 1.54982805e-01 3.71636287e-03 5.74664911e-04
      4.62990114e-03 2.90449206e-02 1.59203378e-03 9.87257715e-03
      1.35367528e-01 3.94402713e-01 2.87024558e-01 2.58454289e-02
      5.06798318e-03 2.38297358e-02 7.35253561e-03 1.42409867e-02
      2.55718715e-02 1.22400381e-01 3.94402713e-01 2.34336674e-01
      9.27357748e-03 2.28985008e-02 1.05998083e-03 1.73911247e-02
      3.76749747e-02 6.24829717e-02 2.12463796e-01 3.94402713e-01
      3.05972070e-01 9.65422392e-02 1.22813769e-01 2.21095532e-02
      1.86371077e-02 5.09646581e-03 7.25741824e-03 9.96636674e-02
      3.05429280e-01 2.83501267e-01 3.67955342e-02 1.81990303e-02
      2.97341123e-02 6.83630109e-02 1.18691418e-02 1.14583010e-02
      7.87332505e-02 3.05429280e-01 1.78767502e-01 5.27951270e-02
      4.62983362e-02 7.76422471e-02 1.27935961e-01 7.34215304e-02
      1.76541116e-02 1.54312700e-01 3.05429280e-01 2.70326436e-01
      2.06586480e-01 2.42599830e-01 2.04673722e-01 3.05429280e-01
      1.17861912e-01 2.67934315e-02 8.74933898e-02 2.11556971e-01
      1.55106768e-01 1.12791829e-01 1.30256116e-01 3.05429280e-01
      6.22284003e-02 2.47833990e-02 2.41284315e-02 1.15387127e-01
      3.37753385e-01 1.62852436e-01 6.92121685e-02 5.20348400e-02
      5.44239357e-02 2.06390209e-02 1.91524699e-02 1.44936489e-02
      1.35262802e-01 3.37753385e-01 1.79238319e-01 4.29010503e-02
      3.00188176e-02 2.45904531e-02 3.37753385e-01 1.77885994e-01
      1.25289738e-01 1.78166956e-01 3.37753385e-01 5.50429858e-02
      5.18864542e-02 5.71882538e-02 2.92096764e-01 9.64951739e-02
      1.72359407e-01 1.15514554e-01 2.75053471e-01 3.37753385e-01
      7.09459335e-02 3.33061814e-02 3.32451984e-02 8.62619132e-02
      1.55246025e-02 2.28169318e-02 3.39305140e-02 1.34067684e-01
      3.23976010e-01 2.59328276e-01 1.41303511e-02 3.68866362e-02
      6.15971209e-03 2.92014275e-02 5.41444868e-02 8.38836953e-02
      2.32931063e-01 3.23976010e-01 3.23976010e-01 1.09094843e-01
      1.46813452e-01 2.80513689e-02 9.77056250e-02 9.20236558e-02
      7.23629817e-02 9.11692306e-02 3.23976010e-01 1.96907863e-01
      5.45000508e-02 1.61826372e-01 7.22898319e-02 1.42067462e-01
      1.78874031e-01 1.85697898e-01 1.40632361e-01 2.89423585e-01
      1.63946882e-01 9.69763249e-02 2.27053300e-01 7.81160071e-02
      1.18869111e-01 6.47168234e-02 1.86017361e-02 1.31362468e-01
      2.93741941e-01 2.30541423e-01 1.93621933e-01 2.25922942e-01
      1.87652960e-01 2.93741941e-01 1.05723061e-01 2.49911398e-02
      7.32056275e-02 1.52631685e-01 1.33679762e-01 1.06984884e-01
      1.25573069e-01 2.93741941e-01 1.56099468e-01 6.16253577e-02
      4.13547009e-02 5.12773097e-02 3.91746312e-02 1.03870183e-01
      2.04020172e-01 2.65708864e-01 2.39552841e-01 2.93741941e-01
      9.02555734e-02 2.20125001e-02 3.29267606e-02 1.31209092e-02
      6.22489899e-02 1.19012080e-01 1.57868072e-01 2.93741941e-01
      2.83468097e-01 2.02781379e-01 1.47003606e-01 1.99608117e-01
      2.83468097e-01 4.98675406e-02 5.61602265e-02 6.44098371e-02
      2.83468097e-01 1.07189439e-01 1.90419152e-01 1.33956090e-01
      2.83468097e-01 2.83468097e-01 6.54194653e-02 3.63207906e-02
      3.62548567e-02 9.07204002e-02 2.83468097e-01 2.15065956e-01
      1.59144789e-01 1.35385051e-01 7.80909657e-02 2.04273104e-03
      3.06975637e-02 4.50391583e-02 2.83468097e-01 1.23753697e-01
      1.73590705e-01 1.67089745e-01 2.10643634e-01 1.45379648e-01
      2.04040180e-03 1.44962426e-02 1.48742078e-02 5.65358698e-02
      1.91174448e-01 1.83708325e-01 1.44985139e-01 1.60698429e-01
      2.67394900e-01 2.67394900e-01 1.08884260e-01 2.67394900e-01
      1.39778674e-01 2.67394900e-01 2.67394900e-01 2.67394900e-01
      2.48309270e-01 2.67394900e-01 2.67394900e-01 1.77418038e-01
      2.67394900e-01 1.47580758e-01 7.13751614e-02 4.86261584e-02
      2.01964658e-02 1.71140209e-02 4.21183147e-02 4.37212475e-02
      5.53198792e-02 1.04215413e-01 9.18480083e-02 1.13494590e-01
      9.87743363e-02 4.09959145e-02 7.18335062e-03 3.37196626e-02
      3.24953049e-02 5.69710247e-02 1.00391045e-01 1.27626941e-01
      2.41526932e-01 9.37674716e-02 6.94976300e-02 6.77898079e-02
      4.51120213e-02 1.54915318e-01 3.15846056e-01 3.45821947e-01
      3.45821947e-01 3.45821947e-01 1.36420757e-01 3.60027328e-02
      4.39932309e-02 1.46299219e-02 9.48729590e-02 1.86625898e-01
      2.46738359e-01 3.45821947e-01 8.91325548e-02 5.86595386e-02
      2.09330935e-02 3.76880285e-03 2.48126853e-02 3.04077882e-02
      5.68183810e-02 7.72713721e-02 1.26468092e-01 2.60869026e-01
      8.41154307e-02 3.16989943e-02 2.93129100e-03 1.21581471e-02
      1.40622156e-02 4.67143916e-02 7.67854676e-02 2.56758422e-01
      3.12416762e-01 3.12416762e-01 2.90308863e-01 2.39780411e-01
      1.14342257e-01 1.53543521e-03 4.60394584e-02 7.67586157e-02
      3.12416762e-01 2.22272024e-01 2.95672715e-01 3.06954533e-01
      3.12416762e-01 2.21672013e-01 3.37795774e-03 1.96194705e-02
      2.19679736e-02 9.54498500e-02 2.58993953e-01 7.59183988e-02
      5.88535517e-02 2.21680719e-02 3.29717398e-02 1.04045458e-02
      1.53213227e-02 4.80141491e-02 1.92314595e-01 7.70570114e-02
      5.59828579e-02 7.82258362e-02 6.34741113e-02 1.17934577e-01
      2.28900034e-02 2.69632787e-03 1.24869952e-02 4.57193032e-02</_>
    <_>
      4.10221145e-02 2.11512409e-02 2.60696784e-02 1.33900447e-02
      3.23074535e-02 4.10827249e-03 7.31041888e-03 1.30772674e-02
      3.03983856e-02 6.90247491e-02 1.39943538e-02 1.67901739e-02
      2.30689943e-02 4.31986265e-02 8.29142798e-03 1.45937232e-02
      4.82168458e-02 1.11993261e-01 4.32148606e-01 2.37716913e-01
      1.34329438e-01 1.81459129e-01 2.78331250e-01 2.01892443e-02
      7.83682335e-03 2.77375504e-02 3.78254861e-01 4.32148606e-01
      1.68379262e-01 6.13053590e-02 8.17154497e-02 1.21028908e-01
      3.06913294e-02 5.00576161e-02 1.45912677e-01 4.32148606e-01
      2.92647369e-02 5.84885059e-03 8.23643431e-03 7.83480052e-03
      1.71960741e-02 4.62700194e-03 1.38577009e-02 7.28635713e-02
      1.13401040e-01 4.81244586e-02 3.42022367e-02 2.56776996e-02
      1.43036367e-02 1.21938670e-02 2.70866021e-03 1.42495800e-02
      4.63095233e-02 5.78224584e-02 3.28032374e-01 1.82267521e-02
      1.53726125e-02 2.14989036e-02 1.17541887e-01 1.60494015e-01
      2.10563794e-01 3.21102470e-01 3.28032374e-01 3.28032374e-01
      2.58795589e-01 2.03369439e-01 1.86156794e-01 2.27487490e-01
      2.27324367e-01 1.71086088e-01 2.69576848e-01 3.28032374e-01
      4.60462198e-02 3.16396356e-02 1.90571584e-02 1.95998922e-02
      1.44889802e-02 3.27307098e-02 4.40327376e-02 6.33565113e-02
      4.80854996e-02 2.18865164e-02 4.59326245e-03 8.75161216e-03
      2.71650627e-02 3.05767767e-02 4.73663174e-02 7.32217804e-02
      1.04237877e-01 5.65361232e-02 2.86143035e-01 2.86143035e-01
      2.21821710e-01 1.97471887e-01 1.60379589e-01 2.86143035e-01
      2.86143035e-01 2.86143035e-01 2.86143035e-01 1.07748620e-01
      6.24579862e-02 4.71532196e-02 3.92756350e-02 8.85012373e-02
      2.86143035e-01 2.86143035e-01 2.86143035e-01 2.86143035e-01
      2.28923112e-01 8.48481432e-02 4.78620417e-02 6.95720464e-02
      1.30800396e-01 1.20931724e-02 2.90482608e-03 9.94354486e-03
      1.35794833e-01 3.28112990e-01 6.14148453e-02 2.25540195e-02
      3.25771272e-02 6.21226393e-02 1.46991825e-02 2.13160943e-02
      4.84760255e-02 3.28112990e-01 2.32175127e-01 8.22456628e-02
      4.27493602e-02 1.93028510e-01 3.28112990e-01 1.42873958e-01
      1.49410609e-02 1.02056162e-02 1.47954032e-01 3.28112990e-01
      6.72994629e-02 3.45380083e-02 1.97969913e-01 3.28112990e-01
      1.96001440e-01 9.71373245e-02 2.92991120e-02 3.28112990e-01
      2.45120794e-01 7.54973665e-03 6.36059418e-03 9.65740159e-03
      7.16754794e-02 7.37475231e-02 9.05040801e-02 1.15539700e-01
      2.90493727e-01 1.18490808e-01 9.74229276e-02 7.88274184e-02
      7.92776123e-02 1.16430558e-01 1.08537279e-01 8.08586180e-02
      1.04819909e-01 1.78898558e-01 2.73501456e-01 1.38541916e-02
      2.61324514e-02 6.98411614e-02 2.90493727e-01 2.90493727e-01
      1.74203724e-01 7.25758225e-02 2.90493727e-01 9.97681990e-02
      8.57196450e-02 8.69769230e-02 1.51554987e-01 2.90493727e-01
      2.90493727e-01 2.57102817e-01 1.89224049e-01 1.46890163e-01
      1.44185930e-01 1.13367461e-01 6.96797073e-02 6.61695972e-02
      5.73028959e-02 1.24803461e-01 1.17832534e-01 1.81084186e-01
      1.80112690e-01 3.56307887e-02 1.99576151e-02 1.47475461e-02
      1.20794810e-02 3.03113181e-02 1.05741866e-01 1.13381527e-01
      1.49664789e-01 9.58071500e-02 2.14335650e-01 1.39378667e-01
      9.87754911e-02 1.99341625e-01 2.62856960e-01 2.62856960e-01
      2.62856960e-01 2.62856960e-01 2.62250036e-01 1.03918202e-01
      5.01039028e-02 2.52827723e-02 1.19872957e-01 2.62856960e-01
