<?xml version="1.0"?>
<opencv_storage>
<opencv_ml_svm>
  <format>3</format>
  <svmType>C_SVC</svmType>
  <kernel>
    <type>RBF</type>
    <gamma>2.9999999999999999e-01</gamma></kernel>
  <C>100.</C>
  <term_criteria><epsilon>1.1920928955078125e-07</epsilon>
    <iterations>1000</iterations></term_criteria>
  <var_count>96</var_count>
  <class_count>2</class_count>
  <class_labels type_id="opencv-matrix">
    <rows>2</rows>
    <cols>1</cols>
    <dt>i</dt>
    <data>
      0 1</data></class_labels>
  <sv_total>10</sv_total>
  <support_vectors>
    <_>
      5.66460229e-02 2.60819644e-02 1.43945757e-02 3.02514397e-02
      1.25176281e-01 3.33456807e-02 3.81643809e-02 1.39921367e-01
      3.85338038e-01 3.85338038e-01 1.51143089e-01 1.98913857e-01
      3.85338038e-01 3.85338038e-01 3.85338038e-01 3.85338038e-01
      1.20039009e-01 3.22530307e-02 1.18622407e-02 7.34215379e-02
      8.91466588e-02 2.22052913e-02 4.25585620e-02 1.20117523e-01
      3.50980073e-01 3.50980073e-01 3.13060969e-01 3.37199390e-01
      3.50980073e-01 3.50980073e-01 3.50980073e-01 3.50980073e-01
      2.05533624e-01 3.04801017e-01 2.35145241e-01 7.42291808e-02
      3.04801017e-01 3.04801017e-01 3.04801017e-01 2.12974414e-01
      9.37175751e-02 3.04801017e-01 3.04801017e-01 7.54025653e-02
      2.55258143e-01 3.04801017e-01 3.04801017e-01 1.60294056e-01
      3.08568656e-01 3.08568656e-01 2.36325398e-01 1.49250939e-01
      1.10042803e-01 3.08568656e-01 3.08568656e-01 1.08297154e-01
      3.08568656e-01 3.08568656e-01 3.08568656e-01 1.85317665e-01
      3.78595889e-02 3.08568656e-01 3.08568656e-01 4.73922640e-02
      7.54469261e-02 3.07718009e-01 3.07718009e-01 2.27545157e-01
      3.07718009e-01 3.07718009e-01 3.07718009e-01 3.07718009e-01
      6.38004318e-02 7.89484456e-02 2.29388863e-01 2.15819046e-01
      3.07718009e-01 1.17937319e-01 2.41915956e-01 3.07718009e-01
      2.71270275e-01 3.17587525e-01 3.17587525e-01 1.78803489e-01
      8.73748213e-02 3.17587525e-01 3.17587525e-01 9.67172906e-02
      1.52452633e-01 2.33218476e-01 2.84359634e-01 2.12188736e-01
      1.83657542e-01 3.17587525e-01 3.17559153e-01 1.78549126e-01</_>
    <_>
      4.99530174e-02 3.81847210e-02 4.22623046e-02 5.86875603e-02
      2.54745245e-01 1.97063297e-01 7.16474205e-02 1.19261511e-01
      2.57620513e-01 2.26360410e-01 9.05572027e-02 1.52848735e-01
      4.97739613e-01 4.97739613e-01 3.19740623e-01 3.40389699e-01
      1.86184406e-01 4.24630120e-02 1.82570130e-01 3.69706452e-01
      3.48728150e-02 6.51102141e-02 9.17561427e-02 6.82738125e-02
      3.83125514e-01 3.83125514e-01 3.83125514e-01 3.83125514e-01
      3.48890088e-02 1.64293334e-01 3.83125514e-01 9.49664488e-02
      1.56549558e-01 1.91249117e-01 3.74751277e-02 2.71505918e-02
      3.13572854e-01 3.13572854e-01 1.82689101e-01 1.41851097e-01
      3.13572854e-01 3.13572854e-01 2.56879747e-01 1.65932462e-01
      3.13572854e-01 3.13572854e-01 3.13572854e-01 3.13572854e-01
      1.16476893e-01 2.91578770e-01 2.91578770e-01 2.30278909e-01
      6.07676879e-02 7.65037462e-02 2.15610296e-01 1.55807599e-01
      2.91578770e-01 2.91578770e-01 2.91578770e-01 2.91578770e-01
      2.91578770e-01 2.91578770e-01 2.91578770e-01 2.91578770e-01
      3.36743355e-01 3.00447285e-01 3.36743355e-01 3.36743355e-01
      3.36743355e-01 2.21804351e-01 2.85875857e-01 3.36743355e-01
      6.56986833e-02 2.59530228e-02 8.15708041e-02 1.44666195e-01
      2.52134830e-01 2.08351854e-02 5.60153462e-02 3.29770207e-01
      3.16422820e-01 3.16422820e-01 2.75830477e-01 3.16422820e-01
      3.16422820e-01 3.16422820e-01 2.45288581e-01 3.16372454e-01
      3.16422820e-01 2.22400188e-01 1.00883573e-01 1.94231927e-01
      1.67048693e-01 1.73543319e-01 5.48996106e-02 3.68170440e-02</_>
    <_>
      1.67296901e-01 7.73603097e-02 2.33156327e-02 9.19087008e-02
      2.96595305e-01 4.09703478e-02 2.72702277e-02 3.10564607e-01
      3.20363253e-01 3.20363253e-01 3.20363253e-01 2.20375896e-01
      3.20363253e-01 3.20363253e-01 3.20363253e-01 3.20363253e-01
      1.83287248e-01 7.44783208e-02 9.43338275e-02 2.09035933e-01
      5.88239953e-02 3.76473926e-02 9.90571603e-02 1.34199664e-01
      3.52602631e-01 3.52602631e-01 3.52602631e-01 3.52602631e-01
      1.94129184e-01 2.97293991e-01 3.52602631e-01 3.52602631e-01
      7.51443431e-02 3.37427348e-01 3.37427348e-01 4.63397019e-02
      1.79470077e-01 3.37427348e-01 3.37427348e-01 1.81620464e-01
      1.64943412e-02 3.37427348e-01 3.37427348e-01 1.25189275e-02
      4.69726808e-02 3.37427348e-01 3.37427348e-01 1.00727960e-01
      1.15053996e-01 2.95546770e-01 2.95546770e-01 2.72470295e-01
      6.25383109e-02 2.95546770e-01 2.95546770e-01 1.75119221e-01
      2.95546770e-01 2.95546770e-01 2.95546770e-01 2.48809621e-01
      1.44342199e-01 2.95546770e-01 2.95546770e-01 7.82272220e-02
      1.39962256e-01 3.28297555e-01 3.28297555e-01 1.46624550e-01
      2.74124026e-01 3.28297555e-01 3.28297555e-01 3.28297555e-01
      1.49726093e-01 1.55224323e-01 2.23910153e-01 1.88032940e-01
      2.64337718e-01 1.97759375e-01 2.07527667e-01 2.39865720e-01
      3.22096169e-01 3.22096169e-01 2.10777149e-01 3.22096169e-01
      3.22096169e-01 3.22096169e-01 3.14221025e-01 1.37043640e-01
      3.22096169e-01 1.49168044e-01 3.69236693e-02 3.18678588e-01
      1.79358765e-01 2.20626831e-01 5.92906624e-02 5.32133840e-02</_>
    <_>
      1.32194951e-01 5.71034364e-02 4.71981280e-02 1.05063699e-01
      1.03531994e-01 3.94041762e-02 8.80347192e-02 1.58818439e-01
      3.51954550e-01 3.51954550e-01 3.51954550e-01 2.82004267e-01
      3.07372391e-01 3.51954550e-01 3.51954550e-01 3.51954550e-01
      6.49573058e-02 1.95781961e-02 1.31535409e-02 5.94380833e-02
      5.27975373e-02 3.04730814e-02 3.07555404e-02 5.98045476e-02
      4.23168331e-01 1.57351106e-01 1.38157815e-01 4.23168331e-01
      4.23168331e-01 2.37276241e-01 4.03475970e-01 4.23168331e-01
      5.62239513e-02 3.35677713e-01 3.35677713e-01 4.24515530e-02
      9.66795608e-02 3.35677713e-01 3.35677713e-01 7.49443397e-02
      1.47783197e-02 3.35677713e-01 3.35677713e-01 2.54099462e-02
      2.37727180e-01 3.35677713e-01 3.35677713e-01 1.33808196e-01
      3.18226308e-01 1.75215170e-01 1.09771132e-01 3.18226308e-01
      3.18226308e-01 2.62857497e-01 2.60623962e-01 3.18226308e-01
      3.18226308e-01 1.88927963e-01 5.86271472e-02 3.18226308e-01
      3.00984263e-01 1.90447569e-01 9.95401442e-02 1.83145791e-01
      1.11964032e-01 3.06905687e-01 3.06905687e-01 1.86385095e-01
      3.06905687e-01 3.06905687e-01 3.06905687e-01 3.06905687e-01
      1.40666440e-01 9.86903682e-02 2.40745768e-01 2.25998178e-01
      3.06905687e-01 1.75862044e-01 1.63221285e-01 3.06905687e-01
      3.08865935e-01 3.08865935e-01 1.68139309e-01 3.08865935e-01
      3.08865935e-01 2.98338324e-01 2.19220534e-01 2.40547344e-01
      2.39758134e-01 2.33000398e-01 1.94977939e-01 1.67487964e-01
      1.55581355e-01 2.89559036e-01 3.08865935e-01 1.04085885e-01</_>
    <_>
      2.06106737e-01 2.17328951e-01 9.95955467e-02 9.68514085e-02
      2.93566495e-01 2.93566495e-01 2.81623065e-01 2.93566495e-01
      2.68394560e-01 2.19599172e-01 2.08685547e-01 2.83560663e-01
      2.93566495e-01 2.59206414e-01 2.57746935e-01 2.93566495e-01
      2.82869667e-01 2.75190383e-01 1.81197047e-01 2.82869667e-01
      1.42362744e-01 2.82869667e-01 2.82869667e-01 1.57342136e-01
      2.82869667e-01 2.82869667e-01 2.82869667e-01 2.82869667e-01
      1.51384786e-01 2.82869667e-01 2.82869667e-01 1.43240333e-01
      2.48939097e-01 1.05514884e-01 1.98350266e-01 3.32183331e-01
      3.32183331e-01 8.00054446e-02 1.29665062e-01 3.32183331e-01
      2.32975528e-01 2.16542125e-01 4.07988243e-02 7.42897391e-02
      3.32183331e-01 3.32183331e-01 3.00988287e-01 3.32183331e-01
      2.73386896e-01 2.73386896e-01 2.73386896e-01 2.73386896e-01
      2.73386896e-01 2.73386896e-01 2.73386896e-01 2.33959809e-01
      2.73386896e-01 2.16366738e-01 1.50368869e-01 2.58017153e-01
      2.24591061e-01 2.04878569e-01 2.27704152e-01 2.53661156e-01
      2.32817873e-01 2.49992982e-01 9.51914638e-02 7.96981528e-02
      2.98193306e-01 2.98193306e-01 2.83710271e-01 2.98193306e-01
      2.77912885e-01 2.20172927e-01 2.03799739e-01 2.59094149e-01
      2.98193306e-01 2.29647025e-01 2.29576305e-01 2.98193306e-01
      2.84691900e-01 2.84691900e-01 2.18480065e-01 2.69033551e-01
      1.12330645e-01 2.84691900e-01 2.84691900e-01 1.36196062e-01
      2.84691900e-01 2.84691900e-01 2.84691900e-01 2.84691900e-01
      1.32702813e-01 2.84691900e-01 2.84691900e-01 1.33304343e-01</_>
    <_>
      2.67520666e-01 2.88404614e-01 1.88626438e-01 1.59908220e-01
      3.05176347e-01 3.05176347e-01 3.05176347e-01 3.05176347e-01
      2.19041616e-01 1.55155838e-01 1.95389733e-01 2.60230243e-01
      3.05176347e-01 1.25121981e-01 1.69277728e-01 3.05176347e-01
      2.77083397e-01 2.77083397e-01 2.53647834e-01 2.77083397e-01
      1.19029276e-01 2.77083397e-01 2.77083397e-01 1.54597431e-01
      2.77083397e-01 2.77083397e-01 2.77083397e-01 2.77083397e-01
      1.69090390e-01 2.77083397e-01 2.77083397e-01 1.47331417e-01
      1.30129740e-01 7.30961338e-02 5.66691421e-02 1.06928892e-01
      3.21755260e-01 1.29445001e-01 1.31988212e-01 3.21755260e-01
      3.21755260e-01 3.21755260e-01 2.86509216e-01 1.24044754e-01
      3.21755260e-01 3.21755260e-01 3.21755260e-01 3.21755260e-01
      2.74097413e-01 2.04243109e-01 2.08697304e-01 2.81181902e-01
      2.22906202e-01 2.69818813e-01 2.46187866e-01 2.12105632e-01
      2.81181902e-01 2.81181902e-01 2.81181902e-01 2.51173437e-01
      1.82295695e-01 2.81181902e-01 2.81181902e-01 1.94948629e-01
      1.16551802e-01 2.91292638e-01 2.91292638e-01 5.77547140e-02
      2.79593915e-01 2.91292638e-01 2.91292638e-01 1.31370410e-01
      7.38845542e-02 2.91292638e-01 2.91292638e-01 1.75400928e-01
      2.91292638e-01 2.91292638e-01 2.91292638e-01 2.91292638e-01
      3.05662304e-01 3.17619532e-01 3.17619532e-01 1.68101102e-01
      5.54781668e-02 3.17619532e-01 3.17619532e-01 5.31827807e-02
      2.00340509e-01 3.17619532e-01 3.17619532e-01 1.30023643e-01
      5.41024096e-02 3.17619532e-01 3.17619532e-01 4.69650924e-02</_>
    <_>
      1.85129598e-01 2.01896355e-01 1.06962644e-01 1.22195229e-01
      3.22567314e-01 3.22567314e-01 3.01900029e-01 3.22567314e-01
      2.15743780e-01 1.80786893e-01 1.68435663e-01 2.61459202e-01
      3.22567314e-01 2.37024322e-01 2.27674693e-01 3.22567314e-01
      2.80137241e-01 2.80137241e-01 2.30602071e-01 2.80137241e-01
      1.28974915e-01 2.80137241e-01 2.80137241e-01 1.38999328e-01
      2.80137241e-01 2.80137241e-01 2.80137241e-01 2.80137241e-01
      1.64285719e-01 2.80137241e-01 2.80137241e-01 1.33538499e-01
      1.31449193e-01 1.00788042e-01 9.22898650e-02 1.64266676e-01
      3.41296375e-01 1.16434760e-01 1.55147910e-01 3.41296375e-01
      1.53813243e-01 3.41296375e-01 3.41296375e-01 1.29171059e-01
      2.30252564e-01 3.41296375e-01 3.41296375e-01 3.22125435e-01
      2.94224441e-01 1.97452441e-01 2.89515585e-01 2.94224441e-01
      2.31023088e-01 2.94224441e-01 2.64953017e-01 1.77958012e-01
      2.94224441e-01 1.38719916e-01 1.35186821e-01 2.94224441e-01
      2.94224441e-01 1.62263796e-01 2.21783653e-01 2.94224441e-01
      1.89785641e-02 3.19598049e-01 3.19598049e-01 1.75216533e-02
      8.37428123e-02 3.19598049e-01 3.19598049e-01 7.34829530e-02
      2.54354384e-02 3.19598049e-01 3.19598049e-01 5.57982251e-02
      2.75461167e-01 3.19598049e-01 3.19598049e-01 2.94862896e-01
      3.44029516e-01 2.82382339e-01 1.76409587e-01 3.44029516e-01
      3.44029516e-01 2.79201567e-01 2.50283122e-01 3.44029516e-01
      3.44029516e-01 1.57627553e-01 5.68825826e-02 2.65629321e-01
      1.83039442e-01 9.24003497e-02 3.87477763e-02 1.05556943e-01</_>
    <_>
      1.76902160e-01 1.69411197e-01 9.35585052e-02 8.51479545e-02
      3.23246449e-01 3.23246449e-01 3.18635136e-01 3.23246449e-01
      2.24154174e-01 1.65343150e-01 1.67295352e-01 2.12851122e-01
      3.23246449e-01 2.70068467e-01 2.70164281e-01 3.23246449e-01
      2.81468391e-01 2.81468391e-01 2.18069687e-01 2.81468391e-01
      1.28958628e-01 2.81468391e-01 2.81468391e-01 1.27603933e-01
      2.81468391e-01 2.81468391e-01 2.81468391e-01 2.81468391e-01
      1.50318190e-01 2.81468391e-01 2.81468391e-01 1.50516570e-01
      9.06222537e-02 6.51606023e-02 6.00944087e-02 1.00178972e-01
      3.49715441e-01 1.32840753e-01 8.56572390e-02 3.49715441e-01
      1.87865689e-01 3.49715441e-01 2.15442270e-01 8.71855468e-02
      3.49715441e-01 3.49715441e-01 3.49715441e-01 3.49715441e-01
      2.60194063e-01 2.31882587e-01 2.60194063e-01 2.60194063e-01
      2.21577719e-01 2.60194063e-01 2.60194063e-01 2.10957423e-01
      2.60194063e-01 2.60194063e-01 2.60194063e-01 2.60194063e-01
      2.18176708e-01 2.60194063e-01 2.60194063e-01 2.40247726e-01
      6.53606951e-02 2.95469016e-01 2.74085641e-01 4.52882126e-02
      2.84630567e-01 2.95469016e-01 2.95469016e-01 2.45339766e-01
      5.41855544e-02 2.52202064e-01 2.93468148e-01 1.03034370e-01
      2.95469016e-01 2.95469016e-01 2.95469016e-01 2.95469016e-01
      2.91773170e-01 2.91773170e-01 2.91773170e-01 1.83587894e-01
      1.68837458e-01 2.91773170e-01 2.91773170e-01 1.12651058e-01
      2.91773170e-01 2.91773170e-01 2.91773170e-01 2.79517829e-01
      2.06628606e-01 2.91773170e-01 1.73563138e-01 7.10609034e-02</_>
    <_>
      1.03238232e-01 1.56196803e-01 1.04459889e-01 4.92213108e-02
      3.17511290e-01 3.17511290e-01 3.17511290e-01 2.62036979e-01
      1.01360954e-01 3.17511290e-01 3.17511290e-01 7.39751607e-02
      3.17511290e-01 3.17511290e-01 3.17511290e-01 2.39833727e-01
      2.78294325e-01 3.12041849e-01 2.70560920e-01 1.99363068e-01
      8.97310451e-02 2.54262835e-01 2.65991837e-01 1.21905647e-01
      3.12041849e-01 3.12041849e-01 3.12041849e-01 2.41227895e-01
      4.37069871e-02 3.12041849e-01 3.12041849e-01 6.20443858e-02
      6.59608096e-02 3.12853247e-01 3.12853247e-01 1.20130241e-01
      3.12853247e-01 3.12853247e-01 3.12853247e-01 3.12853247e-01
      5.58285378e-02 8.62316415e-02 1.40465274e-01 1.03117041e-01
      3.12853247e-01 2.37236470e-01 3.12853247e-01 3.12853247e-01
      2.17998400e-01 3.15742254e-01 3.15742254e-01 1.62976727e-01
      5.55920601e-02 3.15742254e-01 3.15742254e-01 4.74577136e-02
      2.35128880e-01 3.15742254e-01 3.15742254e-01 2.32687071e-01
      1.36397824e-01 3.13736796e-01 2.71593899e-01 1.37953848e-01
      1.32613823e-01 1.57514483e-01 8.15838724e-02 7.48515204e-02
      3.20198357e-01 3.20198357e-01 2.89264560e-01 3.20198357e-01
      2.19939977e-01 2.15515986e-01 1.53509066e-01 2.06978217e-01
      3.20198357e-01 3.20198357e-01 2.86501467e-01 3.20198357e-01
      2.90009052e-01 2.90009052e-01 2.63694972e-01 2.90009052e-01
      9.29649100e-02 2.43529722e-01 2.59624183e-01 1.28818184e-01
      2.90009052e-01 2.90009052e-01 2.90009052e-01 2.90009052e-01
      1.02106810e-01 2.90009052e-01 2.90009052e-01 9.08064470e-02</_>
    <_>
      8.55381787e-02 1.72101453e-01 1.06064618e-01 3.07840016e-02
      3.24548453e-01 3.24548453e-01 3.24548453e-01 2.23396614e-01
      6.26097843e-02 3.24548453e-01 3.24548453e-01 6.42617792e-02
      2.98096001e-01 3.24548453e-01 3.24548453e-01 2.51963258e-01
      2.96825737e-01 3.17993611e-01 3.02383035e-01 1.78577676e-01
      7.96024054e-02 2.62230754e-01 2.69020736e-01 9.55141261e-02
      3.02974075e-01 3.17993611e-01 3.17993611e-01 1.69888407e-01
      3.30319740e-02 3.17993611e-01 3.17993611e-01 3.80642228e-02
      3.68804671e-02 1.94779351e-01 2.51797825e-01 1.24350928e-01
      2.75481969e-01 3.02543253e-01 3.02543253e-01 3.02543253e-01
      9.08659771e-02 2.70036906e-01 2.63451546e-01 1.07758641e-01
      3.02543253e-01 3.02543253e-01 3.02543253e-01 3.02543253e-01
      2.26983637e-01 3.10862750e-01 3.10862750e-01 1.63814262e-01
      6.35678023e-02 3.10862750e-01 3.10862750e-01 5.61378449e-02
      3.10862750e-01 2.80707389e-01 3.10862750e-01 3.10862750e-01
      1.66413710e-01 2.07993537e-01 2.17506394e-01 1.94511592e-01
      3.12876105e-02 3.16177905e-01 2.93264985e-01 2.04795394e-02
      1.29700616e-01 3.18680704e-01 3.18680704e-01 9.80534703e-02
      3.10105346e-02 3.13811719e-01 3.18680704e-01 6.00238889e-02
      2.86652446e-01 3.18680704e-01 3.18680704e-01 3.00014943e-01
      3.54540169e-01 2.80392319e-01 2.65127212e-01 3.54540169e-01
      2.86948442e-01 2.00836286e-01 2.37495661e-01 3.02919239e-01
      3.54540169e-01 1.64291456e-01 9.19292271e-02 3.54540169e-01
      1.26939416e-01 8.04936066e-02 7.50446469e-02 1.01214834e-01</_></support_vectors>
  <decision_functions>
    <_>
      <sv_count>10</sv_count>
      <rho>-9.0357747612838435e-02</rho>
      <alpha>
        1.0594109960819047e+00 1.9482696901452694e+00
        1.9724205574150773e+00 4.7692683894041238e-01
        -7.5366791897614038e-01 -4.6407558868196731e-02
        -1.2132584236634476e+00 -8.6810224617673248e-01
        -1.8802092266134784e+00 -6.9538270828466731e-01</alpha>
      <index>
        0 1 2 3 4 5 6 7 8 9</index></_></decision_functions></opencv_ml_svm>
</opencv_storage>
